svm_type c_svc
kernel_type rbf
gamma 0.00819672131147541
nr_class 2
total_sv 12240
rho 0.4275220991550279
label -1 1 
nr_sv 6128 6112 
SV
1.0 5:1.0 7:1.0 17:1.0 22:1.0 36:1.0 40:1.0 51:1.0 63:1.0 67:1.0 73:1.0 74:1.0 76:1.0 81:1.0 83:1.0 
1.0 2:1.0 6:1.0 14:1.0 19:1.0 39:1.0 40:1.0 50:1.0 63:1.0 67:1.0 73:1.0 74:1.0 76:1.0 81:1.0 83:1.0 
1.0 3:1.0 6:1.0 16:1.0 22:1.0 36:1.0 40:1.0 52:1.0 63:1.0 67:1.0 73:1.0 74:1.0 77:1.0 80:1.0 83:1.0 
1.0 2:1.0 6:1.0 14:1.0 21:1.0 35:1.0 42:1.0 48:1.0 64:1.0 69:1.0 73:1.0 75:1.0 76:1.0 82:1.0 83:1.0 
1.0 3:1.0 7:1.0 18:1.0 22:1.0 36:1.0 40:1.0 57:1.0 63:1.0 67:1.0 73:1.0 74:1.0 76:1.0 82:1.0 103:1.0 
1.0 3:1.0 10:1.0 18:1.0 19:1.0 39:1.0 40:1.0 52:1.0 61:1.0 67:1.0 72:1.0 74:1.0 76:1.0 82:1.0 83:1.0 
1.0 5:1.0 7:1.0 16:1.0 20:1.0 37:1.0 40:1.0 52:1.0 61:1.0 67:1.0 72:1.0 75:1.0 76:1.0 78:1.0 83:1.0 
1.0 3:1.0 6:1.0 17:1.0 22:1.0 36:1.0 40:1.0 48:1.0 63:1.0 67:1.0 73:1.0 74:1.0 76:1.0 80:1.0 83:1.0 
1.0 5:1.0 10:1.0 17:1.0 29:1.0 39:1.0 42:1.0 51:1.0 64:1.0 67:1.0 72:1.0 75:1.0 76:1.0 82:1.0 83:1.0 
1.0 5:1.0 6:1.0 18:1.0 20:1.0 37:1.0 40:1.0 50:1.0 63:1.0 68:1.0 73:1.0 74:1.0 76:1.0 82:1.0 83:1.0 
1.0 2:1.0 6:1.0 17:1.0 22:1.0 36:1.0 40:1.0 51:1.0 63:1.0 67:1.0 73:1.0 74:1.0 76:1.0 80:1.0 83:1.0 
1.0 2:1.0 18:1.0 19:1.0 39:1.0 40:1.0 61:1.0 67:1.0 72:1.0 74:1.0 76:1.0 78:1.0 83:1.0 
1.0 5:1.0 6:1.0 17:1.0 20:1.0 37:1.0 40:1.0 48:1.0 63:1.0 67:1.0 73:1.0 74:1.0 76:1.0 80:1.0 83:1.0 
1.0 2:1.0 6:1.0 17:1.0 22:1.0 36:1.0 40:1.0 54:1.0 63:1.0 67:1.0 73:1.0 74:1.0 76:1.0 80:1.0 83:1.0 
1.0 5:1.0 16:1.0 20:1.0 37:1.0 40:1.0 63:1.0 67:1.0 73:1.0 74:1.0 76:1.0 80:1.0 83:1.0 
1.0 4:1.0 10:1.0 16:1.0 22:1.0 36:1.0 40:1.0 49:1.0 61:1.0 67:1.0 72:1.0 74:1.0 76:1.0 78:1.0 83:1.0 
1.0 5:1.0 6:1.0 17:1.0 20:1.0 37:1.0 40:1.0 55:1.0 63:1.0 67:1.0 73:1.0 75:1.0 76:1.0 80:1.0 83:1.0 
1.0 4:1.0 6:1.0 17:1.0 22:1.0 36:1.0 40:1.0 47:1.0 63:1.0 67:1.0 73:1.0 74:1.0 76:1.0 81:1.0 83:1.0 
1.0 5:1.0 6:1.0 18:1.0 22:1.0 36:1.0 40:1.0 54:1.0 63:1.0 67:1.0 73:1.0 74:1.0 76:1.0 80:1.0 99:1.0 
1.0 5:1.0 7:1.0 18:1.0 22:1.0 36:1.0 40:1.0 51:1.0 63:1.0 67:1.0 73:1.0 74:1.0 76:1.0 80:1.0 83:1.0 
1.0 4:1.0 6:1.0 16:1.0 20:1.0 37:1.0 41:1.0 47:1.0 64:1.0 67:1.0 73:1.0 74:1.0 76:1.0 80:1.0 
1.0 4:1.0 6:1.0 16:1.0 20:1.0 37:1.0 40:1.0 48:1.0 63:1.0 67:1.0 73:1.0 74:1.0 77:1.0 80:1.0 83:1.0 
1.0 4:1.0 6:1.0 18:1.0 20:1.0 37:1.0 40:1.0 50:1.0 63:1.0 67:1.0 73:1.0 74:1.0 76:1.0 82:1.0 83:1.0 
1.0 2:1.0 6:1.0 15:1.0 20:1.0 37:1.0 40:1.0 51:1.0 63:1.0 67:1.0 73:1.0 75:1.0 76:1.0 82:1.0 83:1.0 
1.0 4:1.0 7:1.0 15:1.0 23:1.0 39:1.0 40:1.0 52:1.0 63:1.0 68:1.0 73:1.0 74:1.0 76:1.0 82:1.0 110:1.0 
1.0 3:1.0 7:1.0 16:1.0 29:1.0 39:1.0 40:1.0 50:1.0 63:1.0 67:1.0 73:1.0 74:1.0 76:1.0 80:1.0 83:1.0 
1.0 4:1.0 6:1.0 16:1.0 31:1.0 35:1.0 40:1.0 54:1.0 63:1.0 67:1.0 73:1.0 74:1.0 76:1.0 80:1.0 83:1.0 
1.0 3:1.0 6:1.0 18:1.0 22:1.0 36:1.0 40:1.0 48:1.0 63:1.0 71:1.0 73:1.0 74:1.0 76:1.0 80:1.0 83:1.0 
1.0 4:1.0 7:1.0 18:1.0 22:1.0 36:1.0 40:1.0 56:1.0 63:1.0 68:1.0 73:1.0 74:1.0 76:1.0 80:1.0 84:1.0 
1.0 5:1.0 6:1.0 14:1.0 20:1.0 37:1.0 40:1.0 47:1.0 63:1.0 67:1.0 73:1.0 74:1.0 76:1.0 82:1.0 87:1.0 
1.0 3:1.0 8:1.0 16:1.0 19:1.0 39:1.0 40:1.0 50:1.0 63:1.0 67:1.0 73:1.0 74:1.0 76:1.0 80:1.0 
1.0 4:1.0 11:1.0 15:1.0 22:1.0 36:1.0 42:1.0 57:1.0 64:1.0 67:1.0 72:1.0 75:1.0 76:1.0 80:1.0 83:1.0 
1.0 3:1.0 6:1.0 16:1.0 22:1.0 36:1.0 40:1.0 54:1.0 63:1.0 67:1.0 73:1.0 74:1.0 76:1.0 80:1.0 83:1.0 
1.0 4:1.0 10:1.0 15:1.0 19:1.0 39:1.0 40:1.0 52:1.0 63:1.0 67:1.0 73:1.0 74:1.0 76:1.0 79:1.0 83:1.0 
1.0 4:1.0 6:1.0 17:1.0 25:1.0 38:1.0 40:1.0 54:1.0 63:1.0 67:1.0 73:1.0 74:1.0 76:1.0 80:1.0 83:1.0 
1.0 3:1.0 6:1.0 14:1.0 29:1.0 39:1.0 42:1.0 50:1.0 64:1.0 67:1.0 73:1.0 74:1.0 76:1.0 82:1.0 83:1.0 
1.0 4:1.0 7:1.0 15:1.0 33:1.0 35:1.0 40:1.0 50:1.0 63:1.0 67:1.0 73:1.0 74:1.0 76:1.0 82:1.0 99:1.0 
1.0 3:1.0 6:1.0 18:1.0 22:1.0 36:1.0 40:1.0 50:1.0 63:1.0 67:1.0 73:1.0 74:1.0 76:1.0 80:1.0 95:1.0 
1.0 4:1.0 6:1.0 16:1.0 22:1.0 36:1.0 40:1.0 48:1.0 63:1.0 67:1.0 73:1.0 74:1.0 76:1.0 80:1.0 83:1.0 
1.0 3:1.0 6:1.0 15:1.0 19:1.0 39:1.0 40:1.0 52:1.0 63:1.0 67:1.0 73:1.0 74:1.0 76:1.0 82:1.0 105:1.0 
0.13938124127849064 5:1.0 8:1.0 14:1.0 20:1.0 37:1.0 40:1.0 50:1.0 63:1.0 67:1.0 73:1.0 75:1.0 76:1.0 82:1.0 83:1.0 
1.0 4:1.0 6:1.0 15:1.0 22:1.0 36:1.0 40:1.0 48:1.0 63:1.0 67:1.0 73:1.0 74:1.0 76:1.0 80:1.0 83:1.0 
1.0 2:1.0 6:1.0 17:1.0 22:1.0 36:1.0 42:1.0 48:1.0 64:1.0 67:1.0 73:1.0 74:1.0 76:1.0 82:1.0 83:1.0 
1.0 3:1.0 6:1.0 14:1.0 19:1.0 39:1.0 40:1.0 50:1.0 63:1.0 67:1.0 73:1.0 74:1.0 76:1.0 81:1.0 83:1.0 
1.0 2:1.0 17:1.0 19:1.0 39:1.0 40:1.0 61:1.0 71:1.0 72:1.0 74:1.0 76:1.0 79:1.0 
1.0 4:1.0 6:1.0 17:1.0 28:1.0 35:1.0 40:1.0 50:1.0 63:1.0 67:1.0 73:1.0 75:1.0 76:1.0 80:1.0 83:1.0 
1.0 3:1.0 9:1.0 14:1.0 23:1.0 39:1.0 42:1.0 52:1.0 64:1.0 67:1.0 73:1.0 74:1.0 76:1.0 82:1.0 83:1.0 
1.0 5:1.0 6:1.0 15:1.0 25:1.0 38:1.0 40:1.0 48:1.0 63:1.0 67:1.0 73:1.0 74:1.0 77:1.0 80:1.0 83:1.0 
1.0 2:1.0 6:1.0 15:1.0 22:1.0 36:1.0 40:1.0 54:1.0 61:1.0 67:1.0 72:1.0 75:1.0 76:1.0 80:1.0 83:1.0 
1.0 3:1.0 6:1.0 15:1.0 20:1.0 37:1.0 40:1.0 55:1.0 63:1.0 71:1.0 73:1.0 74:1.0 76:1.0 80:1.0 101:1.0 
1.0 2:1.0 6:1.0 18:1.0 19:1.0 39:1.0 40:1.0 52:1.0 61:1.0 67:1.0 72:1.0 74:1.0 76:1.0 80:1.0 83:1.0 
1.0 3:1.0 6:1.0 18:1.0 20:1.0 37:1.0 40:1.0 49:1.0 61:1.0 67:1.0 72:1.0 74:1.0 76:1.0 80:1.0 83:1.0 
1.0 5:1.0 6:1.0 17:1.0 31:1.0 35:1.0 40:1.0 57:1.0 63:1.0 67:1.0 73:1.0 74:1.0 77:1.0 80:1.0 83:1.0 
1.0 5:1.0 11:1.0 16:1.0 29:1.0 39:1.0 42:1.0 52:1.0 64:1.0 67:1.0 73:1.0 74:1.0 76:1.0 80:1.0 83:1.0 
1.0 3:1.0 6:1.0 14:1.0 22:1.0 36:1.0 40:1.0 56:1.0 63:1.0 67:1.0 73:1.0 74:1.0 76:1.0 82:1.0 83:1.0 
1.0 5:1.0 6:1.0 18:1.0 20:1.0 37:1.0 42:1.0 52:1.0 64:1.0 67:1.0 73:1.0 74:1.0 76:1.0 79:1.0 83:1.0 
1.0 4:1.0 6:1.0 14:1.0 32:1.0 39:1.0 45:1.0 49:1.0 64:1.0 67:1.0 73:1.0 75:1.0 76:1.0 82:1.0 
1.0 5:1.0 10:1.0 17:1.0 32:1.0 39:1.0 41:1.0 52:1.0 64:1.0 67:1.0 72:1.0 75:1.0 76:1.0 80:1.0 83:1.0 
1.0 3:1.0 8:1.0 16:1.0 24:1.0 38:1.0 40:1.0 50:1.0 63:1.0 67:1.0 73:1.0 74:1.0 77:1.0 80:1.0 83:1.0 
1.0 4:1.0 10:1.0 17:1.0 29:1.0 39:1.0 42:1.0 47:1.0 64:1.0 71:1.0 72:1.0 75:1.0 76:1.0 81:1.0 83:1.0 
1.0 4:1.0 6:1.0 17:1.0 20:1.0 37:1.0 40:1.0 52:1.0 63:1.0 67:1.0 73:1.0 74:1.0 76:1.0 80:1.0 83:1.0 
1.0 5:1.0 6:1.0 15:1.0 20:1.0 37:1.0 40:1.0 50:1.0 63:1.0 67:1.0 73:1.0 75:1.0 76:1.0 82:1.0 83:1.0 
1.0 4:1.0 6:1.0 18:1.0 23:1.0 39:1.0 40:1.0 52:1.0 63:1.0 67:1.0 73:1.0 74:1.0 76:1.0 78:1.0 83:1.0 
1.0 3:1.0 6:1.0 15:1.0 19:1.0 39:1.0 40:1.0 52:1.0 63:1.0 67:1.0 73:1.0 74:1.0 76:1.0 80:1.0 83:1.0 
1.0 4:1.0 10:1.0 17:1.0 19:1.0 39:1.0 40:1.0 52:1.0 63:1.0 67:1.0 73:1.0 74:1.0 76:1.0 79:1.0 83:1.0 
1.0 4:1.0 8:1.0 15:1.0 25:1.0 38:1.0 40:1.0 51:1.0 63:1.0 71:1.0 73:1.0 74:1.0 76:1.0 80:1.0 83:1.0 
1.0 2:1.0 7:1.0 16:1.0 20:1.0 37:1.0 40:1.0 48:1.0 63:1.0 69:1.0 73:1.0 74:1.0 77:1.0 82:1.0 83:1.0 
1.0 4:1.0 10:1.0 14:1.0 20:1.0 37:1.0 41:1.0 51:1.0 64:1.0 67:1.0 73:1.0 74:1.0 76:1.0 82:1.0 83:1.0 
1.0 2:1.0 6:1.0 15:1.0 19:1.0 39:1.0 40:1.0 52:1.0 63:1.0 67:1.0 73:1.0 74:1.0 76:1.0 80:1.0 83:1.0 
1.0 5:1.0 9:1.0 14:1.0 29:1.0 39:1.0 41:1.0 52:1.0 64:1.0 67:1.0 73:1.0 74:1.0 76:1.0 80:1.0 83:1.0 
1.0 2:1.0 6:1.0 18:1.0 22:1.0 36:1.0 40:1.0 48:1.0 63:1.0 67:1.0 73:1.0 74:1.0 76:1.0 80:1.0 83:1.0 
1.0 4:1.0 6:1.0 14:1.0 19:1.0 39:1.0 40:1.0 48:1.0 63:1.0 67:1.0 73:1.0 74:1.0 76:1.0 81:1.0 83:1.0 
1.0 5:1.0 6:1.0 16:1.0 22:1.0 36:1.0 40:1.0 52:1.0 63:1.0 67:1.0 73:1.0 75:1.0 76:1.0 80:1.0 83:1.0 
1.0 3:1.0 6:1.0 18:1.0 22:1.0 36:1.0 40:1.0 57:1.0 63:1.0 71:1.0 73:1.0 74:1.0 76:1.0 80:1.0 83:1.0 
1.0 3:1.0 6:1.0 17:1.0 20:1.0 37:1.0 40:1.0 51:1.0 63:1.0 67:1.0 73:1.0 74:1.0 76:1.0 82:1.0 83:1.0 
1.0 3:1.0 6:1.0 17:1.0 25:1.0 38:1.0 41:1.0 52:1.0 64:1.0 67:1.0 72:1.0 75:1.0 76:1.0 80:1.0 83:1.0 
1.0 5:1.0 6:1.0 17:1.0 22:1.0 36:1.0 44:1.0 50:1.0 64:1.0 67:1.0 72:1.0 74:1.0 77:1.0 82:1.0 83:1.0 
1.0 2:1.0 6:1.0 17:1.0 19:1.0 39:1.0 42:1.0 51:1.0 64:1.0 67:1.0 72:1.0 75:1.0 76:1.0 82:1.0 83:1.0 
1.0 4:1.0 6:1.0 18:1.0 22:1.0 36:1.0 40:1.0 55:1.0 63:1.0 67:1.0 73:1.0 75:1.0 76:1.0 81:1.0 83:1.0 
1.0 4:1.0 11:1.0 17:1.0 20:1.0 37:1.0 40:1.0 52:1.0 63:1.0 67:1.0 73:1.0 74:1.0 76:1.0 80:1.0 83:1.0 
1.0 3:1.0 10:1.0 17:1.0 20:1.0 37:1.0 40:1.0 59:1.0 63:1.0 67:1.0 73:1.0 74:1.0 76:1.0 80:1.0 83:1.0 
1.0 4:1.0 9:1.0 14:1.0 22:1.0 36:1.0 40:1.0 55:1.0 63:1.0 71:1.0 73:1.0 74:1.0 76:1.0 80:1.0 83:1.0 
1.0 5:1.0 18:1.0 29:1.0 39:1.0 40:1.0 63:1.0 67:1.0 73:1.0 74:1.0 76:1.0 82:1.0 83:1.0 
1.0 5:1.0 7:1.0 17:1.0 32:1.0 39:1.0 41:1.0 52:1.0 64:1.0 67:1.0 72:1.0 74:1.0 76:1.0 82:1.0 83:1.0 
1.0 2:1.0 6:1.0 15:1.0 32:1.0 39:1.0 40:1.0 52:1.0 63:1.0 68:1.0 73:1.0 74:1.0 76:1.0 82:1.0 117:1.0 
1.0 3:1.0 6:1.0 14:1.0 23:1.0 39:1.0 40:1.0 52:1.0 63:1.0 67:1.0 73:1.0 74:1.0 76:1.0 80:1.0 83:1.0 
1.0 2:1.0 6:1.0 16:1.0 20:1.0 37:1.0 40:1.0 48:1.0 63:1.0 67:1.0 73:1.0 74:1.0 76:1.0 82:1.0 83:1.0 
1.0 5:1.0 7:1.0 14:1.0 22:1.0 36:1.0 40:1.0 50:1.0 63:1.0 67:1.0 73:1.0 74:1.0 76:1.0 80:1.0 83:1.0 
1.0 3:1.0 6:1.0 16:1.0 22:1.0 36:1.0 40:1.0 50:1.0 63:1.0 67:1.0 73:1.0 74:1.0 76:1.0 82:1.0 83:1.0 
1.0 3:1.0 9:1.0 17:1.0 20:1.0 37:1.0 40:1.0 55:1.0 63:1.0 71:1.0 73:1.0 74:1.0 76:1.0 80:1.0 83:1.0 
1.0 4:1.0 7:1.0 18:1.0 23:1.0 39:1.0 41:1.0 52:1.0 66:1.0 67:1.0 73:1.0 75:1.0 76:1.0 82:1.0 83:1.0 
1.0 4:1.0 6:1.0 15:1.0 22:1.0 36:1.0 40:1.0 48:1.0 63:1.0 67:1.0 73:1.0 74:1.0 76:1.0 80:1.0 83:1.0 
1.0 3:1.0 10:1.0 15:1.0 29:1.0 39:1.0 40:1.0 52:1.0 63:1.0 67:1.0 73:1.0 74:1.0 76:1.0 80:1.0 83:1.0 
1.0 2:1.0 6:1.0 15:1.0 19:1.0 39:1.0 41:1.0 59:1.0 64:1.0 71:1.0 73:1.0 74:1.0 76:1.0 82:1.0 83:1.0 
1.0 4:1.0 6:1.0 14:1.0 22:1.0 36:1.0 40:1.0 55:1.0 61:1.0 67:1.0 72:1.0 74:1.0 76:1.0 80:1.0 88:1.0 
1.0 4:1.0 10:1.0 16:1.0 20:1.0 37:1.0 40:1.0 53:1.0 63:1.0 67:1.0 73:1.0 75:1.0 76:1.0 80:1.0 83:1.0 
1.0 5:1.0 6:1.0 17:1.0 20:1.0 37:1.0 40:1.0 57:1.0 63:1.0 67:1.0 73:1.0 75:1.0 76:1.0 79:1.0 83:1.0 
1.0 2:1.0 6:1.0 18:1.0 22:1.0 36:1.0 40:1.0 52:1.0 63:1.0 67:1.0 73:1.0 74:1.0 77:1.0 81:1.0 83:1.0 
1.0 5:1.0 8:1.0 16:1.0 20:1.0 37:1.0 40:1.0 51:1.0 63:1.0 67:1.0 73:1.0 74:1.0 76:1.0 81:1.0 83:1.0 
1.0 5:1.0 8:1.0 15:1.0 29:1.0 39:1.0 40:1.0 50:1.0 63:1.0 67:1.0 73:1.0 74:1.0 76:1.0 80:1.0 83:1.0 
1.0 3:1.0 6:1.0 16:1.0 22:1.0 36:1.0 40:1.0 57:1.0 63:1.0 67:1.0 73:1.0 74:1.0 76:1.0 82:1.0 83:1.0 
1.0 5:1.0 6:1.0 17:1.0 19:1.0 39:1.0 41:1.0 51:1.0 64:1.0 67:1.0 73:1.0 74:1.0 76:1.0 80:1.0 83:1.0 
1.0 3:1.0 7:1.0 16:1.0 25:1.0 38:1.0 40:1.0 52:1.0 61:1.0 67:1.0 72:1.0 74:1.0 77:1.0 78:1.0 83:1.0 
1.0 4:1.0 18:1.0 19:1.0 39:1.0 40:1.0 63:1.0 67:1.0 73:1.0 74:1.0 76:1.0 82:1.0 83:1.0 
1.0 4:1.0 9:1.0 15:1.0 19:1.0 39:1.0 40:1.0 52:1.0 63:1.0 67:1.0 73:1.0 74:1.0 76:1.0 79:1.0 83:1.0 
1.0 3:1.0 6:1.0 18:1.0 20:1.0 37:1.0 40:1.0 50:1.0 63:1.0 67:1.0 73:1.0 75:1.0 76:1.0 81:1.0 83:1.0 
1.0 3:1.0 8:1.0 16:1.0 20:1.0 37:1.0 40:1.0 50:1.0 63:1.0 67:1.0 73:1.0 74:1.0 76:1.0 82:1.0 83:1.0 
1.0 3:1.0 7:1.0 16:1.0 32:1.0 39:1.0 42:1.0 52:1.0 64:1.0 67:1.0 73:1.0 74:1.0 76:1.0 80:1.0 83:1.0 
1.0 3:1.0 6:1.0 15:1.0 19:1.0 39:1.0 41:1.0 51:1.0 64:1.0 67:1.0 73:1.0 74:1.0 76:1.0 82:1.0 85:1.0 
1.0 3:1.0 6:1.0 18:1.0 23:1.0 39:1.0 40:1.0 52:1.0 63:1.0 67:1.0 73:1.0 74:1.0 76:1.0 80:1.0 83:1.0 
1.0 2:1.0 7:1.0 17:1.0 22:1.0 36:1.0 40:1.0 51:1.0 63:1.0 67:1.0 73:1.0 74:1.0 76:1.0 80:1.0 83:1.0 
1.0 3:1.0 6:1.0 17:1.0 19:1.0 39:1.0 40:1.0 51:1.0 63:1.0 67:1.0 73:1.0 74:1.0 76:1.0 80:1.0 83:1.0 
1.0 3:1.0 9:1.0 14:1.0 20:1.0 37:1.0 40:1.0 55:1.0 63:1.0 67:1.0 73:1.0 75:1.0 76:1.0 80:1.0 83:1.0 
1.0 5:1.0 6:1.0 18:1.0 22:1.0 36:1.0 41:1.0 47:1.0 66:1.0 67:1.0 73:1.0 74:1.0 76:1.0 82:1.0 83:1.0 
1.0 2:1.0 6:1.0 15:1.0 29:1.0 39:1.0 42:1.0 52:1.0 64:1.0 67:1.0 73:1.0 74:1.0 76:1.0 81:1.0 83:1.0 
1.0 5:1.0 6:1.0 16:1.0 22:1.0 36:1.0 41:1.0 51:1.0 64:1.0 67:1.0 73:1.0 74:1.0 76:1.0 82:1.0 83:1.0 
1.0 5:1.0 6:1.0 15:1.0 19:1.0 39:1.0 41:1.0 51:1.0 64:1.0 67:1.0 73:1.0 74:1.0 77:1.0 82:1.0 83:1.0 
1.0 3:1.0 8:1.0 16:1.0 20:1.0 37:1.0 40:1.0 56:1.0 63:1.0 67:1.0 73:1.0 74:1.0 76:1.0 80:1.0 83:1.0 
1.0 4:1.0 6:1.0 16:1.0 19:1.0 39:1.0 40:1.0 55:1.0 63:1.0 67:1.0 73:1.0 74:1.0 76:1.0 81:1.0 83:1.0 
1.0 4:1.0 6:1.0 17:1.0 22:1.0 36:1.0 40:1.0 48:1.0 63:1.0 67:1.0 73:1.0 74:1.0 76:1.0 80:1.0 83:1.0 
1.0 2:1.0 6:1.0 18:1.0 19:1.0 39:1.0 40:1.0 51:1.0 63:1.0 67:1.0 73:1.0 74:1.0 76:1.0 80:1.0 83:1.0 
1.0 5:1.0 6:1.0 15:1.0 20:1.0 37:1.0 40:1.0 49:1.0 61:1.0 67:1.0 72:1.0 74:1.0 76:1.0 80:1.0 83:1.0 
1.0 3:1.0 6:1.0 14:1.0 22:1.0 36:1.0 40:1.0 50:1.0 63:1.0 67:1.0 73:1.0 75:1.0 76:1.0 81:1.0 83:1.0 
1.0 3:1.0 6:1.0 14:1.0 19:1.0 39:1.0 40:1.0 52:1.0 61:1.0 67:1.0 72:1.0 74:1.0 76:1.0 80:1.0 83:1.0 
1.0 3:1.0 6:1.0 18:1.0 22:1.0 36:1.0 40:1.0 55:1.0 61:1.0 67:1.0 72:1.0 74:1.0 76:1.0 80:1.0 83:1.0 
1.0 5:1.0 6:1.0 15:1.0 22:1.0 36:1.0 40:1.0 57:1.0 63:1.0 67:1.0 73:1.0 74:1.0 76:1.0 82:1.0 83:1.0 
1.0 3:1.0 6:1.0 16:1.0 19:1.0 39:1.0 41:1.0 51:1.0 64:1.0 67:1.0 72:1.0 75:1.0 76:1.0 82:1.0 83:1.0 
1.0 3:1.0 6:1.0 16:1.0 19:1.0 39:1.0 40:1.0 51:1.0 63:1.0 67:1.0 73:1.0 74:1.0 76:1.0 82:1.0 83:1.0 
1.0 3:1.0 6:1.0 14:1.0 22:1.0 36:1.0 40:1.0 55:1.0 61:1.0 67:1.0 72:1.0 74:1.0 76:1.0 80:1.0 83:1.0 
1.0 4:1.0 10:1.0 16:1.0 22:1.0 36:1.0 40:1.0 51:1.0 63:1.0 67:1.0 73:1.0 74:1.0 76:1.0 80:1.0 83:1.0 
1.0 3:1.0 6:1.0 15:1.0 22:1.0 36:1.0 40:1.0 54:1.0 63:1.0 67:1.0 73:1.0 74:1.0 76:1.0 82:1.0 83:1.0 
1.0 4:1.0 6:1.0 17:1.0 20:1.0 37:1.0 40:1.0 50:1.0 63:1.0 67:1.0 73:1.0 74:1.0 76:1.0 82:1.0 85:1.0 
1.0 4:1.0 6:1.0 15:1.0 22:1.0 36:1.0 40:1.0 57:1.0 63:1.0 67:1.0 73:1.0 75:1.0 76:1.0 82:1.0 83:1.0 
1.0 4:1.0 6:1.0 16:1.0 20:1.0 37:1.0 40:1.0 50:1.0 63:1.0 67:1.0 73:1.0 74:1.0 77:1.0 82:1.0 83:1.0 
1.0 5:1.0 18:1.0 29:1.0 39:1.0 40:1.0 63:1.0 67:1.0 73:1.0 74:1.0 76:1.0 80:1.0 83:1.0 
1.0 2:1.0 7:1.0 18:1.0 22:1.0 36:1.0 40:1.0 52:1.0 63:1.0 67:1.0 73:1.0 74:1.0 77:1.0 78:1.0 83:1.0 
1.0 3:1.0 6:1.0 15:1.0 20:1.0 37:1.0 40:1.0 51:1.0 63:1.0 67:1.0 73:1.0 74:1.0 76:1.0 80:1.0 83:1.0 
1.0 4:1.0 10:1.0 15:1.0 29:1.0 39:1.0 41:1.0 52:1.0 64:1.0 67:1.0 72:1.0 74:1.0 76:1.0 80:1.0 83:1.0 
1.0 5:1.0 6:1.0 17:1.0 22:1.0 36:1.0 40:1.0 50:1.0 63:1.0 67:1.0 73:1.0 75:1.0 76:1.0 80:1.0 83:1.0 
1.0 2:1.0 6:1.0 16:1.0 19:1.0 39:1.0 42:1.0 50:1.0 64:1.0 67:1.0 73:1.0 74:1.0 76:1.0 82:1.0 83:1.0 
1.0 2:1.0 6:1.0 18:1.0 19:1.0 39:1.0 40:1.0 51:1.0 63:1.0 67:1.0 73:1.0 74:1.0 76:1.0 80:1.0 83:1.0 
1.0 5:1.0 6:1.0 16:1.0 29:1.0 39:1.0 41:1.0 50:1.0 64:1.0 67:1.0 72:1.0 74:1.0 76:1.0 80:1.0 83:1.0 
1.0 4:1.0 6:1.0 16:1.0 22:1.0 36:1.0 40:1.0 55:1.0 63:1.0 67:1.0 73:1.0 74:1.0 76:1.0 80:1.0 83:1.0 
1.0 4:1.0 6:1.0 18:1.0 20:1.0 37:1.0 40:1.0 50:1.0 63:1.0 67:1.0 73:1.0 74:1.0 76:1.0 80:1.0 83:1.0 
1.0 3:1.0 6:1.0 15:1.0 22:1.0 36:1.0 42:1.0 47:1.0 64:1.0 67:1.0 72:1.0 75:1.0 76:1.0 79:1.0 83:1.0 
1.0 2:1.0 6:1.0 14:1.0 20:1.0 37:1.0 40:1.0 52:1.0 63:1.0 67:1.0 73:1.0 75:1.0 76:1.0 80:1.0 83:1.0 
1.0 4:1.0 6:1.0 15:1.0 22:1.0 36:1.0 40:1.0 51:1.0 63:1.0 67:1.0 73:1.0 74:1.0 76:1.0 82:1.0 83:1.0 
1.0 2:1.0 6:1.0 18:1.0 19:1.0 39:1.0 42:1.0 52:1.0 64:1.0 67:1.0 73:1.0 74:1.0 76:1.0 82:1.0 83:1.0 
1.0 5:1.0 6:1.0 16:1.0 19:1.0 39:1.0 40:1.0 51:1.0 63:1.0 67:1.0 73:1.0 74:1.0 76:1.0 80:1.0 83:1.0 
1.0 5:1.0 6:1.0 15:1.0 20:1.0 37:1.0 40:1.0 48:1.0 63:1.0 67:1.0 73:1.0 74:1.0 76:1.0 80:1.0 83:1.0 
1.0 2:1.0 10:1.0 17:1.0 20:1.0 37:1.0 40:1.0 59:1.0 63:1.0 67:1.0 73:1.0 74:1.0 76:1.0 80:1.0 83:1.0 
1.0 4:1.0 6:1.0 15:1.0 19:1.0 39:1.0 40:1.0 50:1.0 63:1.0 67:1.0 73:1.0 74:1.0 76:1.0 82:1.0 83:1.0 
1.0 5:1.0 9:1.0 17:1.0 29:1.0 39:1.0 44:1.0 50:1.0 66:1.0 67:1.0 73:1.0 74:1.0 76:1.0 82:1.0 119:1.0 
1.0 4:1.0 6:1.0 14:1.0 22:1.0 36:1.0 40:1.0 50:1.0 63:1.0 67:1.0 73:1.0 74:1.0 76:1.0 80:1.0 83:1.0 
1.0 5:1.0 6:1.0 15:1.0 19:1.0 39:1.0 40:1.0 51:1.0 63:1.0 68:1.0 73:1.0 74:1.0 76:1.0 80:1.0 98:1.0 
1.0 4:1.0 7:1.0 18:1.0 19:1.0 39:1.0 40:1.0 51:1.0 63:1.0 67:1.0 73:1.0 74:1.0 76:1.0 82:1.0 83:1.0 
1.0 3:1.0 6:1.0 17:1.0 24:1.0 38:1.0 42:1.0 50:1.0 64:1.0 71:1.0 73:1.0 75:1.0 76:1.0 81:1.0 83:1.0 
1.0 4:1.0 6:1.0 16:1.0 19:1.0 39:1.0 40:1.0 51:1.0 63:1.0 67:1.0 73:1.0 74:1.0 76:1.0 79:1.0 83:1.0 
1.0 2:1.0 6:1.0 15:1.0 22:1.0 36:1.0 40:1.0 57:1.0 63:1.0 67:1.0 73:1.0 74:1.0 76:1.0 81:1.0 83:1.0 
1.0 4:1.0 6:1.0 16:1.0 22:1.0 36:1.0 40:1.0 55:1.0 61:1.0 67:1.0 72:1.0 74:1.0 76:1.0 80:1.0 83:1.0 
1.0 4:1.0 6:1.0 16:1.0 22:1.0 36:1.0 40:1.0 51:1.0 61:1.0 67:1.0 72:1.0 74:1.0 76:1.0 78:1.0 83:1.0 
1.0 4:1.0 9:1.0 16:1.0 29:1.0 39:1.0 41:1.0 59:1.0 64:1.0 67:1.0 73:1.0 74:1.0 76:1.0 82:1.0 83:1.0 
1.0 5:1.0 6:1.0 17:1.0 19:1.0 39:1.0 40:1.0 48:1.0 63:1.0 71:1.0 73:1.0 74:1.0 76:1.0 82:1.0 83:1.0 
1.0 2:1.0 6:1.0 17:1.0 20:1.0 37:1.0 42:1.0 50:1.0 64:1.0 67:1.0 73:1.0 74:1.0 76:1.0 81:1.0 83:1.0 
1.0 5:1.0 18:1.0 19:1.0 39:1.0 44:1.0 66:1.0 67:1.0 72:1.0 75:1.0 76:1.0 82:1.0 83:1.0 
1.0 3:1.0 11:1.0 16:1.0 19:1.0 39:1.0 40:1.0 52:1.0 63:1.0 67:1.0 73:1.0 74:1.0 76:1.0 79:1.0 83:1.0 
1.0 2:1.0 6:1.0 16:1.0 22:1.0 36:1.0 40:1.0 57:1.0 63:1.0 67:1.0 73:1.0 74:1.0 76:1.0 82:1.0 83:1.0 
1.0 4:1.0 6:1.0 16:1.0 20:1.0 37:1.0 40:1.0 52:1.0 63:1.0 67:1.0 73:1.0 74:1.0 76:1.0 80:1.0 83:1.0 
1.0 3:1.0 10:1.0 17:1.0 22:1.0 36:1.0 40:1.0 54:1.0 63:1.0 67:1.0 73:1.0 74:1.0 76:1.0 79:1.0 83:1.0 
1.0 3:1.0 6:1.0 14:1.0 19:1.0 39:1.0 40:1.0 51:1.0 63:1.0 67:1.0 73:1.0 74:1.0 76:1.0 81:1.0 83:1.0 
1.0 5:1.0 6:1.0 14:1.0 29:1.0 39:1.0 44:1.0 51:1.0 64:1.0 67:1.0 72:1.0 74:1.0 76:1.0 80:1.0 83:1.0 
1.0 3:1.0 10:1.0 18:1.0 29:1.0 39:1.0 40:1.0 51:1.0 63:1.0 67:1.0 73:1.0 74:1.0 76:1.0 82:1.0 83:1.0 
1.0 5:1.0 16:1.0 31:1.0 35:1.0 40:1.0 63:1.0 67:1.0 73:1.0 75:1.0 76:1.0 82:1.0 83:1.0 
1.0 3:1.0 6:1.0 17:1.0 19:1.0 39:1.0 40:1.0 52:1.0 63:1.0 67:1.0 73:1.0 74:1.0 76:1.0 82:1.0 83:1.0 
1.0 2:1.0 6:1.0 14:1.0 19:1.0 39:1.0 41:1.0 49:1.0 64:1.0 68:1.0 73:1.0 75:1.0 76:1.0 82:1.0 83:1.0 
1.0 4:1.0 7:1.0 16:1.0 22:1.0 36:1.0 40:1.0 48:1.0 63:1.0 67:1.0 73:1.0 74:1.0 76:1.0 80:1.0 83:1.0 
1.0 5:1.0 6:1.0 15:1.0 20:1.0 37:1.0 40:1.0 48:1.0 63:1.0 67:1.0 73:1.0 74:1.0 76:1.0 80:1.0 83:1.0 
1.0 3:1.0 6:1.0 15:1.0 22:1.0 36:1.0 40:1.0 50:1.0 63:1.0 67:1.0 73:1.0 74:1.0 76:1.0 82:1.0 83:1.0 
1.0 5:1.0 9:1.0 16:1.0 22:1.0 36:1.0 40:1.0 55:1.0 63:1.0 67:1.0 73:1.0 74:1.0 76:1.0 80:1.0 83:1.0 
1.0 4:1.0 11:1.0 16:1.0 19:1.0 39:1.0 40:1.0 52:1.0 63:1.0 67:1.0 73:1.0 74:1.0 76:1.0 81:1.0 83:1.0 
1.0 4:1.0 6:1.0 14:1.0 19:1.0 39:1.0 41:1.0 52:1.0 64:1.0 67:1.0 73:1.0 74:1.0 76:1.0 81:1.0 83:1.0 
1.0 3:1.0 6:1.0 14:1.0 29:1.0 39:1.0 40:1.0 51:1.0 63:1.0 67:1.0 73:1.0 74:1.0 76:1.0 80:1.0 83:1.0 
1.0 2:1.0 6:1.0 17:1.0 32:1.0 39:1.0 42:1.0 52:1.0 64:1.0 67:1.0 73:1.0 74:1.0 76:1.0 80:1.0 83:1.0 
1.0 4:1.0 6:1.0 16:1.0 22:1.0 36:1.0 40:1.0 47:1.0 63:1.0 67:1.0 73:1.0 74:1.0 76:1.0 81:1.0 
1.0 2:1.0 8:1.0 17:1.0 21:1.0 35:1.0 40:1.0 48:1.0 63:1.0 67:1.0 73:1.0 74:1.0 76:1.0 82:1.0 83:1.0 
1.0 5:1.0 6:1.0 14:1.0 20:1.0 37:1.0 40:1.0 55:1.0 65:1.0 67:1.0 72:1.0 74:1.0 76:1.0 79:1.0 83:1.0 
1.0 3:1.0 6:1.0 17:1.0 20:1.0 37:1.0 40:1.0 48:1.0 63:1.0 67:1.0 73:1.0 74:1.0 76:1.0 82:1.0 83:1.0 
1.0 5:1.0 7:1.0 18:1.0 23:1.0 39:1.0 40:1.0 52:1.0 63:1.0 67:1.0 73:1.0 74:1.0 77:1.0 78:1.0 83:1.0 
1.0 2:1.0 10:1.0 16:1.0 29:1.0 39:1.0 40:1.0 52:1.0 61:1.0 67:1.0 72:1.0 74:1.0 76:1.0 78:1.0 83:1.0 
1.0 3:1.0 6:1.0 18:1.0 20:1.0 37:1.0 40:1.0 50:1.0 61:1.0 67:1.0 72:1.0 74:1.0 76:1.0 81:1.0 83:1.0 
1.0 2:1.0 6:1.0 16:1.0 22:1.0 36:1.0 40:1.0 48:1.0 63:1.0 67:1.0 73:1.0 74:1.0 76:1.0 82:1.0 83:1.0 
1.0 5:1.0 6:1.0 18:1.0 26:1.0 35:1.0 40:1.0 50:1.0 63:1.0 71:1.0 73:1.0 74:1.0 76:1.0 82:1.0 83:1.0 
1.0 3:1.0 6:1.0 15:1.0 22:1.0 36:1.0 40:1.0 50:1.0 63:1.0 67:1.0 73:1.0 74:1.0 77:1.0 81:1.0 83:1.0 
1.0 4:1.0 6:1.0 15:1.0 22:1.0 36:1.0 40:1.0 50:1.0 63:1.0 67:1.0 73:1.0 75:1.0 76:1.0 82:1.0 83:1.0 
1.0 4:1.0 6:1.0 16:1.0 22:1.0 36:1.0 40:1.0 48:1.0 63:1.0 67:1.0 73:1.0 75:1.0 76:1.0 80:1.0 83:1.0 
1.0 5:1.0 6:1.0 18:1.0 20:1.0 37:1.0 40:1.0 50:1.0 63:1.0 67:1.0 73:1.0 74:1.0 77:1.0 82:1.0 83:1.0 
1.0 3:1.0 6:1.0 17:1.0 19:1.0 39:1.0 40:1.0 52:1.0 63:1.0 67:1.0 73:1.0 74:1.0 76:1.0 82:1.0 83:1.0 
1.0 5:1.0 6:1.0 14:1.0 20:1.0 37:1.0 40:1.0 51:1.0 63:1.0 71:1.0 73:1.0 74:1.0 76:1.0 82:1.0 83:1.0 
1.0 3:1.0 6:1.0 18:1.0 27:1.0 35:1.0 40:1.0 54:1.0 63:1.0 67:1.0 73:1.0 74:1.0 76:1.0 80:1.0 103:1.0 
1.0 4:1.0 6:1.0 18:1.0 19:1.0 39:1.0 42:1.0 49:1.0 64:1.0 67:1.0 73:1.0 74:1.0 76:1.0 82:1.0 103:1.0 
1.0 5:1.0 6:1.0 17:1.0 23:1.0 39:1.0 42:1.0 52:1.0 64:1.0 67:1.0 72:1.0 74:1.0 77:1.0 82:1.0 83:1.0 
1.0 4:1.0 11:1.0 14:1.0 19:1.0 39:1.0 40:1.0 52:1.0 61:1.0 69:1.0 72:1.0 74:1.0 76:1.0 82:1.0 83:1.0 
1.0 5:1.0 6:1.0 15:1.0 25:1.0 38:1.0 44:1.0 51:1.0 66:1.0 68:1.0 72:1.0 74:1.0 76:1.0 80:1.0 83:1.0 
1.0 3:1.0 6:1.0 18:1.0 29:1.0 39:1.0 42:1.0 52:1.0 64:1.0 67:1.0 72:1.0 74:1.0 76:1.0 79:1.0 83:1.0 
1.0 3:1.0 6:1.0 15:1.0 19:1.0 39:1.0 40:1.0 51:1.0 63:1.0 67:1.0 73:1.0 74:1.0 77:1.0 78:1.0 83:1.0 
1.0 1:1.0 6:1.0 18:1.0 22:1.0 36:1.0 40:1.0 52:1.0 62:1.0 67:1.0 73:1.0 74:1.0 76:1.0 80:1.0 103:1.0 
1.0 2:1.0 11:1.0 15:1.0 22:1.0 36:1.0 40:1.0 48:1.0 63:1.0 67:1.0 73:1.0 74:1.0 76:1.0 82:1.0 83:1.0 
1.0 5:1.0 6:1.0 16:1.0 29:1.0 39:1.0 40:1.0 52:1.0 63:1.0 67:1.0 73:1.0 74:1.0 76:1.0 80:1.0 83:1.0 
1.0 5:1.0 6:1.0 17:1.0 19:1.0 39:1.0 40:1.0 50:1.0 63:1.0 67:1.0 73:1.0 74:1.0 76:1.0 80:1.0 83:1.0 
1.0 4:1.0 7:1.0 16:1.0 22:1.0 36:1.0 40:1.0 51:1.0 63:1.0 67:1.0 73:1.0 74:1.0 76:1.0 82:1.0 83:1.0 
1.0 3:1.0 6:1.0 15:1.0 22:1.0 36:1.0 41:1.0 55:1.0 64:1.0 67:1.0 73:1.0 75:1.0 76:1.0 80:1.0 83:1.0 
0.9273567111261865 4:1.0 10:1.0 14:1.0 23:1.0 39:1.0 40:1.0 52:1.0 63:1.0 68:1.0 73:1.0 74:1.0 76:1.0 80:1.0 98:1.0 
1.0 4:1.0 6:1.0 14:1.0 22:1.0 36:1.0 40:1.0 48:1.0 63:1.0 67:1.0 73:1.0 74:1.0 76:1.0 81:1.0 83:1.0 
1.0 5:1.0 7:1.0 16:1.0 29:1.0 39:1.0 41:1.0 51:1.0 66:1.0 67:1.0 73:1.0 75:1.0 76:1.0 82:1.0 83:1.0 
1.0 5:1.0 6:1.0 16:1.0 29:1.0 39:1.0 40:1.0 51:1.0 63:1.0 67:1.0 73:1.0 74:1.0 76:1.0 80:1.0 83:1.0 
1.0 5:1.0 6:1.0 14:1.0 22:1.0 36:1.0 40:1.0 53:1.0 63:1.0 67:1.0 73:1.0 75:1.0 76:1.0 80:1.0 83:1.0 
1.0 4:1.0 6:1.0 16:1.0 19:1.0 39:1.0 40:1.0 48:1.0 63:1.0 67:1.0 73:1.0 74:1.0 76:1.0 82:1.0 83:1.0 
1.0 3:1.0 6:1.0 17:1.0 29:1.0 39:1.0 40:1.0 52:1.0 63:1.0 67:1.0 73:1.0 74:1.0 76:1.0 79:1.0 83:1.0 
1.0 3:1.0 6:1.0 17:1.0 19:1.0 39:1.0 42:1.0 50:1.0 64:1.0 67:1.0 72:1.0 74:1.0 77:1.0 81:1.0 83:1.0 
1.0 3:1.0 7:1.0 15:1.0 23:1.0 39:1.0 40:1.0 52:1.0 63:1.0 67:1.0 73:1.0 74:1.0 76:1.0 82:1.0 83:1.0 
1.0 4:1.0 10:1.0 15:1.0 19:1.0 39:1.0 40:1.0 52:1.0 63:1.0 67:1.0 73:1.0 74:1.0 76:1.0 80:1.0 83:1.0 
1.0 3:1.0 6:1.0 18:1.0 20:1.0 37:1.0 40:1.0 48:1.0 63:1.0 71:1.0 73:1.0 74:1.0 76:1.0 82:1.0 101:1.0 
1.0 4:1.0 6:1.0 16:1.0 20:1.0 37:1.0 40:1.0 57:1.0 63:1.0 67:1.0 73:1.0 75:1.0 76:1.0 82:1.0 83:1.0 
1.0 3:1.0 6:1.0 14:1.0 21:1.0 35:1.0 40:1.0 48:1.0 63:1.0 67:1.0 73:1.0 75:1.0 76:1.0 80:1.0 83:1.0 
1.0 3:1.0 6:1.0 18:1.0 22:1.0 36:1.0 40:1.0 54:1.0 63:1.0 67:1.0 73:1.0 74:1.0 76:1.0 80:1.0 83:1.0 
1.0 4:1.0 6:1.0 16:1.0 24:1.0 38:1.0 40:1.0 51:1.0 63:1.0 67:1.0 73:1.0 74:1.0 76:1.0 80:1.0 83:1.0 
1.0 2:1.0 7:1.0 14:1.0 22:1.0 36:1.0 40:1.0 56:1.0 63:1.0 67:1.0 73:1.0 74:1.0 76:1.0 82:1.0 83:1.0 
1.0 2:1.0 6:1.0 14:1.0 24:1.0 38:1.0 40:1.0 54:1.0 63:1.0 67:1.0 73:1.0 75:1.0 76:1.0 80:1.0 83:1.0 
1.0 3:1.0 10:1.0 14:1.0 23:1.0 39:1.0 42:1.0 51:1.0 64:1.0 67:1.0 73:1.0 74:1.0 76:1.0 82:1.0 83:1.0 
1.0 2:1.0 6:1.0 18:1.0 23:1.0 39:1.0 41:1.0 52:1.0 64:1.0 67:1.0 73:1.0 75:1.0 76:1.0 82:1.0 83:1.0 
1.0 5:1.0 9:1.0 18:1.0 20:1.0 37:1.0 40:1.0 55:1.0 61:1.0 67:1.0 72:1.0 74:1.0 76:1.0 80:1.0 83:1.0 
1.0 2:1.0 6:1.0 15:1.0 29:1.0 39:1.0 43:1.0 51:1.0 64:1.0 67:1.0 73:1.0 74:1.0 77:1.0 82:1.0 83:1.0 
1.0 5:1.0 6:1.0 14:1.0 25:1.0 38:1.0 40:1.0 51:1.0 63:1.0 67:1.0 73:1.0 74:1.0 76:1.0 80:1.0 83:1.0 
1.0 5:1.0 6:1.0 14:1.0 20:1.0 37:1.0 40:1.0 50:1.0 63:1.0 68:1.0 73:1.0 74:1.0 76:1.0 80:1.0 83:1.0 
1.0 5:1.0 6:1.0 14:1.0 25:1.0 38:1.0 40:1.0 48:1.0 63:1.0 68:1.0 73:1.0 74:1.0 76:1.0 80:1.0 83:1.0 
1.0 5:1.0 6:1.0 16:1.0 22:1.0 36:1.0 40:1.0 57:1.0 63:1.0 67:1.0 73:1.0 74:1.0 77:1.0 82:1.0 83:1.0 
1.0 2:1.0 6:1.0 18:1.0 20:1.0 37:1.0 40:1.0 48:1.0 63:1.0 67:1.0 73:1.0 74:1.0 76:1.0 80:1.0 83:1.0 
1.0 3:1.0 6:1.0 15:1.0 19:1.0 39:1.0 40:1.0 50:1.0 63:1.0 67:1.0 73:1.0 74:1.0 76:1.0 82:1.0 83:1.0 
1.0 3:1.0 6:1.0 17:1.0 19:1.0 39:1.0 40:1.0 50:1.0 63:1.0 67:1.0 73:1.0 74:1.0 76:1.0 82:1.0 83:1.0 
1.0 4:1.0 6:1.0 18:1.0 19:1.0 39:1.0 40:1.0 52:1.0 63:1.0 67:1.0 73:1.0 74:1.0 76:1.0 81:1.0 83:1.0 
1.0 5:1.0 6:1.0 17:1.0 22:1.0 36:1.0 40:1.0 54:1.0 63:1.0 67:1.0 73:1.0 75:1.0 76:1.0 82:1.0 83:1.0 
1.0 3:1.0 6:1.0 15:1.0 22:1.0 36:1.0 40:1.0 48:1.0 63:1.0 67:1.0 73:1.0 74:1.0 76:1.0 82:1.0 83:1.0 
1.0 5:1.0 15:1.0 20:1.0 37:1.0 41:1.0 66:1.0 67:1.0 72:1.0 74:1.0 76:1.0 82:1.0 83:1.0 
1.0 5:1.0 6:1.0 16:1.0 19:1.0 39:1.0 40:1.0 48:1.0 63:1.0 67:1.0 73:1.0 74:1.0 76:1.0 81:1.0 83:1.0 
1.0 5:1.0 16:1.0 22:1.0 36:1.0 40:1.0 63:1.0 67:1.0 73:1.0 74:1.0 77:1.0 80:1.0 83:1.0 
1.0 3:1.0 6:1.0 16:1.0 20:1.0 37:1.0 40:1.0 48:1.0 63:1.0 67:1.0 73:1.0 74:1.0 76:1.0 82:1.0 83:1.0 
1.0 3:1.0 6:1.0 17:1.0 22:1.0 36:1.0 40:1.0 54:1.0 63:1.0 67:1.0 73:1.0 74:1.0 77:1.0 82:1.0 83:1.0 
1.0 3:1.0 6:1.0 18:1.0 29:1.0 39:1.0 40:1.0 51:1.0 63:1.0 67:1.0 73:1.0 74:1.0 76:1.0 80:1.0 83:1.0 
1.0 3:1.0 9:1.0 14:1.0 29:1.0 39:1.0 40:1.0 51:1.0 63:1.0 67:1.0 73:1.0 74:1.0 76:1.0 80:1.0 83:1.0 
1.0 4:1.0 10:1.0 15:1.0 19:1.0 39:1.0 40:1.0 52:1.0 63:1.0 67:1.0 73:1.0 74:1.0 76:1.0 80:1.0 83:1.0 
1.0 3:1.0 6:1.0 15:1.0 23:1.0 39:1.0 42:1.0 52:1.0 64:1.0 67:1.0 73:1.0 74:1.0 76:1.0 80:1.0 83:1.0 
1.0 4:1.0 6:1.0 14:1.0 28:1.0 35:1.0 41:1.0 57:1.0 64:1.0 67:1.0 73:1.0 74:1.0 76:1.0 82:1.0 83:1.0 
1.0 4:1.0 6:1.0 14:1.0 19:1.0 39:1.0 40:1.0 51:1.0 63:1.0 67:1.0 73:1.0 74:1.0 76:1.0 80:1.0 83:1.0 
1.0 4:1.0 9:1.0 18:1.0 23:1.0 39:1.0 43:1.0 52:1.0 66:1.0 67:1.0 72:1.0 74:1.0 76:1.0 80:1.0 88:1.0 
1.0 2:1.0 6:1.0 16:1.0 19:1.0 39:1.0 40:1.0 51:1.0 63:1.0 67:1.0 73:1.0 74:1.0 76:1.0 81:1.0 83:1.0 
1.0 4:1.0 6:1.0 18:1.0 29:1.0 39:1.0 41:1.0 50:1.0 64:1.0 67:1.0 73:1.0 75:1.0 76:1.0 81:1.0 83:1.0 
1.0 4:1.0 6:1.0 15:1.0 31:1.0 35:1.0 40:1.0 51:1.0 63:1.0 67:1.0 73:1.0 74:1.0 76:1.0 81:1.0 83:1.0 
1.0 3:1.0 6:1.0 18:1.0 20:1.0 37:1.0 40:1.0 51:1.0 63:1.0 67:1.0 73:1.0 74:1.0 76:1.0 81:1.0 83:1.0 
1.0 5:1.0 6:1.0 18:1.0 19:1.0 39:1.0 40:1.0 55:1.0 63:1.0 67:1.0 73:1.0 74:1.0 76:1.0 81:1.0 83:1.0 
1.0 5:1.0 6:1.0 16:1.0 22:1.0 36:1.0 40:1.0 48:1.0 63:1.0 67:1.0 73:1.0 74:1.0 76:1.0 80:1.0 83:1.0 
1.0 2:1.0 9:1.0 18:1.0 19:1.0 39:1.0 42:1.0 59:1.0 64:1.0 67:1.0 72:1.0 74:1.0 76:1.0 82:1.0 83:1.0 
1.0 2:1.0 8:1.0 16:1.0 22:1.0 36:1.0 42:1.0 51:1.0 64:1.0 67:1.0 73:1.0 74:1.0 76:1.0 82:1.0 83:1.0 
1.0 5:1.0 6:1.0 15:1.0 20:1.0 37:1.0 40:1.0 51:1.0 63:1.0 67:1.0 73:1.0 74:1.0 76:1.0 80:1.0 83:1.0 
1.0 5:1.0 17:1.0 20:1.0 37:1.0 40:1.0 63:1.0 67:1.0 73:1.0 74:1.0 76:1.0 82:1.0 83:1.0 
1.0 4:1.0 6:1.0 18:1.0 22:1.0 36:1.0 40:1.0 48:1.0 63:1.0 67:1.0 73:1.0 74:1.0 76:1.0 82:1.0 83:1.0 
1.0 4:1.0 6:1.0 15:1.0 29:1.0 39:1.0 41:1.0 51:1.0 64:1.0 67:1.0 72:1.0 74:1.0 76:1.0 80:1.0 83:1.0 
1.0 5:1.0 7:1.0 14:1.0 27:1.0 35:1.0 40:1.0 57:1.0 63:1.0 67:1.0 73:1.0 74:1.0 76:1.0 80:1.0 83:1.0 
1.0 5:1.0 8:1.0 15:1.0 23:1.0 39:1.0 42:1.0 52:1.0 64:1.0 67:1.0 73:1.0 75:1.0 76:1.0 80:1.0 83:1.0 
1.0 5:1.0 6:1.0 15:1.0 22:1.0 36:1.0 40:1.0 51:1.0 63:1.0 67:1.0 73:1.0 74:1.0 76:1.0 81:1.0 83:1.0 
1.0 5:1.0 6:1.0 18:1.0 22:1.0 36:1.0 40:1.0 54:1.0 63:1.0 71:1.0 73:1.0 74:1.0 77:1.0 80:1.0 83:1.0 
1.0 4:1.0 6:1.0 16:1.0 20:1.0 37:1.0 40:1.0 55:1.0 61:1.0 67:1.0 72:1.0 74:1.0 76:1.0 80:1.0 83:1.0 
1.0 2:1.0 6:1.0 15:1.0 22:1.0 36:1.0 40:1.0 55:1.0 61:1.0 67:1.0 72:1.0 74:1.0 76:1.0 80:1.0 83:1.0 
1.0 3:1.0 6:1.0 18:1.0 20:1.0 37:1.0 40:1.0 52:1.0 63:1.0 67:1.0 73:1.0 74:1.0 76:1.0 80:1.0 121:1.0 
1.0 4:1.0 6:1.0 14:1.0 22:1.0 36:1.0 41:1.0 55:1.0 64:1.0 67:1.0 72:1.0 74:1.0 76:1.0 79:1.0 83:1.0 
1.0 5:1.0 6:1.0 14:1.0 20:1.0 37:1.0 40:1.0 48:1.0 63:1.0 67:1.0 73:1.0 74:1.0 76:1.0 80:1.0 83:1.0 
1.0 5:1.0 6:1.0 14:1.0 24:1.0 38:1.0 40:1.0 51:1.0 63:1.0 67:1.0 73:1.0 74:1.0 76:1.0 82:1.0 83:1.0 
1.0 3:1.0 6:1.0 18:1.0 20:1.0 37:1.0 40:1.0 48:1.0 63:1.0 67:1.0 73:1.0 74:1.0 76:1.0 80:1.0 83:1.0 
1.0 5:1.0 6:1.0 16:1.0 19:1.0 39:1.0 41:1.0 51:1.0 64:1.0 71:1.0 73:1.0 75:1.0 76:1.0 80:1.0 83:1.0 
1.0 4:1.0 6:1.0 18:1.0 19:1.0 39:1.0 42:1.0 50:1.0 64:1.0 67:1.0 73:1.0 74:1.0 76:1.0 82:1.0 83:1.0 
1.0 5:1.0 6:1.0 16:1.0 22:1.0 36:1.0 40:1.0 50:1.0 63:1.0 67:1.0 73:1.0 74:1.0 76:1.0 80:1.0 83:1.0 
1.0 4:1.0 6:1.0 16:1.0 22:1.0 36:1.0 40:1.0 50:1.0 63:1.0 67:1.0 73:1.0 74:1.0 76:1.0 82:1.0 83:1.0 
1.0 4:1.0 7:1.0 17:1.0 20:1.0 37:1.0 40:1.0 48:1.0 63:1.0 67:1.0 73:1.0 74:1.0 76:1.0 81:1.0 83:1.0 
1.0 4:1.0 6:1.0 14:1.0 22:1.0 36:1.0 40:1.0 50:1.0 63:1.0 67:1.0 73:1.0 74:1.0 76:1.0 82:1.0 83:1.0 
1.0 4:1.0 9:1.0 18:1.0 29:1.0 39:1.0 40:1.0 59:1.0 63:1.0 67:1.0 73:1.0 74:1.0 76:1.0 79:1.0 83:1.0 
1.0 4:1.0 6:1.0 16:1.0 20:1.0 37:1.0 40:1.0 51:1.0 63:1.0 67:1.0 73:1.0 74:1.0 76:1.0 82:1.0 83:1.0 
1.0 3:1.0 6:1.0 15:1.0 22:1.0 36:1.0 40:1.0 48:1.0 63:1.0 67:1.0 73:1.0 74:1.0 77:1.0 80:1.0 83:1.0 
1.0 5:1.0 7:1.0 16:1.0 22:1.0 36:1.0 40:1.0 51:1.0 63:1.0 67:1.0 73:1.0 75:1.0 76:1.0 78:1.0 83:1.0 
1.0 3:1.0 6:1.0 16:1.0 25:1.0 38:1.0 40:1.0 54:1.0 63:1.0 67:1.0 73:1.0 74:1.0 76:1.0 82:1.0 83:1.0 
1.0 4:1.0 6:1.0 15:1.0 22:1.0 36:1.0 40:1.0 52:1.0 63:1.0 67:1.0 73:1.0 75:1.0 76:1.0 82:1.0 83:1.0 
1.0 3:1.0 6:1.0 16:1.0 22:1.0 36:1.0 40:1.0 49:1.0 63:1.0 67:1.0 73:1.0 74:1.0 76:1.0 80:1.0 118:1.0 
1.0 3:1.0 7:1.0 18:1.0 23:1.0 39:1.0 40:1.0 52:1.0 63:1.0 67:1.0 73:1.0 74:1.0 76:1.0 82:1.0 83:1.0 
1.0 5:1.0 8:1.0 18:1.0 22:1.0 36:1.0 40:1.0 51:1.0 63:1.0 67:1.0 73:1.0 74:1.0 76:1.0 80:1.0 83:1.0 
1.0 4:1.0 6:1.0 18:1.0 19:1.0 39:1.0 40:1.0 57:1.0 63:1.0 67:1.0 73:1.0 74:1.0 76:1.0 80:1.0 83:1.0 
1.0 4:1.0 10:1.0 14:1.0 20:1.0 37:1.0 40:1.0 59:1.0 63:1.0 67:1.0 73:1.0 74:1.0 77:1.0 80:1.0 83:1.0 
0.18126110142536928 3:1.0 8:1.0 18:1.0 22:1.0 36:1.0 40:1.0 51:1.0 63:1.0 67:1.0 73:1.0 75:1.0 76:1.0 82:1.0 83:1.0 
1.0 4:1.0 6:1.0 17:1.0 19:1.0 39:1.0 40:1.0 52:1.0 63:1.0 67:1.0 73:1.0 74:1.0 76:1.0 80:1.0 83:1.0 
1.0 5:1.0 6:1.0 16:1.0 31:1.0 35:1.0 40:1.0 57:1.0 63:1.0 67:1.0 73:1.0 74:1.0 76:1.0 78:1.0 83:1.0 
1.0 2:1.0 10:1.0 17:1.0 24:1.0 38:1.0 40:1.0 55:1.0 61:1.0 67:1.0 72:1.0 74:1.0 76:1.0 80:1.0 83:1.0 
0.49178014753854493 4:1.0 6:1.0 15:1.0 19:1.0 39:1.0 40:1.0 47:1.0 63:1.0 67:1.0 73:1.0 74:1.0 76:1.0 80:1.0 83:1.0 
0.15531607155045254 4:1.0 6:1.0 16:1.0 20:1.0 37:1.0 40:1.0 51:1.0 63:1.0 67:1.0 73:1.0 75:1.0 76:1.0 80:1.0 83:1.0 
1.0 5:1.0 7:1.0 16:1.0 20:1.0 37:1.0 40:1.0 56:1.0 63:1.0 67:1.0 73:1.0 74:1.0 76:1.0 82:1.0 83:1.0 
1.0 1:1.0 6:1.0 18:1.0 20:1.0 37:1.0 40:1.0 55:1.0 63:1.0 67:1.0 73:1.0 74:1.0 76:1.0 80:1.0 83:1.0 
1.0 5:1.0 6:1.0 18:1.0 19:1.0 39:1.0 40:1.0 50:1.0 63:1.0 67:1.0 73:1.0 74:1.0 76:1.0 82:1.0 83:1.0 
1.0 3:1.0 10:1.0 18:1.0 19:1.0 39:1.0 40:1.0 52:1.0 63:1.0 67:1.0 73:1.0 74:1.0 76:1.0 80:1.0 83:1.0 
1.0 4:1.0 10:1.0 17:1.0 29:1.0 39:1.0 40:1.0 52:1.0 63:1.0 67:1.0 73:1.0 74:1.0 76:1.0 79:1.0 83:1.0 
1.0 3:1.0 6:1.0 14:1.0 19:1.0 39:1.0 40:1.0 50:1.0 63:1.0 67:1.0 73:1.0 74:1.0 77:1.0 79:1.0 83:1.0 
1.0 3:1.0 6:1.0 16:1.0 19:1.0 39:1.0 40:1.0 50:1.0 63:1.0 67:1.0 73:1.0 74:1.0 76:1.0 80:1.0 83:1.0 
1.0 2:1.0 6:1.0 18:1.0 29:1.0 39:1.0 42:1.0 52:1.0 64:1.0 67:1.0 73:1.0 75:1.0 76:1.0 80:1.0 83:1.0 
1.0 5:1.0 9:1.0 18:1.0 20:1.0 37:1.0 40:1.0 51:1.0 63:1.0 67:1.0 73:1.0 74:1.0 76:1.0 80:1.0 83:1.0 
1.0 4:1.0 6:1.0 18:1.0 20:1.0 37:1.0 40:1.0 49:1.0 61:1.0 67:1.0 72:1.0 74:1.0 76:1.0 78:1.0 85:1.0 
1.0 5:1.0 6:1.0 14:1.0 19:1.0 39:1.0 41:1.0 52:1.0 64:1.0 67:1.0 72:1.0 74:1.0 76:1.0 80:1.0 83:1.0 
1.0 5:1.0 6:1.0 15:1.0 22:1.0 36:1.0 40:1.0 54:1.0 63:1.0 67:1.0 73:1.0 74:1.0 76:1.0 82:1.0 83:1.0 
1.0 4:1.0 10:1.0 16:1.0 29:1.0 39:1.0 40:1.0 52:1.0 63:1.0 67:1.0 73:1.0 74:1.0 76:1.0 79:1.0 83:1.0 
1.0 4:1.0 9:1.0 16:1.0 20:1.0 37:1.0 40:1.0 52:1.0 61:1.0 67:1.0 72:1.0 74:1.0 76:1.0 80:1.0 83:1.0 
1.0 3:1.0 10:1.0 14:1.0 19:1.0 39:1.0 40:1.0 52:1.0 61:1.0 67:1.0 72:1.0 74:1.0 76:1.0 81:1.0 83:1.0 
1.0 3:1.0 9:1.0 15:1.0 29:1.0 39:1.0 40:1.0 52:1.0 63:1.0 67:1.0 73:1.0 74:1.0 76:1.0 80:1.0 96:1.0 
1.0 5:1.0 6:1.0 14:1.0 20:1.0 37:1.0 40:1.0 55:1.0 63:1.0 67:1.0 73:1.0 75:1.0 76:1.0 80:1.0 83:1.0 
1.0 3:1.0 6:1.0 15:1.0 22:1.0 36:1.0 40:1.0 52:1.0 63:1.0 67:1.0 73:1.0 74:1.0 76:1.0 81:1.0 109:1.0 
1.0 5:1.0 17:1.0 19:1.0 39:1.0 40:1.0 63:1.0 67:1.0 73:1.0 74:1.0 76:1.0 82:1.0 83:1.0 
1.0 5:1.0 7:1.0 17:1.0 22:1.0 36:1.0 40:1.0 50:1.0 63:1.0 67:1.0 73:1.0 74:1.0 76:1.0 82:1.0 83:1.0 
1.0 5:1.0 6:1.0 15:1.0 19:1.0 39:1.0 40:1.0 52:1.0 63:1.0 67:1.0 73:1.0 74:1.0 76:1.0 82:1.0 83:1.0 
1.0 4:1.0 6:1.0 15:1.0 19:1.0 39:1.0 40:1.0 51:1.0 63:1.0 67:1.0 73:1.0 74:1.0 76:1.0 80:1.0 83:1.0 
1.0 2:1.0 6:1.0 14:1.0 25:1.0 38:1.0 40:1.0 52:1.0 61:1.0 67:1.0 72:1.0 74:1.0 76:1.0 79:1.0 83:1.0 
1.0 4:1.0 10:1.0 17:1.0 22:1.0 36:1.0 40:1.0 59:1.0 63:1.0 67:1.0 73:1.0 74:1.0 76:1.0 80:1.0 83:1.0 
1.0 5:1.0 6:1.0 16:1.0 19:1.0 39:1.0 40:1.0 52:1.0 63:1.0 67:1.0 73:1.0 74:1.0 76:1.0 80:1.0 83:1.0 
1.0 4:1.0 6:1.0 14:1.0 29:1.0 39:1.0 41:1.0 52:1.0 64:1.0 67:1.0 73:1.0 74:1.0 76:1.0 80:1.0 83:1.0 
1.0 3:1.0 6:1.0 17:1.0 20:1.0 37:1.0 40:1.0 48:1.0 63:1.0 67:1.0 73:1.0 75:1.0 76:1.0 82:1.0 83:1.0 
1.0 3:1.0 6:1.0 18:1.0 20:1.0 37:1.0 40:1.0 57:1.0 63:1.0 71:1.0 73:1.0 74:1.0 76:1.0 82:1.0 83:1.0 
1.0 4:1.0 6:1.0 14:1.0 19:1.0 39:1.0 40:1.0 52:1.0 63:1.0 67:1.0 73:1.0 74:1.0 76:1.0 81:1.0 99:1.0 
1.0 4:1.0 6:1.0 17:1.0 22:1.0 36:1.0 40:1.0 55:1.0 61:1.0 67:1.0 72:1.0 75:1.0 76:1.0 80:1.0 83:1.0 
1.0 5:1.0 6:1.0 14:1.0 20:1.0 37:1.0 40:1.0 50:1.0 63:1.0 67:1.0 73:1.0 74:1.0 76:1.0 78:1.0 83:1.0 
1.0 4:1.0 6:1.0 16:1.0 22:1.0 36:1.0 40:1.0 48:1.0 63:1.0 67:1.0 73:1.0 74:1.0 76:1.0 81:1.0 83:1.0 
1.0 3:1.0 6:1.0 14:1.0 22:1.0 36:1.0 40:1.0 47:1.0 61:1.0 67:1.0 72:1.0 74:1.0 77:1.0 80:1.0 83:1.0 
1.0 5:1.0 6:1.0 17:1.0 20:1.0 37:1.0 41:1.0 51:1.0 64:1.0 67:1.0 72:1.0 74:1.0 76:1.0 82:1.0 83:1.0 
1.0 3:1.0 6:1.0 15:1.0 19:1.0 39:1.0 44:1.0 52:1.0 66:1.0 67:1.0 72:1.0 74:1.0 76:1.0 78:1.0 83:1.0 
1.0 5:1.0 11:1.0 16:1.0 21:1.0 35:1.0 44:1.0 49:1.0 66:1.0 67:1.0 72:1.0 74:1.0 76:1.0 78:1.0 83:1.0 
1.0 5:1.0 7:1.0 15:1.0 20:1.0 37:1.0 40:1.0 48:1.0 63:1.0 67:1.0 73:1.0 74:1.0 76:1.0 78:1.0 83:1.0 
1.0 4:1.0 6:1.0 15:1.0 33:1.0 35:1.0 40:1.0 54:1.0 61:1.0 68:1.0 72:1.0 74:1.0 76:1.0 80:1.0 102:1.0 
1.0 3:1.0 6:1.0 16:1.0 20:1.0 37:1.0 40:1.0 52:1.0 63:1.0 67:1.0 73:1.0 74:1.0 76:1.0 82:1.0 83:1.0 
1.0 3:1.0 6:1.0 15:1.0 25:1.0 38:1.0 41:1.0 48:1.0 66:1.0 67:1.0 73:1.0 74:1.0 76:1.0 82:1.0 83:1.0 
1.0 3:1.0 6:1.0 15:1.0 22:1.0 36:1.0 40:1.0 59:1.0 63:1.0 67:1.0 73:1.0 75:1.0 76:1.0 82:1.0 83:1.0 
1.0 3:1.0 6:1.0 14:1.0 20:1.0 37:1.0 40:1.0 51:1.0 63:1.0 67:1.0 73:1.0 74:1.0 76:1.0 81:1.0 83:1.0 
1.0 4:1.0 7:1.0 15:1.0 23:1.0 39:1.0 42:1.0 52:1.0 64:1.0 67:1.0 73:1.0 74:1.0 76:1.0 78:1.0 83:1.0 
1.0 3:1.0 11:1.0 14:1.0 32:1.0 39:1.0 40:1.0 52:1.0 63:1.0 67:1.0 73:1.0 74:1.0 76:1.0 82:1.0 83:1.0 
1.0 4:1.0 8:1.0 15:1.0 19:1.0 39:1.0 40:1.0 56:1.0 63:1.0 67:1.0 73:1.0 74:1.0 76:1.0 82:1.0 83:1.0 
0.7051580153285988 3:1.0 6:1.0 14:1.0 19:1.0 39:1.0 40:1.0 50:1.0 61:1.0 67:1.0 72:1.0 74:1.0 76:1.0 81:1.0 83:1.0 
1.0 2:1.0 6:1.0 18:1.0 22:1.0 36:1.0 40:1.0 57:1.0 63:1.0 67:1.0 73:1.0 75:1.0 76:1.0 82:1.0 83:1.0 
1.0 4:1.0 6:1.0 18:1.0 29:1.0 39:1.0 42:1.0 52:1.0 64:1.0 67:1.0 73:1.0 74:1.0 76:1.0 82:1.0 83:1.0 
1.0 5:1.0 14:1.0 32:1.0 39:1.0 40:1.0 63:1.0 67:1.0 73:1.0 74:1.0 76:1.0 78:1.0 83:1.0 
1.0 3:1.0 7:1.0 15:1.0 20:1.0 37:1.0 40:1.0 54:1.0 63:1.0 67:1.0 73:1.0 74:1.0 76:1.0 81:1.0 83:1.0 
1.0 5:1.0 7:1.0 14:1.0 23:1.0 39:1.0 40:1.0 52:1.0 63:1.0 67:1.0 73:1.0 74:1.0 76:1.0 82:1.0 83:1.0 
1.0 4:1.0 10:1.0 15:1.0 29:1.0 39:1.0 40:1.0 52:1.0 63:1.0 71:1.0 73:1.0 74:1.0 76:1.0 79:1.0 83:1.0 
1.0 5:1.0 16:1.0 20:1.0 37:1.0 40:1.0 61:1.0 67:1.0 72:1.0 74:1.0 76:1.0 81:1.0 83:1.0 
1.0 3:1.0 6:1.0 17:1.0 20:1.0 37:1.0 40:1.0 50:1.0 63:1.0 67:1.0 73:1.0 74:1.0 76:1.0 82:1.0 83:1.0 
1.0 4:1.0 10:1.0 18:1.0 20:1.0 37:1.0 40:1.0 55:1.0 63:1.0 67:1.0 73:1.0 74:1.0 76:1.0 80:1.0 83:1.0 
1.0 4:1.0 6:1.0 15:1.0 20:1.0 37:1.0 41:1.0 55:1.0 62:1.0 67:1.0 73:1.0 75:1.0 76:1.0 80:1.0 83:1.0 
1.0 5:1.0 6:1.0 16:1.0 22:1.0 36:1.0 40:1.0 47:1.0 63:1.0 67:1.0 73:1.0 74:1.0 77:1.0 80:1.0 83:1.0 
1.0 3:1.0 6:1.0 15:1.0 19:1.0 39:1.0 40:1.0 53:1.0 63:1.0 67:1.0 73:1.0 74:1.0 76:1.0 82:1.0 83:1.0 
1.0 4:1.0 6:1.0 18:1.0 22:1.0 36:1.0 40:1.0 50:1.0 63:1.0 67:1.0 73:1.0 75:1.0 76:1.0 81:1.0 83:1.0 
1.0 4:1.0 6:1.0 16:1.0 22:1.0 36:1.0 41:1.0 51:1.0 64:1.0 67:1.0 72:1.0 74:1.0 77:1.0 80:1.0 83:1.0 
1.0 3:1.0 6:1.0 15:1.0 19:1.0 39:1.0 45:1.0 52:1.0 64:1.0 68:1.0 73:1.0 75:1.0 76:1.0 80:1.0 84:1.0 
1.0 2:1.0 6:1.0 14:1.0 20:1.0 37:1.0 40:1.0 48:1.0 63:1.0 68:1.0 73:1.0 74:1.0 76:1.0 80:1.0 98:1.0 
1.0 3:1.0 6:1.0 15:1.0 22:1.0 36:1.0 40:1.0 54:1.0 63:1.0 67:1.0 73:1.0 74:1.0 76:1.0 82:1.0 83:1.0 
1.0 4:1.0 10:1.0 17:1.0 20:1.0 37:1.0 40:1.0 59:1.0 63:1.0 67:1.0 73:1.0 74:1.0 76:1.0 82:1.0 83:1.0 
1.0 3:1.0 6:1.0 17:1.0 22:1.0 36:1.0 40:1.0 48:1.0 63:1.0 67:1.0 73:1.0 74:1.0 76:1.0 82:1.0 83:1.0 
1.0 2:1.0 6:1.0 14:1.0 20:1.0 37:1.0 40:1.0 57:1.0 63:1.0 67:1.0 73:1.0 74:1.0 76:1.0 82:1.0 83:1.0 
1.0 3:1.0 6:1.0 14:1.0 19:1.0 39:1.0 40:1.0 51:1.0 63:1.0 67:1.0 73:1.0 74:1.0 76:1.0 82:1.0 83:1.0 
1.0 5:1.0 6:1.0 18:1.0 22:1.0 36:1.0 40:1.0 53:1.0 63:1.0 67:1.0 73:1.0 74:1.0 76:1.0 80:1.0 83:1.0 
1.0 3:1.0 6:1.0 15:1.0 20:1.0 37:1.0 40:1.0 48:1.0 63:1.0 67:1.0 73:1.0 74:1.0 76:1.0 82:1.0 83:1.0 
1.0 3:1.0 7:1.0 15:1.0 19:1.0 39:1.0 40:1.0 50:1.0 63:1.0 67:1.0 73:1.0 74:1.0 76:1.0 82:1.0 83:1.0 
1.0 5:1.0 7:1.0 16:1.0 23:1.0 39:1.0 40:1.0 52:1.0 63:1.0 67:1.0 73:1.0 74:1.0 76:1.0 78:1.0 83:1.0 
1.0 3:1.0 6:1.0 16:1.0 19:1.0 39:1.0 41:1.0 52:1.0 66:1.0 67:1.0 72:1.0 74:1.0 76:1.0 80:1.0 83:1.0 
1.0 3:1.0 10:1.0 16:1.0 19:1.0 39:1.0 40:1.0 59:1.0 63:1.0 68:1.0 73:1.0 74:1.0 76:1.0 80:1.0 98:1.0 
1.0 3:1.0 6:1.0 14:1.0 25:1.0 38:1.0 40:1.0 54:1.0 63:1.0 68:1.0 73:1.0 74:1.0 76:1.0 80:1.0 83:1.0 
1.0 2:1.0 6:1.0 14:1.0 20:1.0 37:1.0 40:1.0 54:1.0 63:1.0 67:1.0 73:1.0 74:1.0 76:1.0 80:1.0 83:1.0 
1.0 4:1.0 9:1.0 18:1.0 32:1.0 39:1.0 42:1.0 52:1.0 64:1.0 67:1.0 72:1.0 74:1.0 76:1.0 82:1.0 83:1.0 
1.0 2:1.0 8:1.0 18:1.0 22:1.0 36:1.0 40:1.0 48:1.0 63:1.0 67:1.0 73:1.0 75:1.0 76:1.0 80:1.0 83:1.0 
1.0 4:1.0 10:1.0 14:1.0 20:1.0 37:1.0 40:1.0 48:1.0 63:1.0 67:1.0 73:1.0 75:1.0 76:1.0 80:1.0 83:1.0 
1.0 5:1.0 6:1.0 18:1.0 29:1.0 39:1.0 40:1.0 52:1.0 63:1.0 67:1.0 73:1.0 74:1.0 76:1.0 80:1.0 83:1.0 
1.0 3:1.0 6:1.0 18:1.0 20:1.0 37:1.0 40:1.0 52:1.0 63:1.0 67:1.0 73:1.0 74:1.0 76:1.0 82:1.0 83:1.0 
1.0 5:1.0 6:1.0 17:1.0 19:1.0 39:1.0 40:1.0 50:1.0 63:1.0 67:1.0 73:1.0 74:1.0 76:1.0 79:1.0 83:1.0 
1.0 2:1.0 11:1.0 16:1.0 19:1.0 39:1.0 40:1.0 47:1.0 63:1.0 67:1.0 73:1.0 74:1.0 76:1.0 80:1.0 83:1.0 
1.0 3:1.0 6:1.0 16:1.0 19:1.0 39:1.0 40:1.0 51:1.0 63:1.0 67:1.0 73:1.0 74:1.0 76:1.0 80:1.0 83:1.0 
1.0 5:1.0 7:1.0 15:1.0 21:1.0 35:1.0 40:1.0 51:1.0 63:1.0 67:1.0 73:1.0 75:1.0 76:1.0 82:1.0 
1.0 5:1.0 10:1.0 18:1.0 22:1.0 36:1.0 40:1.0 55:1.0 61:1.0 67:1.0 72:1.0 74:1.0 76:1.0 79:1.0 83:1.0 
1.0 5:1.0 6:1.0 14:1.0 22:1.0 36:1.0 44:1.0 57:1.0 66:1.0 67:1.0 73:1.0 74:1.0 77:1.0 81:1.0 83:1.0 
1.0 5:1.0 7:1.0 16:1.0 19:1.0 39:1.0 40:1.0 50:1.0 63:1.0 68:1.0 73:1.0 74:1.0 77:1.0 80:1.0 94:1.0 
1.0 3:1.0 11:1.0 16:1.0 29:1.0 39:1.0 40:1.0 52:1.0 63:1.0 67:1.0 73:1.0 74:1.0 76:1.0 79:1.0 83:1.0 
1.0 3:1.0 9:1.0 17:1.0 22:1.0 36:1.0 40:1.0 55:1.0 63:1.0 71:1.0 73:1.0 74:1.0 76:1.0 82:1.0 83:1.0 
1.0 2:1.0 10:1.0 17:1.0 19:1.0 39:1.0 40:1.0 52:1.0 63:1.0 67:1.0 73:1.0 74:1.0 76:1.0 82:1.0 83:1.0 
1.0 4:1.0 9:1.0 16:1.0 24:1.0 38:1.0 41:1.0 52:1.0 66:1.0 68:1.0 72:1.0 74:1.0 76:1.0 80:1.0 98:1.0 
1.0 3:1.0 6:1.0 17:1.0 22:1.0 36:1.0 40:1.0 51:1.0 63:1.0 67:1.0 73:1.0 74:1.0 76:1.0 80:1.0 83:1.0 
1.0 2:1.0 6:1.0 16:1.0 19:1.0 39:1.0 40:1.0 50:1.0 63:1.0 71:1.0 73:1.0 74:1.0 76:1.0 82:1.0 83:1.0 
1.0 5:1.0 6:1.0 17:1.0 25:1.0 38:1.0 40:1.0 48:1.0 63:1.0 67:1.0 73:1.0 74:1.0 76:1.0 80:1.0 83:1.0 
1.0 3:1.0 6:1.0 14:1.0 20:1.0 37:1.0 40:1.0 48:1.0 63:1.0 67:1.0 73:1.0 74:1.0 76:1.0 81:1.0 83:1.0 
1.0 4:1.0 6:1.0 18:1.0 19:1.0 39:1.0 40:1.0 52:1.0 63:1.0 67:1.0 73:1.0 74:1.0 76:1.0 81:1.0 83:1.0 
1.0 3:1.0 6:1.0 15:1.0 19:1.0 39:1.0 40:1.0 50:1.0 63:1.0 67:1.0 73:1.0 74:1.0 76:1.0 80:1.0 83:1.0 
1.0 4:1.0 10:1.0 18:1.0 19:1.0 39:1.0 45:1.0 52:1.0 64:1.0 67:1.0 72:1.0 75:1.0 76:1.0 81:1.0 83:1.0 
1.0 2:1.0 8:1.0 17:1.0 22:1.0 36:1.0 40:1.0 48:1.0 63:1.0 67:1.0 73:1.0 75:1.0 76:1.0 81:1.0 83:1.0 
1.0 4:1.0 6:1.0 16:1.0 22:1.0 36:1.0 40:1.0 54:1.0 63:1.0 67:1.0 73:1.0 74:1.0 76:1.0 80:1.0 83:1.0 
1.0 5:1.0 10:1.0 16:1.0 29:1.0 39:1.0 40:1.0 52:1.0 63:1.0 67:1.0 73:1.0 74:1.0 76:1.0 80:1.0 83:1.0 
1.0 5:1.0 10:1.0 15:1.0 20:1.0 37:1.0 40:1.0 51:1.0 63:1.0 71:1.0 73:1.0 74:1.0 76:1.0 80:1.0 83:1.0 
1.0 3:1.0 6:1.0 15:1.0 22:1.0 36:1.0 40:1.0 49:1.0 63:1.0 67:1.0 73:1.0 74:1.0 76:1.0 81:1.0 83:1.0 
1.0 4:1.0 9:1.0 17:1.0 19:1.0 39:1.0 40:1.0 55:1.0 63:1.0 68:1.0 73:1.0 74:1.0 76:1.0 80:1.0 98:1.0 
1.0 2:1.0 6:1.0 16:1.0 19:1.0 39:1.0 40:1.0 49:1.0 61:1.0 67:1.0 72:1.0 74:1.0 76:1.0 80:1.0 83:1.0 
1.0 2:1.0 6:1.0 17:1.0 19:1.0 39:1.0 40:1.0 50:1.0 63:1.0 67:1.0 73:1.0 74:1.0 76:1.0 80:1.0 83:1.0 
1.0 3:1.0 6:1.0 16:1.0 22:1.0 36:1.0 40:1.0 54:1.0 63:1.0 67:1.0 73:1.0 74:1.0 76:1.0 81:1.0 83:1.0 
1.0 2:1.0 6:1.0 15:1.0 20:1.0 37:1.0 40:1.0 51:1.0 63:1.0 67:1.0 73:1.0 74:1.0 76:1.0 82:1.0 83:1.0 
1.0 4:1.0 9:1.0 17:1.0 29:1.0 39:1.0 42:1.0 51:1.0 64:1.0 67:1.0 73:1.0 74:1.0 76:1.0 82:1.0 83:1.0 
1.0 3:1.0 6:1.0 16:1.0 20:1.0 37:1.0 41:1.0 51:1.0 64:1.0 67:1.0 72:1.0 75:1.0 76:1.0 80:1.0 83:1.0 
1.0 4:1.0 6:1.0 15:1.0 19:1.0 39:1.0 40:1.0 50:1.0 63:1.0 67:1.0 73:1.0 74:1.0 76:1.0 82:1.0 83:1.0 
1.0 5:1.0 6:1.0 18:1.0 20:1.0 37:1.0 40:1.0 50:1.0 63:1.0 67:1.0 73:1.0 74:1.0 76:1.0 81:1.0 83:1.0 
1.0 5:1.0 9:1.0 18:1.0 24:1.0 38:1.0 43:1.0 52:1.0 64:1.0 67:1.0 72:1.0 74:1.0 76:1.0 80:1.0 83:1.0 
1.0 5:1.0 9:1.0 15:1.0 19:1.0 39:1.0 40:1.0 52:1.0 63:1.0 67:1.0 73:1.0 74:1.0 76:1.0 80:1.0 83:1.0 
1.0 5:1.0 6:1.0 16:1.0 19:1.0 39:1.0 40:1.0 48:1.0 63:1.0 67:1.0 73:1.0 74:1.0 76:1.0 82:1.0 83:1.0 
1.0 2:1.0 6:1.0 16:1.0 19:1.0 39:1.0 40:1.0 51:1.0 63:1.0 67:1.0 73:1.0 74:1.0 76:1.0 82:1.0 83:1.0 
1.0 2:1.0 10:1.0 18:1.0 32:1.0 39:1.0 42:1.0 52:1.0 64:1.0 67:1.0 73:1.0 74:1.0 76:1.0 82:1.0 103:1.0 
1.0 3:1.0 6:1.0 16:1.0 24:1.0 38:1.0 40:1.0 47:1.0 63:1.0 67:1.0 73:1.0 74:1.0 76:1.0 82:1.0 83:1.0 
1.0 5:1.0 6:1.0 14:1.0 22:1.0 36:1.0 40:1.0 48:1.0 63:1.0 67:1.0 73:1.0 74:1.0 76:1.0 80:1.0 83:1.0 
1.0 3:1.0 7:1.0 16:1.0 20:1.0 37:1.0 40:1.0 48:1.0 63:1.0 67:1.0 73:1.0 74:1.0 76:1.0 82:1.0 83:1.0 
1.0 4:1.0 8:1.0 17:1.0 22:1.0 36:1.0 40:1.0 56:1.0 63:1.0 67:1.0 73:1.0 75:1.0 76:1.0 80:1.0 83:1.0 
1.0 3:1.0 6:1.0 16:1.0 24:1.0 38:1.0 40:1.0 48:1.0 63:1.0 67:1.0 73:1.0 75:1.0 76:1.0 82:1.0 88:1.0 
1.0 4:1.0 6:1.0 15:1.0 22:1.0 36:1.0 40:1.0 50:1.0 61:1.0 67:1.0 72:1.0 74:1.0 76:1.0 80:1.0 83:1.0 
1.0 4:1.0 6:1.0 18:1.0 22:1.0 36:1.0 40:1.0 48:1.0 63:1.0 67:1.0 73:1.0 74:1.0 76:1.0 80:1.0 83:1.0 
1.0 4:1.0 6:1.0 14:1.0 22:1.0 36:1.0 40:1.0 55:1.0 63:1.0 67:1.0 73:1.0 74:1.0 76:1.0 80:1.0 83:1.0 
1.0 3:1.0 6:1.0 14:1.0 19:1.0 39:1.0 40:1.0 52:1.0 61:1.0 67:1.0 72:1.0 74:1.0 76:1.0 82:1.0 96:1.0 
1.0 4:1.0 6:1.0 16:1.0 22:1.0 36:1.0 40:1.0 48:1.0 63:1.0 67:1.0 73:1.0 74:1.0 76:1.0 82:1.0 83:1.0 
1.0 3:1.0 10:1.0 17:1.0 29:1.0 39:1.0 40:1.0 51:1.0 63:1.0 67:1.0 73:1.0 74:1.0 76:1.0 80:1.0 83:1.0 
0.3824309533135335 5:1.0 11:1.0 15:1.0 32:1.0 39:1.0 40:1.0 52:1.0 63:1.0 67:1.0 73:1.0 74:1.0 76:1.0 80:1.0 96:1.0 
1.0 2:1.0 6:1.0 15:1.0 19:1.0 39:1.0 40:1.0 52:1.0 63:1.0 67:1.0 73:1.0 74:1.0 76:1.0 80:1.0 83:1.0 
1.0 5:1.0 7:1.0 14:1.0 22:1.0 36:1.0 40:1.0 51:1.0 63:1.0 67:1.0 73:1.0 75:1.0 76:1.0 82:1.0 83:1.0 
1.0 5:1.0 17:1.0 19:1.0 39:1.0 40:1.0 63:1.0 67:1.0 73:1.0 74:1.0 76:1.0 78:1.0 83:1.0 
1.0 2:1.0 9:1.0 15:1.0 19:1.0 39:1.0 40:1.0 52:1.0 63:1.0 67:1.0 73:1.0 74:1.0 76:1.0 80:1.0 83:1.0 
1.0 4:1.0 6:1.0 16:1.0 20:1.0 37:1.0 40:1.0 55:1.0 63:1.0 67:1.0 73:1.0 74:1.0 76:1.0 81:1.0 83:1.0 
1.0 2:1.0 11:1.0 16:1.0 19:1.0 39:1.0 40:1.0 59:1.0 63:1.0 67:1.0 73:1.0 74:1.0 77:1.0 81:1.0 83:1.0 
1.0 4:1.0 6:1.0 15:1.0 22:1.0 36:1.0 40:1.0 51:1.0 61:1.0 67:1.0 72:1.0 74:1.0 76:1.0 79:1.0 104:1.0 
1.0 2:1.0 6:1.0 14:1.0 24:1.0 38:1.0 40:1.0 51:1.0 61:1.0 67:1.0 72:1.0 74:1.0 76:1.0 78:1.0 83:1.0 
1.0 4:1.0 8:1.0 16:1.0 22:1.0 36:1.0 40:1.0 55:1.0 61:1.0 67:1.0 72:1.0 74:1.0 77:1.0 80:1.0 83:1.0 
1.0 5:1.0 7:1.0 14:1.0 29:1.0 39:1.0 40:1.0 52:1.0 63:1.0 67:1.0 73:1.0 74:1.0 76:1.0 78:1.0 
1.0 4:1.0 6:1.0 16:1.0 29:1.0 39:1.0 41:1.0 52:1.0 66:1.0 67:1.0 72:1.0 74:1.0 76:1.0 82:1.0 83:1.0 
1.0 5:1.0 6:1.0 16:1.0 26:1.0 35:1.0 41:1.0 53:1.0 64:1.0 67:1.0 73:1.0 74:1.0 76:1.0 80:1.0 86:1.0 
1.0 5:1.0 9:1.0 18:1.0 29:1.0 39:1.0 40:1.0 55:1.0 63:1.0 67:1.0 73:1.0 74:1.0 76:1.0 80:1.0 83:1.0 
1.0 4:1.0 11:1.0 16:1.0 29:1.0 39:1.0 40:1.0 52:1.0 63:1.0 67:1.0 73:1.0 74:1.0 76:1.0 82:1.0 83:1.0 
1.0 5:1.0 7:1.0 14:1.0 19:1.0 39:1.0 40:1.0 51:1.0 63:1.0 67:1.0 73:1.0 74:1.0 76:1.0 80:1.0 83:1.0 
1.0 3:1.0 6:1.0 18:1.0 20:1.0 37:1.0 40:1.0 48:1.0 63:1.0 67:1.0 73:1.0 74:1.0 76:1.0 81:1.0 83:1.0 
1.0 4:1.0 10:1.0 17:1.0 22:1.0 36:1.0 40:1.0 51:1.0 63:1.0 67:1.0 73:1.0 74:1.0 76:1.0 80:1.0 83:1.0 
1.0 2:1.0 6:1.0 18:1.0 24:1.0 38:1.0 40:1.0 48:1.0 63:1.0 67:1.0 73:1.0 74:1.0 76:1.0 80:1.0 83:1.0 
1.0 4:1.0 7:1.0 15:1.0 19:1.0 39:1.0 40:1.0 50:1.0 63:1.0 67:1.0 73:1.0 74:1.0 76:1.0 82:1.0 83:1.0 
1.0 2:1.0 15:1.0 32:1.0 39:1.0 40:1.0 63:1.0 67:1.0 73:1.0 74:1.0 76:1.0 82:1.0 83:1.0 
1.0 3:1.0 7:1.0 15:1.0 22:1.0 36:1.0 40:1.0 50:1.0 63:1.0 67:1.0 73:1.0 74:1.0 76:1.0 82:1.0 83:1.0 
1.0 3:1.0 6:1.0 16:1.0 22:1.0 36:1.0 40:1.0 51:1.0 63:1.0 67:1.0 73:1.0 74:1.0 76:1.0 80:1.0 83:1.0 
1.0 3:1.0 6:1.0 17:1.0 19:1.0 39:1.0 40:1.0 50:1.0 63:1.0 67:1.0 73:1.0 74:1.0 76:1.0 80:1.0 83:1.0 
1.0 3:1.0 6:1.0 18:1.0 20:1.0 37:1.0 40:1.0 55:1.0 61:1.0 71:1.0 72:1.0 75:1.0 76:1.0 80:1.0 83:1.0 
1.0 3:1.0 7:1.0 14:1.0 22:1.0 36:1.0 40:1.0 50:1.0 63:1.0 67:1.0 73:1.0 74:1.0 77:1.0 82:1.0 83:1.0 
1.0 4:1.0 6:1.0 18:1.0 22:1.0 36:1.0 40:1.0 57:1.0 63:1.0 67:1.0 73:1.0 74:1.0 77:1.0 82:1.0 87:1.0 
1.0 5:1.0 6:1.0 17:1.0 22:1.0 36:1.0 40:1.0 57:1.0 63:1.0 67:1.0 73:1.0 74:1.0 77:1.0 82:1.0 83:1.0 
1.0 2:1.0 6:1.0 16:1.0 19:1.0 39:1.0 40:1.0 48:1.0 63:1.0 67:1.0 73:1.0 74:1.0 76:1.0 81:1.0 83:1.0 
1.0 5:1.0 6:1.0 17:1.0 25:1.0 38:1.0 40:1.0 47:1.0 63:1.0 67:1.0 73:1.0 74:1.0 76:1.0 80:1.0 83:1.0 
1.0 5:1.0 8:1.0 18:1.0 20:1.0 37:1.0 40:1.0 51:1.0 63:1.0 67:1.0 73:1.0 74:1.0 76:1.0 78:1.0 83:1.0 
1.0 3:1.0 6:1.0 18:1.0 25:1.0 38:1.0 40:1.0 48:1.0 63:1.0 67:1.0 73:1.0 74:1.0 76:1.0 78:1.0 83:1.0 
1.0 3:1.0 6:1.0 15:1.0 22:1.0 36:1.0 40:1.0 49:1.0 63:1.0 67:1.0 73:1.0 74:1.0 76:1.0 82:1.0 83:1.0 
1.0 4:1.0 6:1.0 17:1.0 19:1.0 39:1.0 41:1.0 50:1.0 66:1.0 67:1.0 73:1.0 74:1.0 76:1.0 80:1.0 83:1.0 
1.0 4:1.0 10:1.0 17:1.0 20:1.0 37:1.0 40:1.0 48:1.0 63:1.0 67:1.0 73:1.0 74:1.0 76:1.0 80:1.0 83:1.0 
1.0 1:1.0 10:1.0 17:1.0 20:1.0 37:1.0 40:1.0 59:1.0 63:1.0 67:1.0 73:1.0 74:1.0 76:1.0 82:1.0 83:1.0 
1.0 5:1.0 6:1.0 16:1.0 22:1.0 36:1.0 40:1.0 57:1.0 63:1.0 67:1.0 73:1.0 74:1.0 76:1.0 81:1.0 83:1.0 
1.0 3:1.0 6:1.0 16:1.0 20:1.0 37:1.0 40:1.0 59:1.0 63:1.0 71:1.0 73:1.0 74:1.0 76:1.0 80:1.0 83:1.0 
1.0 4:1.0 6:1.0 16:1.0 25:1.0 38:1.0 40:1.0 51:1.0 61:1.0 67:1.0 72:1.0 74:1.0 76:1.0 80:1.0 83:1.0 
1.0 4:1.0 6:1.0 18:1.0 29:1.0 39:1.0 40:1.0 52:1.0 63:1.0 67:1.0 73:1.0 74:1.0 76:1.0 82:1.0 83:1.0 
1.0 1:1.0 6:1.0 14:1.0 19:1.0 39:1.0 42:1.0 56:1.0 62:1.0 67:1.0 73:1.0 75:1.0 76:1.0 82:1.0 83:1.0 
1.0 3:1.0 6:1.0 17:1.0 22:1.0 36:1.0 40:1.0 57:1.0 63:1.0 67:1.0 73:1.0 75:1.0 76:1.0 82:1.0 83:1.0 
1.0 4:1.0 10:1.0 15:1.0 19:1.0 39:1.0 40:1.0 52:1.0 63:1.0 67:1.0 73:1.0 74:1.0 76:1.0 81:1.0 83:1.0 
1.0 3:1.0 7:1.0 17:1.0 20:1.0 37:1.0 40:1.0 50:1.0 63:1.0 67:1.0 73:1.0 75:1.0 76:1.0 78:1.0 83:1.0 
1.0 2:1.0 8:1.0 18:1.0 20:1.0 37:1.0 42:1.0 51:1.0 64:1.0 67:1.0 73:1.0 74:1.0 76:1.0 82:1.0 83:1.0 
1.0 5:1.0 8:1.0 14:1.0 22:1.0 36:1.0 40:1.0 52:1.0 63:1.0 71:1.0 73:1.0 74:1.0 76:1.0 82:1.0 83:1.0 
1.0 2:1.0 8:1.0 15:1.0 19:1.0 39:1.0 40:1.0 50:1.0 63:1.0 67:1.0 73:1.0 74:1.0 76:1.0 82:1.0 83:1.0 
1.0 2:1.0 6:1.0 15:1.0 22:1.0 36:1.0 40:1.0 53:1.0 63:1.0 67:1.0 73:1.0 74:1.0 76:1.0 80:1.0 83:1.0 
0.4703295743004273 5:1.0 15:1.0 23:1.0 39:1.0 40:1.0 63:1.0 67:1.0 73:1.0 75:1.0 76:1.0 78:1.0 83:1.0 
1.0 3:1.0 6:1.0 16:1.0 29:1.0 39:1.0 40:1.0 52:1.0 61:1.0 67:1.0 72:1.0 74:1.0 77:1.0 78:1.0 83:1.0 
1.0 2:1.0 6:1.0 15:1.0 22:1.0 36:1.0 40:1.0 52:1.0 63:1.0 67:1.0 73:1.0 75:1.0 76:1.0 81:1.0 83:1.0 
1.0 3:1.0 6:1.0 17:1.0 22:1.0 36:1.0 40:1.0 48:1.0 63:1.0 67:1.0 73:1.0 75:1.0 76:1.0 80:1.0 83:1.0 
1.0 3:1.0 7:1.0 18:1.0 32:1.0 39:1.0 42:1.0 52:1.0 64:1.0 67:1.0 73:1.0 74:1.0 76:1.0 78:1.0 
1.0 4:1.0 8:1.0 14:1.0 19:1.0 39:1.0 42:1.0 50:1.0 62:1.0 67:1.0 73:1.0 74:1.0 76:1.0 80:1.0 83:1.0 
1.0 5:1.0 8:1.0 15:1.0 20:1.0 37:1.0 40:1.0 51:1.0 63:1.0 67:1.0 73:1.0 74:1.0 76:1.0 82:1.0 83:1.0 
1.0 5:1.0 6:1.0 15:1.0 19:1.0 39:1.0 40:1.0 52:1.0 63:1.0 67:1.0 73:1.0 74:1.0 76:1.0 80:1.0 83:1.0 
1.0 3:1.0 10:1.0 18:1.0 25:1.0 38:1.0 40:1.0 59:1.0 63:1.0 67:1.0 73:1.0 74:1.0 76:1.0 82:1.0 83:1.0 
1.0 4:1.0 9:1.0 18:1.0 19:1.0 39:1.0 41:1.0 51:1.0 64:1.0 67:1.0 73:1.0 74:1.0 76:1.0 80:1.0 83:1.0 
1.0 3:1.0 9:1.0 16:1.0 23:1.0 39:1.0 42:1.0 52:1.0 64:1.0 67:1.0 72:1.0 74:1.0 76:1.0 82:1.0 83:1.0 
1.0 4:1.0 6:1.0 17:1.0 20:1.0 37:1.0 40:1.0 47:1.0 63:1.0 67:1.0 73:1.0 74:1.0 76:1.0 80:1.0 83:1.0 
1.0 4:1.0 11:1.0 16:1.0 24:1.0 38:1.0 41:1.0 55:1.0 66:1.0 67:1.0 73:1.0 74:1.0 77:1.0 79:1.0 83:1.0 
1.0 5:1.0 6:1.0 16:1.0 22:1.0 36:1.0 44:1.0 50:1.0 64:1.0 67:1.0 72:1.0 74:1.0 76:1.0 79:1.0 83:1.0 
1.0 4:1.0 7:1.0 16:1.0 22:1.0 36:1.0 40:1.0 50:1.0 63:1.0 67:1.0 73:1.0 74:1.0 76:1.0 82:1.0 83:1.0 
1.0 4:1.0 6:1.0 17:1.0 19:1.0 39:1.0 42:1.0 51:1.0 64:1.0 67:1.0 73:1.0 74:1.0 76:1.0 82:1.0 83:1.0 
1.0 5:1.0 8:1.0 16:1.0 20:1.0 37:1.0 40:1.0 51:1.0 63:1.0 67:1.0 73:1.0 74:1.0 76:1.0 81:1.0 83:1.0 
1.0 4:1.0 6:1.0 17:1.0 20:1.0 37:1.0 40:1.0 48:1.0 63:1.0 67:1.0 73:1.0 74:1.0 76:1.0 80:1.0 83:1.0 
1.0 2:1.0 6:1.0 15:1.0 20:1.0 37:1.0 40:1.0 48:1.0 63:1.0 67:1.0 73:1.0 74:1.0 77:1.0 80:1.0 83:1.0 
1.0 3:1.0 6:1.0 15:1.0 25:1.0 38:1.0 40:1.0 55:1.0 63:1.0 67:1.0 73:1.0 74:1.0 76:1.0 80:1.0 83:1.0 
1.0 5:1.0 7:1.0 16:1.0 22:1.0 36:1.0 40:1.0 50:1.0 63:1.0 67:1.0 73:1.0 74:1.0 76:1.0 80:1.0 85:1.0 
1.0 3:1.0 8:1.0 18:1.0 20:1.0 37:1.0 40:1.0 50:1.0 63:1.0 67:1.0 73:1.0 74:1.0 76:1.0 82:1.0 83:1.0 
1.0 3:1.0 6:1.0 18:1.0 22:1.0 36:1.0 40:1.0 48:1.0 63:1.0 67:1.0 73:1.0 74:1.0 76:1.0 80:1.0 83:1.0 
1.0 5:1.0 6:1.0 16:1.0 20:1.0 37:1.0 40:1.0 48:1.0 63:1.0 67:1.0 73:1.0 74:1.0 76:1.0 80:1.0 83:1.0 
1.0 3:1.0 6:1.0 14:1.0 22:1.0 36:1.0 40:1.0 51:1.0 61:1.0 67:1.0 72:1.0 74:1.0 76:1.0 81:1.0 87:1.0 
1.0 5:1.0 6:1.0 16:1.0 19:1.0 39:1.0 42:1.0 51:1.0 64:1.0 67:1.0 72:1.0 74:1.0 76:1.0 81:1.0 83:1.0 
1.0 1:1.0 6:1.0 18:1.0 19:1.0 39:1.0 40:1.0 52:1.0 63:1.0 67:1.0 73:1.0 74:1.0 76:1.0 81:1.0 83:1.0 
1.0 3:1.0 10:1.0 17:1.0 22:1.0 36:1.0 40:1.0 59:1.0 63:1.0 67:1.0 73:1.0 75:1.0 76:1.0 79:1.0 83:1.0 
1.0 4:1.0 8:1.0 15:1.0 33:1.0 35:1.0 40:1.0 48:1.0 63:1.0 67:1.0 73:1.0 74:1.0 76:1.0 80:1.0 
1.0 3:1.0 7:1.0 15:1.0 23:1.0 39:1.0 40:1.0 52:1.0 63:1.0 67:1.0 73:1.0 74:1.0 76:1.0 81:1.0 83:1.0 
1.0 4:1.0 6:1.0 14:1.0 20:1.0 37:1.0 40:1.0 50:1.0 63:1.0 68:1.0 73:1.0 74:1.0 77:1.0 80:1.0 83:1.0 
1.0 4:1.0 6:1.0 14:1.0 22:1.0 36:1.0 41:1.0 48:1.0 64:1.0 67:1.0 73:1.0 74:1.0 76:1.0 80:1.0 83:1.0 
1.0 2:1.0 6:1.0 14:1.0 22:1.0 36:1.0 41:1.0 50:1.0 64:1.0 69:1.0 73:1.0 75:1.0 76:1.0 80:1.0 83:1.0 
1.0 5:1.0 6:1.0 16:1.0 23:1.0 39:1.0 40:1.0 52:1.0 63:1.0 67:1.0 73:1.0 74:1.0 76:1.0 78:1.0 83:1.0 
1.0 5:1.0 6:1.0 14:1.0 22:1.0 36:1.0 40:1.0 56:1.0 63:1.0 67:1.0 73:1.0 74:1.0 76:1.0 82:1.0 83:1.0 
1.0 4:1.0 7:1.0 16:1.0 20:1.0 37:1.0 40:1.0 56:1.0 63:1.0 67:1.0 73:1.0 75:1.0 76:1.0 82:1.0 83:1.0 
1.0 4:1.0 7:1.0 17:1.0 23:1.0 39:1.0 42:1.0 52:1.0 64:1.0 67:1.0 73:1.0 74:1.0 76:1.0 80:1.0 83:1.0 
1.0 5:1.0 6:1.0 16:1.0 21:1.0 35:1.0 40:1.0 59:1.0 63:1.0 67:1.0 73:1.0 75:1.0 76:1.0 79:1.0 83:1.0 
1.0 5:1.0 6:1.0 16:1.0 22:1.0 36:1.0 40:1.0 48:1.0 63:1.0 67:1.0 73:1.0 75:1.0 76:1.0 82:1.0 109:1.0 
1.0 4:1.0 8:1.0 16:1.0 25:1.0 38:1.0 40:1.0 51:1.0 63:1.0 67:1.0 73:1.0 74:1.0 76:1.0 82:1.0 83:1.0 
1.0 5:1.0 14:1.0 19:1.0 39:1.0 40:1.0 63:1.0 67:1.0 73:1.0 75:1.0 76:1.0 78:1.0 83:1.0 
1.0 5:1.0 6:1.0 18:1.0 20:1.0 37:1.0 40:1.0 57:1.0 63:1.0 67:1.0 73:1.0 75:1.0 76:1.0 78:1.0 83:1.0 
1.0 4:1.0 6:1.0 15:1.0 19:1.0 39:1.0 40:1.0 51:1.0 63:1.0 67:1.0 73:1.0 74:1.0 76:1.0 79:1.0 83:1.0 
1.0 3:1.0 6:1.0 14:1.0 19:1.0 39:1.0 40:1.0 55:1.0 63:1.0 67:1.0 73:1.0 74:1.0 76:1.0 81:1.0 83:1.0 
1.0 2:1.0 7:1.0 15:1.0 19:1.0 39:1.0 41:1.0 51:1.0 66:1.0 67:1.0 73:1.0 74:1.0 76:1.0 82:1.0 83:1.0 
1.0 4:1.0 6:1.0 15:1.0 29:1.0 39:1.0 41:1.0 51:1.0 64:1.0 67:1.0 72:1.0 74:1.0 76:1.0 82:1.0 83:1.0 
1.0 4:1.0 6:1.0 16:1.0 20:1.0 37:1.0 40:1.0 54:1.0 63:1.0 67:1.0 73:1.0 74:1.0 76:1.0 82:1.0 83:1.0 
1.0 2:1.0 6:1.0 17:1.0 25:1.0 38:1.0 40:1.0 52:1.0 63:1.0 67:1.0 73:1.0 75:1.0 76:1.0 81:1.0 83:1.0 
1.0 2:1.0 6:1.0 14:1.0 19:1.0 39:1.0 40:1.0 47:1.0 63:1.0 67:1.0 73:1.0 74:1.0 76:1.0 80:1.0 83:1.0 
1.0 4:1.0 6:1.0 18:1.0 22:1.0 36:1.0 40:1.0 48:1.0 63:1.0 67:1.0 73:1.0 74:1.0 76:1.0 80:1.0 83:1.0 
1.0 3:1.0 6:1.0 17:1.0 22:1.0 36:1.0 40:1.0 55:1.0 61:1.0 67:1.0 72:1.0 74:1.0 76:1.0 81:1.0 83:1.0 
1.0 5:1.0 6:1.0 18:1.0 19:1.0 39:1.0 41:1.0 51:1.0 64:1.0 67:1.0 73:1.0 74:1.0 76:1.0 82:1.0 83:1.0 
1.0 3:1.0 8:1.0 15:1.0 25:1.0 38:1.0 40:1.0 50:1.0 63:1.0 67:1.0 73:1.0 74:1.0 76:1.0 82:1.0 83:1.0 
1.0 4:1.0 6:1.0 18:1.0 20:1.0 37:1.0 40:1.0 48:1.0 63:1.0 67:1.0 73:1.0 74:1.0 76:1.0 80:1.0 83:1.0 
1.0 5:1.0 6:1.0 17:1.0 28:1.0 35:1.0 40:1.0 57:1.0 63:1.0 67:1.0 73:1.0 74:1.0 76:1.0 80:1.0 83:1.0 
1.0 3:1.0 6:1.0 17:1.0 22:1.0 36:1.0 40:1.0 51:1.0 61:1.0 67:1.0 72:1.0 74:1.0 76:1.0 82:1.0 83:1.0 
1.0 3:1.0 7:1.0 15:1.0 29:1.0 39:1.0 42:1.0 52:1.0 64:1.0 67:1.0 73:1.0 74:1.0 76:1.0 80:1.0 83:1.0 
1.0 4:1.0 6:1.0 15:1.0 20:1.0 37:1.0 41:1.0 50:1.0 66:1.0 67:1.0 73:1.0 74:1.0 76:1.0 82:1.0 83:1.0 
0.12163158288767989 2:1.0 6:1.0 14:1.0 19:1.0 39:1.0 40:1.0 51:1.0 61:1.0 71:1.0 72:1.0 74:1.0 76:1.0 81:1.0 83:1.0 
1.0 3:1.0 9:1.0 14:1.0 20:1.0 37:1.0 43:1.0 51:1.0 64:1.0 67:1.0 73:1.0 75:1.0 76:1.0 82:1.0 83:1.0 
1.0 2:1.0 6:1.0 16:1.0 20:1.0 37:1.0 40:1.0 53:1.0 63:1.0 67:1.0 73:1.0 74:1.0 76:1.0 80:1.0 83:1.0 
1.0 3:1.0 6:1.0 18:1.0 20:1.0 37:1.0 40:1.0 50:1.0 63:1.0 67:1.0 73:1.0 75:1.0 76:1.0 82:1.0 83:1.0 
1.0 3:1.0 10:1.0 17:1.0 24:1.0 38:1.0 40:1.0 51:1.0 63:1.0 67:1.0 73:1.0 74:1.0 76:1.0 80:1.0 83:1.0 
1.0 4:1.0 17:1.0 20:1.0 37:1.0 40:1.0 63:1.0 67:1.0 73:1.0 74:1.0 76:1.0 78:1.0 83:1.0 
1.0 5:1.0 6:1.0 14:1.0 29:1.0 39:1.0 40:1.0 52:1.0 63:1.0 67:1.0 73:1.0 74:1.0 76:1.0 81:1.0 83:1.0 
1.0 2:1.0 6:1.0 15:1.0 26:1.0 35:1.0 42:1.0 48:1.0 64:1.0 67:1.0 73:1.0 74:1.0 76:1.0 82:1.0 
1.0 4:1.0 10:1.0 14:1.0 19:1.0 39:1.0 40:1.0 52:1.0 63:1.0 67:1.0 73:1.0 74:1.0 76:1.0 81:1.0 83:1.0 
1.0 4:1.0 6:1.0 14:1.0 22:1.0 36:1.0 40:1.0 54:1.0 63:1.0 67:1.0 73:1.0 74:1.0 76:1.0 81:1.0 83:1.0 
1.0 4:1.0 6:1.0 14:1.0 20:1.0 37:1.0 40:1.0 50:1.0 63:1.0 67:1.0 73:1.0 74:1.0 76:1.0 79:1.0 83:1.0 
1.0 5:1.0 6:1.0 16:1.0 22:1.0 36:1.0 40:1.0 59:1.0 63:1.0 67:1.0 73:1.0 74:1.0 76:1.0 80:1.0 83:1.0 
1.0 5:1.0 8:1.0 18:1.0 19:1.0 39:1.0 40:1.0 50:1.0 63:1.0 67:1.0 73:1.0 74:1.0 76:1.0 82:1.0 83:1.0 
1.0 4:1.0 6:1.0 17:1.0 29:1.0 39:1.0 41:1.0 50:1.0 64:1.0 67:1.0 73:1.0 75:1.0 76:1.0 82:1.0 83:1.0 
1.0 5:1.0 7:1.0 14:1.0 22:1.0 36:1.0 40:1.0 56:1.0 63:1.0 67:1.0 73:1.0 75:1.0 76:1.0 81:1.0 83:1.0 
1.0 2:1.0 6:1.0 15:1.0 19:1.0 39:1.0 40:1.0 52:1.0 63:1.0 67:1.0 73:1.0 74:1.0 76:1.0 80:1.0 83:1.0 
1.0 2:1.0 8:1.0 15:1.0 22:1.0 36:1.0 40:1.0 51:1.0 63:1.0 67:1.0 73:1.0 74:1.0 76:1.0 82:1.0 83:1.0 
1.0 4:1.0 9:1.0 18:1.0 23:1.0 39:1.0 41:1.0 52:1.0 66:1.0 67:1.0 73:1.0 74:1.0 76:1.0 80:1.0 83:1.0 
1.0 4:1.0 10:1.0 16:1.0 20:1.0 37:1.0 40:1.0 57:1.0 63:1.0 67:1.0 73:1.0 74:1.0 77:1.0 80:1.0 83:1.0 
1.0 3:1.0 6:1.0 17:1.0 22:1.0 36:1.0 40:1.0 51:1.0 63:1.0 67:1.0 73:1.0 74:1.0 76:1.0 82:1.0 96:1.0 
0.28649344444949404 4:1.0 6:1.0 18:1.0 24:1.0 38:1.0 40:1.0 55:1.0 63:1.0 67:1.0 73:1.0 75:1.0 76:1.0 81:1.0 83:1.0 
1.0 5:1.0 6:1.0 15:1.0 19:1.0 39:1.0 40:1.0 52:1.0 63:1.0 67:1.0 73:1.0 74:1.0 76:1.0 82:1.0 83:1.0 
1.0 4:1.0 6:1.0 18:1.0 21:1.0 35:1.0 40:1.0 48:1.0 63:1.0 67:1.0 73:1.0 75:1.0 76:1.0 80:1.0 83:1.0 
1.0 4:1.0 6:1.0 16:1.0 22:1.0 36:1.0 40:1.0 48:1.0 63:1.0 67:1.0 73:1.0 74:1.0 76:1.0 80:1.0 83:1.0 
1.0 2:1.0 6:1.0 18:1.0 22:1.0 36:1.0 40:1.0 57:1.0 63:1.0 67:1.0 73:1.0 74:1.0 76:1.0 81:1.0 83:1.0 
1.0 3:1.0 7:1.0 18:1.0 22:1.0 36:1.0 41:1.0 51:1.0 64:1.0 68:1.0 72:1.0 74:1.0 76:1.0 82:1.0 93:1.0 
1.0 5:1.0 7:1.0 17:1.0 19:1.0 39:1.0 40:1.0 51:1.0 61:1.0 67:1.0 72:1.0 74:1.0 76:1.0 80:1.0 83:1.0 
1.0 2:1.0 6:1.0 14:1.0 19:1.0 39:1.0 42:1.0 51:1.0 64:1.0 67:1.0 73:1.0 74:1.0 76:1.0 82:1.0 83:1.0 
1.0 3:1.0 6:1.0 14:1.0 19:1.0 39:1.0 40:1.0 55:1.0 63:1.0 67:1.0 73:1.0 74:1.0 76:1.0 80:1.0 83:1.0 
1.0 3:1.0 6:1.0 18:1.0 19:1.0 39:1.0 40:1.0 55:1.0 63:1.0 67:1.0 73:1.0 74:1.0 76:1.0 80:1.0 83:1.0 
1.0 4:1.0 6:1.0 17:1.0 20:1.0 37:1.0 40:1.0 48:1.0 63:1.0 67:1.0 73:1.0 74:1.0 76:1.0 82:1.0 83:1.0 
1.0 3:1.0 6:1.0 17:1.0 22:1.0 36:1.0 40:1.0 48:1.0 63:1.0 67:1.0 73:1.0 75:1.0 76:1.0 80:1.0 83:1.0 
1.0 4:1.0 8:1.0 18:1.0 20:1.0 37:1.0 41:1.0 50:1.0 62:1.0 67:1.0 73:1.0 74:1.0 76:1.0 81:1.0 83:1.0 
1.0 3:1.0 6:1.0 15:1.0 19:1.0 39:1.0 42:1.0 50:1.0 62:1.0 67:1.0 73:1.0 74:1.0 76:1.0 80:1.0 83:1.0 
1.0 5:1.0 8:1.0 16:1.0 19:1.0 39:1.0 40:1.0 51:1.0 63:1.0 67:1.0 73:1.0 74:1.0 76:1.0 81:1.0 103:1.0 
1.0 5:1.0 7:1.0 14:1.0 29:1.0 39:1.0 40:1.0 47:1.0 63:1.0 67:1.0 73:1.0 74:1.0 76:1.0 79:1.0 83:1.0 
1.0 5:1.0 6:1.0 17:1.0 25:1.0 38:1.0 40:1.0 51:1.0 63:1.0 67:1.0 73:1.0 74:1.0 76:1.0 82:1.0 83:1.0 
1.0 4:1.0 6:1.0 18:1.0 20:1.0 37:1.0 40:1.0 51:1.0 61:1.0 67:1.0 72:1.0 74:1.0 77:1.0 80:1.0 83:1.0 
1.0 3:1.0 9:1.0 18:1.0 22:1.0 36:1.0 40:1.0 48:1.0 63:1.0 67:1.0 73:1.0 74:1.0 76:1.0 80:1.0 83:1.0 
1.0 3:1.0 10:1.0 14:1.0 19:1.0 39:1.0 40:1.0 52:1.0 61:1.0 67:1.0 72:1.0 74:1.0 76:1.0 80:1.0 83:1.0 
1.0 2:1.0 8:1.0 17:1.0 22:1.0 36:1.0 40:1.0 50:1.0 63:1.0 71:1.0 73:1.0 75:1.0 76:1.0 80:1.0 83:1.0 
1.0 4:1.0 6:1.0 15:1.0 22:1.0 36:1.0 40:1.0 48:1.0 63:1.0 67:1.0 73:1.0 75:1.0 76:1.0 82:1.0 83:1.0 
1.0 5:1.0 6:1.0 18:1.0 20:1.0 37:1.0 40:1.0 48:1.0 63:1.0 67:1.0 73:1.0 74:1.0 76:1.0 81:1.0 83:1.0 
1.0 5:1.0 6:1.0 18:1.0 22:1.0 36:1.0 40:1.0 48:1.0 63:1.0 67:1.0 73:1.0 74:1.0 76:1.0 80:1.0 83:1.0 
1.0 4:1.0 10:1.0 17:1.0 19:1.0 39:1.0 40:1.0 52:1.0 63:1.0 67:1.0 73:1.0 74:1.0 76:1.0 80:1.0 83:1.0 
1.0 4:1.0 6:1.0 17:1.0 24:1.0 38:1.0 40:1.0 51:1.0 63:1.0 71:1.0 73:1.0 74:1.0 76:1.0 82:1.0 90:1.0 
1.0 5:1.0 6:1.0 15:1.0 29:1.0 39:1.0 40:1.0 52:1.0 63:1.0 67:1.0 73:1.0 74:1.0 76:1.0 80:1.0 83:1.0 
1.0 5:1.0 6:1.0 16:1.0 20:1.0 37:1.0 40:1.0 51:1.0 61:1.0 67:1.0 72:1.0 74:1.0 76:1.0 78:1.0 83:1.0 
1.0 2:1.0 6:1.0 15:1.0 25:1.0 38:1.0 41:1.0 51:1.0 64:1.0 67:1.0 73:1.0 75:1.0 76:1.0 82:1.0 83:1.0 
1.0 5:1.0 6:1.0 16:1.0 22:1.0 36:1.0 44:1.0 51:1.0 64:1.0 67:1.0 72:1.0 74:1.0 76:1.0 78:1.0 83:1.0 
1.0 4:1.0 7:1.0 14:1.0 19:1.0 39:1.0 40:1.0 50:1.0 63:1.0 67:1.0 73:1.0 74:1.0 76:1.0 80:1.0 83:1.0 
1.0 1:1.0 6:1.0 18:1.0 20:1.0 37:1.0 40:1.0 57:1.0 63:1.0 67:1.0 73:1.0 74:1.0 76:1.0 82:1.0 83:1.0 
1.0 5:1.0 10:1.0 14:1.0 22:1.0 36:1.0 40:1.0 49:1.0 63:1.0 68:1.0 73:1.0 74:1.0 76:1.0 79:1.0 83:1.0 
1.0 3:1.0 10:1.0 16:1.0 19:1.0 39:1.0 40:1.0 59:1.0 63:1.0 71:1.0 73:1.0 74:1.0 76:1.0 80:1.0 83:1.0 
1.0 3:1.0 7:1.0 18:1.0 32:1.0 39:1.0 40:1.0 52:1.0 63:1.0 67:1.0 73:1.0 74:1.0 76:1.0 82:1.0 83:1.0 
1.0 2:1.0 10:1.0 14:1.0 19:1.0 39:1.0 40:1.0 49:1.0 63:1.0 67:1.0 73:1.0 74:1.0 76:1.0 79:1.0 83:1.0 
1.0 2:1.0 6:1.0 15:1.0 20:1.0 37:1.0 40:1.0 50:1.0 63:1.0 67:1.0 73:1.0 74:1.0 77:1.0 82:1.0 83:1.0 
1.0 4:1.0 6:1.0 15:1.0 24:1.0 38:1.0 40:1.0 52:1.0 63:1.0 67:1.0 73:1.0 74:1.0 76:1.0 80:1.0 83:1.0 
1.0 5:1.0 6:1.0 16:1.0 25:1.0 38:1.0 40:1.0 47:1.0 63:1.0 67:1.0 73:1.0 74:1.0 76:1.0 80:1.0 83:1.0 
1.0 1:1.0 6:1.0 14:1.0 25:1.0 38:1.0 40:1.0 52:1.0 61:1.0 67:1.0 72:1.0 75:1.0 76:1.0 80:1.0 83:1.0 
1.0 4:1.0 6:1.0 18:1.0 20:1.0 37:1.0 40:1.0 50:1.0 63:1.0 67:1.0 73:1.0 75:1.0 76:1.0 80:1.0 83:1.0 
1.0 5:1.0 6:1.0 17:1.0 22:1.0 36:1.0 40:1.0 48:1.0 63:1.0 67:1.0 73:1.0 74:1.0 76:1.0 80:1.0 83:1.0 
1.0 3:1.0 6:1.0 16:1.0 19:1.0 39:1.0 40:1.0 55:1.0 63:1.0 67:1.0 73:1.0 74:1.0 76:1.0 80:1.0 83:1.0 
1.0 3:1.0 8:1.0 16:1.0 22:1.0 36:1.0 40:1.0 48:1.0 63:1.0 67:1.0 73:1.0 74:1.0 76:1.0 80:1.0 83:1.0 
1.0 4:1.0 6:1.0 14:1.0 19:1.0 39:1.0 40:1.0 52:1.0 63:1.0 67:1.0 73:1.0 74:1.0 76:1.0 80:1.0 83:1.0 
1.0 3:1.0 6:1.0 16:1.0 19:1.0 39:1.0 40:1.0 52:1.0 61:1.0 67:1.0 72:1.0 74:1.0 76:1.0 78:1.0 83:1.0 
1.0 4:1.0 6:1.0 14:1.0 22:1.0 36:1.0 40:1.0 48:1.0 63:1.0 67:1.0 73:1.0 74:1.0 76:1.0 82:1.0 83:1.0 
1.0 5:1.0 7:1.0 14:1.0 20:1.0 37:1.0 40:1.0 50:1.0 63:1.0 67:1.0 73:1.0 75:1.0 76:1.0 81:1.0 83:1.0 
1.0 3:1.0 6:1.0 15:1.0 25:1.0 38:1.0 40:1.0 47:1.0 61:1.0 67:1.0 72:1.0 74:1.0 76:1.0 80:1.0 83:1.0 
1.0 5:1.0 6:1.0 15:1.0 19:1.0 39:1.0 40:1.0 49:1.0 63:1.0 67:1.0 73:1.0 74:1.0 76:1.0 80:1.0 83:1.0 
1.0 3:1.0 6:1.0 14:1.0 25:1.0 38:1.0 40:1.0 54:1.0 63:1.0 67:1.0 73:1.0 74:1.0 76:1.0 80:1.0 83:1.0 
1.0 5:1.0 6:1.0 17:1.0 19:1.0 39:1.0 40:1.0 50:1.0 63:1.0 67:1.0 73:1.0 74:1.0 76:1.0 81:1.0 83:1.0 
1.0 4:1.0 10:1.0 16:1.0 20:1.0 37:1.0 40:1.0 59:1.0 63:1.0 67:1.0 73:1.0 74:1.0 76:1.0 80:1.0 83:1.0 
1.0 3:1.0 6:1.0 14:1.0 19:1.0 39:1.0 40:1.0 50:1.0 61:1.0 67:1.0 72:1.0 74:1.0 76:1.0 80:1.0 83:1.0 
1.0 5:1.0 8:1.0 17:1.0 20:1.0 37:1.0 40:1.0 51:1.0 63:1.0 67:1.0 73:1.0 75:1.0 76:1.0 78:1.0 83:1.0 
1.0 4:1.0 6:1.0 16:1.0 22:1.0 36:1.0 40:1.0 48:1.0 63:1.0 67:1.0 73:1.0 74:1.0 76:1.0 80:1.0 83:1.0 
1.0 2:1.0 16:1.0 29:1.0 39:1.0 40:1.0 63:1.0 67:1.0 73:1.0 74:1.0 76:1.0 81:1.0 83:1.0 
1.0 3:1.0 7:1.0 17:1.0 22:1.0 36:1.0 40:1.0 57:1.0 63:1.0 67:1.0 73:1.0 74:1.0 76:1.0 82:1.0 83:1.0 
1.0 4:1.0 6:1.0 17:1.0 22:1.0 36:1.0 40:1.0 48:1.0 63:1.0 67:1.0 73:1.0 74:1.0 76:1.0 81:1.0 83:1.0 
1.0 5:1.0 8:1.0 15:1.0 20:1.0 37:1.0 40:1.0 51:1.0 63:1.0 67:1.0 73:1.0 74:1.0 76:1.0 82:1.0 88:1.0 
1.0 3:1.0 6:1.0 17:1.0 24:1.0 38:1.0 40:1.0 52:1.0 63:1.0 67:1.0 73:1.0 74:1.0 76:1.0 80:1.0 83:1.0 
1.0 3:1.0 6:1.0 15:1.0 22:1.0 36:1.0 40:1.0 54:1.0 63:1.0 67:1.0 73:1.0 74:1.0 76:1.0 82:1.0 83:1.0 
1.0 2:1.0 7:1.0 16:1.0 22:1.0 36:1.0 40:1.0 48:1.0 63:1.0 67:1.0 73:1.0 74:1.0 77:1.0 80:1.0 83:1.0 
1.0 5:1.0 6:1.0 15:1.0 22:1.0 36:1.0 40:1.0 47:1.0 63:1.0 67:1.0 73:1.0 74:1.0 76:1.0 80:1.0 83:1.0 
1.0 5:1.0 15:1.0 22:1.0 36:1.0 40:1.0 63:1.0 67:1.0 73:1.0 74:1.0 76:1.0 82:1.0 83:1.0 
1.0 3:1.0 6:1.0 15:1.0 19:1.0 39:1.0 45:1.0 51:1.0 64:1.0 67:1.0 73:1.0 74:1.0 76:1.0 80:1.0 83:1.0 
1.0 4:1.0 16:1.0 25:1.0 38:1.0 40:1.0 61:1.0 71:1.0 72:1.0 74:1.0 76:1.0 79:1.0 83:1.0 
1.0 5:1.0 6:1.0 14:1.0 19:1.0 39:1.0 42:1.0 47:1.0 64:1.0 67:1.0 73:1.0 74:1.0 76:1.0 80:1.0 83:1.0 
1.0 5:1.0 6:1.0 16:1.0 25:1.0 38:1.0 40:1.0 47:1.0 63:1.0 67:1.0 73:1.0 74:1.0 76:1.0 80:1.0 83:1.0 
1.0 4:1.0 10:1.0 14:1.0 20:1.0 37:1.0 40:1.0 56:1.0 63:1.0 67:1.0 73:1.0 74:1.0 76:1.0 80:1.0 83:1.0 
1.0 3:1.0 10:1.0 15:1.0 20:1.0 37:1.0 40:1.0 59:1.0 63:1.0 67:1.0 73:1.0 74:1.0 76:1.0 82:1.0 83:1.0 
1.0 3:1.0 6:1.0 14:1.0 25:1.0 38:1.0 40:1.0 51:1.0 63:1.0 67:1.0 73:1.0 74:1.0 77:1.0 82:1.0 83:1.0 
1.0 3:1.0 6:1.0 16:1.0 25:1.0 38:1.0 40:1.0 51:1.0 61:1.0 67:1.0 72:1.0 74:1.0 76:1.0 81:1.0 83:1.0 
1.0 5:1.0 6:1.0 14:1.0 32:1.0 39:1.0 42:1.0 52:1.0 64:1.0 67:1.0 72:1.0 74:1.0 76:1.0 82:1.0 83:1.0 
1.0 5:1.0 6:1.0 17:1.0 28:1.0 35:1.0 40:1.0 54:1.0 63:1.0 67:1.0 73:1.0 74:1.0 76:1.0 81:1.0 83:1.0 
1.0 3:1.0 11:1.0 17:1.0 29:1.0 39:1.0 40:1.0 52:1.0 63:1.0 67:1.0 73:1.0 74:1.0 76:1.0 82:1.0 83:1.0 
1.0 4:1.0 6:1.0 17:1.0 25:1.0 38:1.0 40:1.0 50:1.0 63:1.0 67:1.0 73:1.0 74:1.0 76:1.0 80:1.0 83:1.0 
1.0 4:1.0 6:1.0 16:1.0 24:1.0 38:1.0 40:1.0 47:1.0 63:1.0 67:1.0 73:1.0 74:1.0 76:1.0 81:1.0 83:1.0 
1.0 5:1.0 7:1.0 18:1.0 23:1.0 39:1.0 41:1.0 52:1.0 64:1.0 67:1.0 73:1.0 74:1.0 76:1.0 82:1.0 83:1.0 
1.0 2:1.0 8:1.0 14:1.0 22:1.0 36:1.0 40:1.0 51:1.0 63:1.0 67:1.0 73:1.0 74:1.0 76:1.0 81:1.0 83:1.0 
1.0 4:1.0 10:1.0 17:1.0 19:1.0 39:1.0 41:1.0 52:1.0 64:1.0 67:1.0 72:1.0 75:1.0 76:1.0 78:1.0 83:1.0 
1.0 5:1.0 15:1.0 19:1.0 39:1.0 40:1.0 63:1.0 67:1.0 73:1.0 74:1.0 76:1.0 80:1.0 99:1.0 
1.0 4:1.0 6:1.0 16:1.0 20:1.0 37:1.0 40:1.0 51:1.0 63:1.0 67:1.0 73:1.0 74:1.0 76:1.0 80:1.0 83:1.0 
1.0 4:1.0 6:1.0 17:1.0 23:1.0 39:1.0 41:1.0 52:1.0 64:1.0 67:1.0 73:1.0 74:1.0 76:1.0 82:1.0 83:1.0 
1.0 5:1.0 9:1.0 15:1.0 19:1.0 39:1.0 40:1.0 52:1.0 63:1.0 67:1.0 73:1.0 74:1.0 76:1.0 80:1.0 83:1.0 
1.0 3:1.0 7:1.0 16:1.0 22:1.0 36:1.0 40:1.0 56:1.0 63:1.0 67:1.0 73:1.0 74:1.0 76:1.0 82:1.0 83:1.0 
1.0 4:1.0 8:1.0 14:1.0 19:1.0 39:1.0 40:1.0 50:1.0 63:1.0 67:1.0 73:1.0 74:1.0 76:1.0 82:1.0 83:1.0 
1.0 3:1.0 6:1.0 17:1.0 29:1.0 39:1.0 42:1.0 52:1.0 64:1.0 67:1.0 73:1.0 74:1.0 76:1.0 80:1.0 83:1.0 
1.0 5:1.0 6:1.0 14:1.0 19:1.0 39:1.0 40:1.0 52:1.0 63:1.0 67:1.0 73:1.0 74:1.0 76:1.0 82:1.0 83:1.0 
1.0 3:1.0 6:1.0 17:1.0 20:1.0 37:1.0 40:1.0 47:1.0 61:1.0 67:1.0 72:1.0 74:1.0 76:1.0 80:1.0 83:1.0 
1.0 2:1.0 6:1.0 18:1.0 20:1.0 37:1.0 40:1.0 51:1.0 63:1.0 67:1.0 73:1.0 74:1.0 76:1.0 82:1.0 88:1.0 
1.0 5:1.0 6:1.0 16:1.0 30:1.0 35:1.0 40:1.0 48:1.0 63:1.0 71:1.0 73:1.0 74:1.0 76:1.0 80:1.0 111:1.0 
1.0 3:1.0 6:1.0 15:1.0 19:1.0 39:1.0 40:1.0 51:1.0 63:1.0 67:1.0 73:1.0 74:1.0 76:1.0 80:1.0 83:1.0 
1.0 5:1.0 6:1.0 17:1.0 22:1.0 36:1.0 40:1.0 54:1.0 63:1.0 67:1.0 73:1.0 74:1.0 76:1.0 80:1.0 83:1.0 
1.0 3:1.0 6:1.0 17:1.0 25:1.0 38:1.0 40:1.0 57:1.0 63:1.0 67:1.0 73:1.0 74:1.0 76:1.0 82:1.0 83:1.0 
1.0 5:1.0 7:1.0 16:1.0 22:1.0 36:1.0 40:1.0 51:1.0 63:1.0 67:1.0 73:1.0 74:1.0 76:1.0 82:1.0 83:1.0 
1.0 5:1.0 7:1.0 16:1.0 32:1.0 39:1.0 45:1.0 52:1.0 64:1.0 67:1.0 73:1.0 74:1.0 76:1.0 78:1.0 83:1.0 
1.0 4:1.0 6:1.0 15:1.0 22:1.0 36:1.0 40:1.0 54:1.0 63:1.0 67:1.0 73:1.0 74:1.0 76:1.0 81:1.0 83:1.0 
1.0 3:1.0 6:1.0 18:1.0 29:1.0 39:1.0 42:1.0 52:1.0 64:1.0 68:1.0 72:1.0 74:1.0 76:1.0 80:1.0 110:1.0 
1.0 4:1.0 6:1.0 14:1.0 20:1.0 37:1.0 40:1.0 50:1.0 63:1.0 67:1.0 73:1.0 74:1.0 76:1.0 80:1.0 83:1.0 
1.0 3:1.0 6:1.0 16:1.0 29:1.0 39:1.0 42:1.0 52:1.0 64:1.0 67:1.0 72:1.0 74:1.0 76:1.0 80:1.0 83:1.0 
1.0 5:1.0 6:1.0 15:1.0 19:1.0 39:1.0 40:1.0 52:1.0 63:1.0 67:1.0 73:1.0 74:1.0 76:1.0 80:1.0 83:1.0 
1.0 2:1.0 6:1.0 16:1.0 25:1.0 38:1.0 40:1.0 47:1.0 63:1.0 67:1.0 73:1.0 74:1.0 76:1.0 82:1.0 83:1.0 
1.0 5:1.0 6:1.0 16:1.0 29:1.0 39:1.0 40:1.0 47:1.0 63:1.0 67:1.0 73:1.0 74:1.0 76:1.0 80:1.0 83:1.0 
1.0 4:1.0 6:1.0 15:1.0 20:1.0 37:1.0 40:1.0 51:1.0 63:1.0 67:1.0 73:1.0 74:1.0 76:1.0 82:1.0 83:1.0 
1.0 4:1.0 7:1.0 14:1.0 29:1.0 39:1.0 42:1.0 51:1.0 64:1.0 68:1.0 73:1.0 74:1.0 76:1.0 81:1.0 83:1.0 
1.0 2:1.0 10:1.0 15:1.0 19:1.0 39:1.0 40:1.0 59:1.0 63:1.0 71:1.0 73:1.0 74:1.0 76:1.0 81:1.0 83:1.0 
1.0 3:1.0 8:1.0 15:1.0 25:1.0 38:1.0 40:1.0 48:1.0 63:1.0 67:1.0 73:1.0 74:1.0 77:1.0 80:1.0 83:1.0 
1.0 4:1.0 10:1.0 17:1.0 20:1.0 37:1.0 41:1.0 51:1.0 66:1.0 67:1.0 73:1.0 74:1.0 76:1.0 82:1.0 83:1.0 
1.0 5:1.0 6:1.0 15:1.0 22:1.0 36:1.0 40:1.0 57:1.0 63:1.0 67:1.0 73:1.0 74:1.0 76:1.0 82:1.0 83:1.0 
1.0 3:1.0 9:1.0 18:1.0 20:1.0 37:1.0 40:1.0 55:1.0 63:1.0 71:1.0 73:1.0 74:1.0 76:1.0 80:1.0 83:1.0 
1.0 5:1.0 6:1.0 16:1.0 19:1.0 39:1.0 40:1.0 50:1.0 63:1.0 67:1.0 73:1.0 74:1.0 76:1.0 80:1.0 83:1.0 
1.0 3:1.0 6:1.0 15:1.0 19:1.0 39:1.0 40:1.0 48:1.0 63:1.0 67:1.0 73:1.0 74:1.0 76:1.0 80:1.0 83:1.0 
1.0 3:1.0 6:1.0 16:1.0 25:1.0 38:1.0 40:1.0 51:1.0 61:1.0 67:1.0 72:1.0 74:1.0 76:1.0 80:1.0 86:1.0 
1.0 3:1.0 6:1.0 18:1.0 20:1.0 37:1.0 41:1.0 52:1.0 64:1.0 67:1.0 72:1.0 74:1.0 76:1.0 81:1.0 83:1.0 
1.0 3:1.0 6:1.0 16:1.0 19:1.0 39:1.0 40:1.0 52:1.0 63:1.0 67:1.0 73:1.0 74:1.0 76:1.0 82:1.0 83:1.0 
1.0 5:1.0 10:1.0 18:1.0 23:1.0 39:1.0 40:1.0 55:1.0 63:1.0 68:1.0 73:1.0 74:1.0 76:1.0 80:1.0 108:1.0 
1.0 1:1.0 6:1.0 15:1.0 20:1.0 37:1.0 42:1.0 49:1.0 62:1.0 67:1.0 73:1.0 74:1.0 76:1.0 78:1.0 83:1.0 
1.0 5:1.0 6:1.0 15:1.0 25:1.0 38:1.0 40:1.0 48:1.0 63:1.0 71:1.0 73:1.0 74:1.0 76:1.0 80:1.0 83:1.0 
1.0 5:1.0 6:1.0 17:1.0 22:1.0 36:1.0 40:1.0 48:1.0 63:1.0 67:1.0 73:1.0 74:1.0 76:1.0 80:1.0 83:1.0 
1.0 4:1.0 6:1.0 15:1.0 31:1.0 35:1.0 40:1.0 57:1.0 63:1.0 67:1.0 73:1.0 74:1.0 76:1.0 80:1.0 83:1.0 
1.0 2:1.0 6:1.0 17:1.0 19:1.0 39:1.0 40:1.0 47:1.0 63:1.0 67:1.0 73:1.0 74:1.0 76:1.0 79:1.0 83:1.0 
1.0 4:1.0 6:1.0 18:1.0 20:1.0 37:1.0 40:1.0 50:1.0 63:1.0 71:1.0 73:1.0 75:1.0 76:1.0 82:1.0 83:1.0 
1.0 4:1.0 8:1.0 14:1.0 19:1.0 39:1.0 40:1.0 50:1.0 62:1.0 68:1.0 72:1.0 74:1.0 76:1.0 80:1.0 98:1.0 
1.0 4:1.0 6:1.0 18:1.0 31:1.0 35:1.0 40:1.0 48:1.0 63:1.0 67:1.0 73:1.0 74:1.0 76:1.0 82:1.0 83:1.0 
1.0 3:1.0 6:1.0 18:1.0 19:1.0 39:1.0 40:1.0 52:1.0 63:1.0 67:1.0 73:1.0 74:1.0 76:1.0 81:1.0 83:1.0 
1.0 5:1.0 6:1.0 14:1.0 19:1.0 39:1.0 40:1.0 50:1.0 63:1.0 67:1.0 73:1.0 74:1.0 76:1.0 81:1.0 83:1.0 
1.0 4:1.0 6:1.0 16:1.0 24:1.0 38:1.0 40:1.0 48:1.0 63:1.0 67:1.0 73:1.0 74:1.0 76:1.0 80:1.0 83:1.0 
1.0 3:1.0 6:1.0 14:1.0 20:1.0 37:1.0 40:1.0 56:1.0 63:1.0 67:1.0 73:1.0 74:1.0 76:1.0 82:1.0 83:1.0 
1.0 2:1.0 6:1.0 14:1.0 29:1.0 39:1.0 40:1.0 51:1.0 63:1.0 67:1.0 73:1.0 74:1.0 76:1.0 82:1.0 83:1.0 
1.0 3:1.0 8:1.0 15:1.0 24:1.0 38:1.0 40:1.0 50:1.0 63:1.0 67:1.0 73:1.0 74:1.0 77:1.0 81:1.0 83:1.0 
1.0 5:1.0 10:1.0 16:1.0 22:1.0 36:1.0 40:1.0 59:1.0 63:1.0 67:1.0 73:1.0 74:1.0 76:1.0 82:1.0 83:1.0 
1.0 5:1.0 6:1.0 18:1.0 25:1.0 38:1.0 40:1.0 47:1.0 63:1.0 67:1.0 73:1.0 74:1.0 76:1.0 80:1.0 83:1.0 
1.0 4:1.0 11:1.0 16:1.0 20:1.0 37:1.0 41:1.0 55:1.0 64:1.0 71:1.0 73:1.0 74:1.0 76:1.0 82:1.0 83:1.0 
1.0 3:1.0 6:1.0 15:1.0 19:1.0 39:1.0 40:1.0 52:1.0 63:1.0 67:1.0 73:1.0 74:1.0 76:1.0 80:1.0 83:1.0 
1.0 5:1.0 7:1.0 16:1.0 23:1.0 39:1.0 40:1.0 50:1.0 63:1.0 67:1.0 73:1.0 74:1.0 76:1.0 81:1.0 83:1.0 
1.0 1:1.0 7:1.0 18:1.0 19:1.0 39:1.0 42:1.0 51:1.0 64:1.0 67:1.0 73:1.0 75:1.0 76:1.0 79:1.0 83:1.0 
1.0 3:1.0 6:1.0 15:1.0 22:1.0 36:1.0 40:1.0 51:1.0 61:1.0 67:1.0 72:1.0 74:1.0 76:1.0 80:1.0 83:1.0 
1.0 5:1.0 6:1.0 14:1.0 29:1.0 39:1.0 40:1.0 50:1.0 63:1.0 67:1.0 73:1.0 74:1.0 76:1.0 82:1.0 83:1.0 
1.0 2:1.0 7:1.0 14:1.0 23:1.0 39:1.0 41:1.0 52:1.0 64:1.0 67:1.0 73:1.0 75:1.0 76:1.0 82:1.0 83:1.0 
1.0 3:1.0 6:1.0 15:1.0 22:1.0 36:1.0 40:1.0 48:1.0 63:1.0 67:1.0 73:1.0 74:1.0 76:1.0 81:1.0 83:1.0 
1.0 5:1.0 6:1.0 15:1.0 29:1.0 39:1.0 41:1.0 51:1.0 66:1.0 67:1.0 73:1.0 74:1.0 76:1.0 80:1.0 83:1.0 
1.0 2:1.0 10:1.0 18:1.0 25:1.0 38:1.0 42:1.0 59:1.0 64:1.0 67:1.0 73:1.0 74:1.0 77:1.0 82:1.0 83:1.0 
1.0 3:1.0 6:1.0 16:1.0 29:1.0 39:1.0 42:1.0 51:1.0 64:1.0 67:1.0 72:1.0 74:1.0 76:1.0 80:1.0 83:1.0 
1.0 4:1.0 6:1.0 15:1.0 19:1.0 39:1.0 41:1.0 50:1.0 64:1.0 71:1.0 73:1.0 74:1.0 76:1.0 80:1.0 83:1.0 
1.0 3:1.0 6:1.0 16:1.0 20:1.0 37:1.0 40:1.0 51:1.0 61:1.0 67:1.0 72:1.0 74:1.0 76:1.0 79:1.0 83:1.0 
0.49789772708272734 4:1.0 6:1.0 16:1.0 23:1.0 39:1.0 40:1.0 52:1.0 63:1.0 67:1.0 73:1.0 74:1.0 76:1.0 82:1.0 
1.0 4:1.0 7:1.0 15:1.0 20:1.0 37:1.0 40:1.0 51:1.0 63:1.0 67:1.0 73:1.0 74:1.0 76:1.0 80:1.0 83:1.0 
1.0 4:1.0 10:1.0 18:1.0 29:1.0 39:1.0 40:1.0 52:1.0 63:1.0 67:1.0 73:1.0 74:1.0 76:1.0 82:1.0 83:1.0 
1.0 3:1.0 6:1.0 15:1.0 22:1.0 36:1.0 40:1.0 48:1.0 63:1.0 67:1.0 73:1.0 74:1.0 76:1.0 80:1.0 83:1.0 
1.0 2:1.0 6:1.0 16:1.0 25:1.0 38:1.0 40:1.0 57:1.0 63:1.0 67:1.0 73:1.0 74:1.0 76:1.0 82:1.0 83:1.0 
1.0 5:1.0 6:1.0 15:1.0 19:1.0 39:1.0 40:1.0 54:1.0 63:1.0 67:1.0 73:1.0 74:1.0 76:1.0 80:1.0 83:1.0 
1.0 4:1.0 11:1.0 16:1.0 20:1.0 37:1.0 40:1.0 59:1.0 63:1.0 71:1.0 73:1.0 74:1.0 76:1.0 82:1.0 83:1.0 
1.0 1:1.0 6:1.0 17:1.0 20:1.0 37:1.0 42:1.0 57:1.0 64:1.0 67:1.0 73:1.0 75:1.0 76:1.0 82:1.0 83:1.0 
1.0 5:1.0 7:1.0 16:1.0 22:1.0 36:1.0 40:1.0 50:1.0 63:1.0 67:1.0 73:1.0 74:1.0 76:1.0 80:1.0 83:1.0 
1.0 3:1.0 6:1.0 14:1.0 20:1.0 37:1.0 45:1.0 48:1.0 66:1.0 67:1.0 73:1.0 74:1.0 76:1.0 80:1.0 83:1.0 
1.0 4:1.0 11:1.0 18:1.0 19:1.0 39:1.0 40:1.0 52:1.0 63:1.0 67:1.0 73:1.0 74:1.0 76:1.0 82:1.0 83:1.0 
1.0 2:1.0 6:1.0 17:1.0 19:1.0 39:1.0 40:1.0 51:1.0 63:1.0 67:1.0 73:1.0 74:1.0 76:1.0 81:1.0 83:1.0 
1.0 5:1.0 6:1.0 16:1.0 19:1.0 39:1.0 40:1.0 50:1.0 63:1.0 67:1.0 73:1.0 74:1.0 76:1.0 78:1.0 83:1.0 
1.0 3:1.0 6:1.0 17:1.0 20:1.0 37:1.0 40:1.0 47:1.0 63:1.0 71:1.0 73:1.0 74:1.0 76:1.0 80:1.0 83:1.0 
1.0 2:1.0 6:1.0 17:1.0 19:1.0 39:1.0 40:1.0 47:1.0 63:1.0 68:1.0 73:1.0 74:1.0 76:1.0 80:1.0 90:1.0 
1.0 4:1.0 11:1.0 16:1.0 20:1.0 37:1.0 40:1.0 52:1.0 63:1.0 67:1.0 73:1.0 74:1.0 76:1.0 82:1.0 83:1.0 
1.0 3:1.0 7:1.0 17:1.0 32:1.0 39:1.0 40:1.0 52:1.0 63:1.0 67:1.0 73:1.0 74:1.0 76:1.0 78:1.0 87:1.0 
1.0 2:1.0 8:1.0 15:1.0 19:1.0 39:1.0 40:1.0 49:1.0 63:1.0 68:1.0 73:1.0 74:1.0 76:1.0 82:1.0 96:1.0 
1.0 5:1.0 15:1.0 22:1.0 36:1.0 44:1.0 64:1.0 67:1.0 72:1.0 74:1.0 76:1.0 78:1.0 83:1.0 
1.0 5:1.0 6:1.0 15:1.0 22:1.0 36:1.0 41:1.0 57:1.0 64:1.0 67:1.0 73:1.0 74:1.0 76:1.0 82:1.0 83:1.0 
1.0 4:1.0 7:1.0 14:1.0 32:1.0 39:1.0 42:1.0 52:1.0 64:1.0 67:1.0 73:1.0 75:1.0 76:1.0 82:1.0 83:1.0 
1.0 5:1.0 6:1.0 18:1.0 25:1.0 38:1.0 40:1.0 48:1.0 63:1.0 67:1.0 73:1.0 74:1.0 76:1.0 80:1.0 83:1.0 
1.0 5:1.0 6:1.0 18:1.0 22:1.0 36:1.0 40:1.0 48:1.0 63:1.0 67:1.0 73:1.0 75:1.0 76:1.0 80:1.0 83:1.0 
1.0 4:1.0 6:1.0 14:1.0 19:1.0 39:1.0 40:1.0 52:1.0 63:1.0 67:1.0 73:1.0 74:1.0 76:1.0 81:1.0 83:1.0 
1.0 3:1.0 6:1.0 16:1.0 25:1.0 38:1.0 40:1.0 54:1.0 63:1.0 67:1.0 73:1.0 74:1.0 76:1.0 81:1.0 83:1.0 
1.0 3:1.0 7:1.0 15:1.0 23:1.0 39:1.0 40:1.0 52:1.0 63:1.0 67:1.0 73:1.0 74:1.0 76:1.0 82:1.0 83:1.0 
1.0 4:1.0 6:1.0 18:1.0 19:1.0 39:1.0 40:1.0 50:1.0 63:1.0 67:1.0 73:1.0 74:1.0 76:1.0 81:1.0 83:1.0 
1.0 1:1.0 6:1.0 18:1.0 20:1.0 37:1.0 40:1.0 55:1.0 61:1.0 71:1.0 72:1.0 75:1.0 76:1.0 80:1.0 83:1.0 
1.0 5:1.0 6:1.0 17:1.0 22:1.0 36:1.0 40:1.0 47:1.0 63:1.0 67:1.0 73:1.0 74:1.0 76:1.0 80:1.0 83:1.0 
1.0 3:1.0 6:1.0 16:1.0 20:1.0 37:1.0 40:1.0 50:1.0 63:1.0 67:1.0 73:1.0 74:1.0 76:1.0 82:1.0 83:1.0 
1.0 2:1.0 7:1.0 18:1.0 24:1.0 38:1.0 40:1.0 48:1.0 64:1.0 67:1.0 73:1.0 74:1.0 76:1.0 82:1.0 83:1.0 
1.0 4:1.0 11:1.0 14:1.0 29:1.0 39:1.0 40:1.0 52:1.0 63:1.0 67:1.0 73:1.0 74:1.0 76:1.0 82:1.0 83:1.0 
1.0 3:1.0 6:1.0 15:1.0 24:1.0 38:1.0 40:1.0 51:1.0 63:1.0 67:1.0 73:1.0 74:1.0 76:1.0 80:1.0 83:1.0 
1.0 2:1.0 6:1.0 16:1.0 29:1.0 39:1.0 40:1.0 49:1.0 63:1.0 67:1.0 73:1.0 74:1.0 76:1.0 78:1.0 83:1.0 
1.0 2:1.0 6:1.0 18:1.0 22:1.0 36:1.0 40:1.0 57:1.0 63:1.0 67:1.0 73:1.0 74:1.0 76:1.0 82:1.0 83:1.0 
1.0 2:1.0 6:1.0 17:1.0 29:1.0 39:1.0 40:1.0 51:1.0 63:1.0 67:1.0 73:1.0 74:1.0 76:1.0 82:1.0 83:1.0 
1.0 2:1.0 7:1.0 17:1.0 22:1.0 36:1.0 42:1.0 48:1.0 64:1.0 67:1.0 73:1.0 74:1.0 76:1.0 82:1.0 83:1.0 
1.0 4:1.0 7:1.0 18:1.0 20:1.0 37:1.0 40:1.0 48:1.0 63:1.0 67:1.0 73:1.0 74:1.0 77:1.0 82:1.0 83:1.0 
1.0 3:1.0 6:1.0 16:1.0 20:1.0 37:1.0 40:1.0 48:1.0 63:1.0 67:1.0 73:1.0 75:1.0 76:1.0 81:1.0 83:1.0 
1.0 3:1.0 6:1.0 16:1.0 22:1.0 36:1.0 40:1.0 57:1.0 63:1.0 67:1.0 73:1.0 74:1.0 76:1.0 82:1.0 83:1.0 
1.0 5:1.0 6:1.0 14:1.0 29:1.0 39:1.0 40:1.0 52:1.0 63:1.0 67:1.0 73:1.0 74:1.0 76:1.0 79:1.0 87:1.0 
1.0 5:1.0 9:1.0 14:1.0 29:1.0 39:1.0 42:1.0 52:1.0 64:1.0 67:1.0 72:1.0 74:1.0 76:1.0 80:1.0 
1.0 4:1.0 6:1.0 18:1.0 20:1.0 37:1.0 40:1.0 48:1.0 63:1.0 67:1.0 73:1.0 74:1.0 76:1.0 81:1.0 83:1.0 
1.0 4:1.0 6:1.0 17:1.0 20:1.0 37:1.0 40:1.0 52:1.0 63:1.0 67:1.0 73:1.0 74:1.0 76:1.0 80:1.0 83:1.0 
1.0 5:1.0 6:1.0 17:1.0 20:1.0 37:1.0 40:1.0 48:1.0 63:1.0 70:1.0 73:1.0 74:1.0 76:1.0 78:1.0 83:1.0 
1.0 3:1.0 6:1.0 14:1.0 19:1.0 39:1.0 40:1.0 50:1.0 63:1.0 67:1.0 73:1.0 74:1.0 76:1.0 82:1.0 83:1.0 
1.0 3:1.0 6:1.0 14:1.0 29:1.0 39:1.0 40:1.0 52:1.0 63:1.0 67:1.0 73:1.0 74:1.0 76:1.0 81:1.0 83:1.0 
1.0 5:1.0 7:1.0 14:1.0 20:1.0 37:1.0 40:1.0 52:1.0 61:1.0 67:1.0 72:1.0 74:1.0 76:1.0 80:1.0 83:1.0 
1.0 4:1.0 6:1.0 14:1.0 22:1.0 36:1.0 40:1.0 48:1.0 63:1.0 67:1.0 73:1.0 75:1.0 76:1.0 79:1.0 83:1.0 
1.0 2:1.0 6:1.0 17:1.0 25:1.0 38:1.0 40:1.0 47:1.0 63:1.0 67:1.0 73:1.0 74:1.0 76:1.0 81:1.0 83:1.0 
1.0 5:1.0 7:1.0 14:1.0 20:1.0 37:1.0 40:1.0 50:1.0 61:1.0 67:1.0 72:1.0 74:1.0 76:1.0 82:1.0 83:1.0 
1.0 5:1.0 6:1.0 16:1.0 33:1.0 35:1.0 40:1.0 50:1.0 63:1.0 67:1.0 73:1.0 74:1.0 76:1.0 80:1.0 
1.0 4:1.0 6:1.0 14:1.0 19:1.0 39:1.0 40:1.0 55:1.0 63:1.0 68:1.0 73:1.0 74:1.0 76:1.0 80:1.0 83:1.0 
1.0 5:1.0 6:1.0 16:1.0 25:1.0 38:1.0 40:1.0 57:1.0 63:1.0 67:1.0 73:1.0 75:1.0 76:1.0 82:1.0 83:1.0 
1.0 3:1.0 6:1.0 17:1.0 24:1.0 38:1.0 40:1.0 50:1.0 63:1.0 67:1.0 73:1.0 74:1.0 76:1.0 82:1.0 83:1.0 
1.0 1:1.0 6:1.0 17:1.0 20:1.0 37:1.0 46:1.0 49:1.0 61:1.0 67:1.0 72:1.0 74:1.0 76:1.0 80:1.0 83:1.0 
1.0 3:1.0 9:1.0 14:1.0 24:1.0 38:1.0 40:1.0 51:1.0 61:1.0 67:1.0 72:1.0 74:1.0 76:1.0 80:1.0 83:1.0 
1.0 5:1.0 11:1.0 14:1.0 20:1.0 37:1.0 40:1.0 51:1.0 63:1.0 67:1.0 73:1.0 74:1.0 76:1.0 80:1.0 83:1.0 
1.0 2:1.0 6:1.0 17:1.0 19:1.0 39:1.0 40:1.0 51:1.0 61:1.0 67:1.0 72:1.0 74:1.0 76:1.0 82:1.0 83:1.0 
1.0 4:1.0 6:1.0 17:1.0 20:1.0 37:1.0 40:1.0 57:1.0 63:1.0 67:1.0 73:1.0 74:1.0 76:1.0 80:1.0 83:1.0 
1.0 2:1.0 11:1.0 17:1.0 20:1.0 37:1.0 40:1.0 51:1.0 63:1.0 71:1.0 73:1.0 74:1.0 76:1.0 80:1.0 83:1.0 
1.0 5:1.0 6:1.0 16:1.0 25:1.0 38:1.0 40:1.0 48:1.0 63:1.0 67:1.0 73:1.0 74:1.0 76:1.0 80:1.0 83:1.0 
1.0 4:1.0 6:1.0 14:1.0 29:1.0 39:1.0 44:1.0 51:1.0 66:1.0 67:1.0 73:1.0 75:1.0 76:1.0 80:1.0 83:1.0 
1.0 5:1.0 6:1.0 17:1.0 20:1.0 37:1.0 40:1.0 51:1.0 63:1.0 67:1.0 73:1.0 74:1.0 76:1.0 80:1.0 83:1.0 
1.0 3:1.0 11:1.0 16:1.0 22:1.0 36:1.0 40:1.0 47:1.0 63:1.0 67:1.0 73:1.0 74:1.0 76:1.0 80:1.0 83:1.0 
1.0 5:1.0 6:1.0 15:1.0 22:1.0 36:1.0 40:1.0 48:1.0 63:1.0 67:1.0 73:1.0 74:1.0 76:1.0 82:1.0 83:1.0 
1.0 2:1.0 6:1.0 18:1.0 22:1.0 36:1.0 40:1.0 48:1.0 63:1.0 71:1.0 73:1.0 74:1.0 77:1.0 82:1.0 83:1.0 
1.0 5:1.0 10:1.0 15:1.0 24:1.0 38:1.0 40:1.0 59:1.0 63:1.0 67:1.0 73:1.0 74:1.0 76:1.0 80:1.0 83:1.0 
1.0 3:1.0 6:1.0 15:1.0 19:1.0 39:1.0 40:1.0 52:1.0 61:1.0 67:1.0 72:1.0 74:1.0 76:1.0 78:1.0 83:1.0 
1.0 2:1.0 6:1.0 16:1.0 29:1.0 39:1.0 40:1.0 52:1.0 63:1.0 68:1.0 73:1.0 74:1.0 76:1.0 80:1.0 83:1.0 
1.0 3:1.0 6:1.0 17:1.0 20:1.0 37:1.0 41:1.0 47:1.0 64:1.0 67:1.0 73:1.0 74:1.0 76:1.0 78:1.0 114:1.0 
1.0 3:1.0 7:1.0 14:1.0 25:1.0 38:1.0 40:1.0 51:1.0 63:1.0 67:1.0 73:1.0 74:1.0 76:1.0 80:1.0 83:1.0 
1.0 5:1.0 6:1.0 15:1.0 22:1.0 36:1.0 40:1.0 55:1.0 63:1.0 67:1.0 73:1.0 74:1.0 76:1.0 82:1.0 83:1.0 
1.0 2:1.0 18:1.0 19:1.0 39:1.0 40:1.0 61:1.0 67:1.0 72:1.0 74:1.0 77:1.0 80:1.0 83:1.0 
1.0 3:1.0 6:1.0 18:1.0 20:1.0 37:1.0 40:1.0 48:1.0 63:1.0 68:1.0 73:1.0 74:1.0 76:1.0 80:1.0 83:1.0 
1.0 5:1.0 9:1.0 14:1.0 23:1.0 39:1.0 41:1.0 51:1.0 64:1.0 71:1.0 73:1.0 74:1.0 76:1.0 82:1.0 83:1.0 
1.0 5:1.0 9:1.0 14:1.0 22:1.0 36:1.0 40:1.0 51:1.0 63:1.0 67:1.0 73:1.0 75:1.0 76:1.0 80:1.0 83:1.0 
1.0 5:1.0 9:1.0 14:1.0 20:1.0 37:1.0 40:1.0 51:1.0 61:1.0 68:1.0 72:1.0 74:1.0 76:1.0 80:1.0 83:1.0 
1.0 3:1.0 6:1.0 18:1.0 25:1.0 38:1.0 40:1.0 48:1.0 63:1.0 67:1.0 73:1.0 75:1.0 76:1.0 80:1.0 83:1.0 
1.0 5:1.0 6:1.0 15:1.0 20:1.0 37:1.0 40:1.0 48:1.0 63:1.0 67:1.0 73:1.0 74:1.0 76:1.0 80:1.0 83:1.0 
1.0 4:1.0 10:1.0 14:1.0 19:1.0 39:1.0 41:1.0 52:1.0 66:1.0 67:1.0 72:1.0 74:1.0 76:1.0 80:1.0 83:1.0 
1.0 3:1.0 6:1.0 15:1.0 22:1.0 36:1.0 40:1.0 51:1.0 63:1.0 67:1.0 73:1.0 74:1.0 76:1.0 82:1.0 83:1.0 
1.0 3:1.0 6:1.0 14:1.0 19:1.0 39:1.0 40:1.0 49:1.0 63:1.0 69:1.0 73:1.0 75:1.0 76:1.0 78:1.0 83:1.0 
1.0 4:1.0 6:1.0 16:1.0 22:1.0 36:1.0 40:1.0 51:1.0 61:1.0 67:1.0 72:1.0 74:1.0 76:1.0 78:1.0 83:1.0 
1.0 5:1.0 6:1.0 18:1.0 20:1.0 37:1.0 40:1.0 57:1.0 63:1.0 67:1.0 73:1.0 74:1.0 77:1.0 81:1.0 83:1.0 
1.0 3:1.0 10:1.0 15:1.0 24:1.0 38:1.0 40:1.0 55:1.0 61:1.0 67:1.0 72:1.0 74:1.0 76:1.0 78:1.0 83:1.0 
1.0 2:1.0 7:1.0 16:1.0 19:1.0 39:1.0 40:1.0 50:1.0 63:1.0 67:1.0 73:1.0 74:1.0 76:1.0 82:1.0 83:1.0 
1.0 5:1.0 7:1.0 18:1.0 22:1.0 36:1.0 40:1.0 49:1.0 63:1.0 67:1.0 73:1.0 74:1.0 77:1.0 82:1.0 87:1.0 
1.0 3:1.0 6:1.0 17:1.0 24:1.0 38:1.0 40:1.0 47:1.0 63:1.0 67:1.0 73:1.0 74:1.0 77:1.0 82:1.0 83:1.0 
1.0 5:1.0 6:1.0 17:1.0 19:1.0 39:1.0 41:1.0 51:1.0 64:1.0 67:1.0 72:1.0 74:1.0 76:1.0 81:1.0 83:1.0 
1.0 5:1.0 6:1.0 14:1.0 27:1.0 35:1.0 42:1.0 57:1.0 64:1.0 67:1.0 73:1.0 74:1.0 76:1.0 82:1.0 83:1.0 
1.0 3:1.0 6:1.0 17:1.0 29:1.0 39:1.0 42:1.0 52:1.0 64:1.0 67:1.0 73:1.0 74:1.0 76:1.0 82:1.0 83:1.0 
1.0 3:1.0 6:1.0 17:1.0 19:1.0 39:1.0 42:1.0 50:1.0 64:1.0 70:1.0 72:1.0 74:1.0 76:1.0 82:1.0 83:1.0 
1.0 4:1.0 6:1.0 16:1.0 19:1.0 39:1.0 40:1.0 51:1.0 63:1.0 68:1.0 73:1.0 74:1.0 76:1.0 80:1.0 90:1.0 
1.0 5:1.0 7:1.0 15:1.0 22:1.0 36:1.0 40:1.0 48:1.0 63:1.0 67:1.0 73:1.0 75:1.0 76:1.0 82:1.0 83:1.0 
1.0 4:1.0 6:1.0 16:1.0 20:1.0 37:1.0 40:1.0 50:1.0 63:1.0 67:1.0 73:1.0 74:1.0 76:1.0 82:1.0 83:1.0 
1.0 3:1.0 7:1.0 17:1.0 24:1.0 38:1.0 40:1.0 52:1.0 61:1.0 67:1.0 72:1.0 74:1.0 76:1.0 78:1.0 83:1.0 
1.0 4:1.0 9:1.0 18:1.0 22:1.0 36:1.0 40:1.0 55:1.0 63:1.0 71:1.0 73:1.0 74:1.0 76:1.0 82:1.0 83:1.0 
1.0 3:1.0 6:1.0 14:1.0 29:1.0 39:1.0 40:1.0 57:1.0 63:1.0 67:1.0 73:1.0 74:1.0 76:1.0 82:1.0 
1.0 5:1.0 6:1.0 15:1.0 22:1.0 36:1.0 40:1.0 51:1.0 63:1.0 68:1.0 73:1.0 75:1.0 76:1.0 80:1.0 91:1.0 
1.0 5:1.0 6:1.0 16:1.0 20:1.0 37:1.0 40:1.0 51:1.0 63:1.0 67:1.0 73:1.0 74:1.0 76:1.0 81:1.0 83:1.0 
1.0 3:1.0 8:1.0 17:1.0 19:1.0 39:1.0 40:1.0 52:1.0 63:1.0 67:1.0 73:1.0 74:1.0 76:1.0 79:1.0 83:1.0 
1.0 3:1.0 6:1.0 15:1.0 19:1.0 39:1.0 40:1.0 51:1.0 63:1.0 67:1.0 73:1.0 74:1.0 76:1.0 82:1.0 83:1.0 
1.0 4:1.0 6:1.0 17:1.0 20:1.0 37:1.0 40:1.0 52:1.0 61:1.0 67:1.0 72:1.0 74:1.0 76:1.0 82:1.0 83:1.0 
1.0 3:1.0 10:1.0 14:1.0 22:1.0 36:1.0 40:1.0 59:1.0 63:1.0 68:1.0 73:1.0 74:1.0 76:1.0 82:1.0 83:1.0 
1.0 3:1.0 6:1.0 16:1.0 20:1.0 37:1.0 40:1.0 48:1.0 63:1.0 67:1.0 73:1.0 74:1.0 76:1.0 82:1.0 83:1.0 
1.0 2:1.0 6:1.0 18:1.0 22:1.0 36:1.0 40:1.0 48:1.0 63:1.0 67:1.0 73:1.0 74:1.0 77:1.0 81:1.0 83:1.0 
1.0 2:1.0 9:1.0 17:1.0 22:1.0 36:1.0 40:1.0 55:1.0 61:1.0 67:1.0 72:1.0 74:1.0 76:1.0 80:1.0 83:1.0 
1.0 4:1.0 10:1.0 15:1.0 22:1.0 36:1.0 40:1.0 49:1.0 61:1.0 71:1.0 72:1.0 74:1.0 76:1.0 79:1.0 101:1.0 
1.0 5:1.0 8:1.0 14:1.0 29:1.0 39:1.0 40:1.0 50:1.0 63:1.0 67:1.0 73:1.0 74:1.0 76:1.0 82:1.0 83:1.0 
1.0 2:1.0 6:1.0 14:1.0 19:1.0 39:1.0 40:1.0 50:1.0 61:1.0 67:1.0 72:1.0 74:1.0 76:1.0 80:1.0 83:1.0 
1.0 4:1.0 6:1.0 18:1.0 19:1.0 39:1.0 40:1.0 55:1.0 63:1.0 68:1.0 73:1.0 74:1.0 76:1.0 80:1.0 
1.0 3:1.0 6:1.0 16:1.0 25:1.0 38:1.0 40:1.0 55:1.0 61:1.0 67:1.0 72:1.0 74:1.0 76:1.0 78:1.0 83:1.0 
1.0 4:1.0 6:1.0 17:1.0 24:1.0 38:1.0 40:1.0 48:1.0 63:1.0 67:1.0 73:1.0 74:1.0 76:1.0 82:1.0 83:1.0 
1.0 3:1.0 10:1.0 18:1.0 22:1.0 36:1.0 40:1.0 59:1.0 63:1.0 67:1.0 73:1.0 74:1.0 76:1.0 80:1.0 83:1.0 
1.0 5:1.0 7:1.0 16:1.0 27:1.0 35:1.0 40:1.0 51:1.0 63:1.0 67:1.0 73:1.0 75:1.0 76:1.0 82:1.0 92:1.0 
1.0 5:1.0 7:1.0 18:1.0 20:1.0 37:1.0 40:1.0 50:1.0 63:1.0 67:1.0 73:1.0 74:1.0 76:1.0 82:1.0 83:1.0 
1.0 3:1.0 6:1.0 17:1.0 20:1.0 37:1.0 40:1.0 51:1.0 63:1.0 67:1.0 73:1.0 74:1.0 76:1.0 82:1.0 83:1.0 
1.0 4:1.0 8:1.0 14:1.0 19:1.0 39:1.0 40:1.0 50:1.0 63:1.0 67:1.0 73:1.0 74:1.0 76:1.0 82:1.0 83:1.0 
1.0 5:1.0 10:1.0 15:1.0 23:1.0 39:1.0 42:1.0 51:1.0 64:1.0 71:1.0 72:1.0 74:1.0 76:1.0 82:1.0 83:1.0 
1.0 4:1.0 6:1.0 14:1.0 22:1.0 36:1.0 45:1.0 52:1.0 64:1.0 68:1.0 73:1.0 74:1.0 76:1.0 80:1.0 91:1.0 
1.0 3:1.0 6:1.0 16:1.0 19:1.0 39:1.0 40:1.0 51:1.0 63:1.0 67:1.0 73:1.0 74:1.0 76:1.0 82:1.0 83:1.0 
1.0 2:1.0 6:1.0 15:1.0 19:1.0 39:1.0 40:1.0 51:1.0 63:1.0 67:1.0 73:1.0 74:1.0 76:1.0 82:1.0 83:1.0 
1.0 5:1.0 11:1.0 14:1.0 19:1.0 39:1.0 42:1.0 52:1.0 66:1.0 68:1.0 72:1.0 74:1.0 76:1.0 80:1.0 83:1.0 
1.0 4:1.0 6:1.0 16:1.0 19:1.0 39:1.0 40:1.0 52:1.0 63:1.0 67:1.0 73:1.0 74:1.0 76:1.0 82:1.0 
1.0 3:1.0 6:1.0 18:1.0 22:1.0 36:1.0 40:1.0 55:1.0 61:1.0 67:1.0 72:1.0 74:1.0 76:1.0 79:1.0 83:1.0 
1.0 4:1.0 6:1.0 15:1.0 22:1.0 36:1.0 40:1.0 54:1.0 61:1.0 71:1.0 72:1.0 75:1.0 76:1.0 80:1.0 83:1.0 
1.0 5:1.0 7:1.0 14:1.0 22:1.0 36:1.0 40:1.0 50:1.0 63:1.0 67:1.0 73:1.0 75:1.0 76:1.0 82:1.0 119:1.0 
1.0 2:1.0 6:1.0 14:1.0 23:1.0 39:1.0 42:1.0 52:1.0 64:1.0 67:1.0 72:1.0 74:1.0 76:1.0 82:1.0 83:1.0 
1.0 2:1.0 6:1.0 18:1.0 20:1.0 37:1.0 43:1.0 47:1.0 66:1.0 67:1.0 73:1.0 74:1.0 76:1.0 80:1.0 83:1.0 
1.0 5:1.0 9:1.0 15:1.0 20:1.0 37:1.0 40:1.0 59:1.0 63:1.0 67:1.0 73:1.0 74:1.0 76:1.0 82:1.0 83:1.0 
1.0 5:1.0 6:1.0 16:1.0 22:1.0 36:1.0 41:1.0 48:1.0 65:1.0 67:1.0 73:1.0 74:1.0 76:1.0 82:1.0 83:1.0 
1.0 2:1.0 6:1.0 18:1.0 31:1.0 35:1.0 40:1.0 47:1.0 63:1.0 67:1.0 73:1.0 74:1.0 76:1.0 80:1.0 83:1.0 
1.0 2:1.0 6:1.0 14:1.0 20:1.0 37:1.0 40:1.0 53:1.0 63:1.0 67:1.0 73:1.0 74:1.0 76:1.0 80:1.0 83:1.0 
1.0 5:1.0 6:1.0 14:1.0 22:1.0 36:1.0 40:1.0 53:1.0 63:1.0 67:1.0 73:1.0 74:1.0 76:1.0 80:1.0 83:1.0 
1.0 5:1.0 10:1.0 15:1.0 22:1.0 36:1.0 40:1.0 48:1.0 63:1.0 67:1.0 73:1.0 74:1.0 76:1.0 80:1.0 83:1.0 
1.0 5:1.0 6:1.0 16:1.0 26:1.0 35:1.0 40:1.0 51:1.0 63:1.0 67:1.0 73:1.0 74:1.0 76:1.0 81:1.0 83:1.0 
1.0 4:1.0 6:1.0 17:1.0 20:1.0 37:1.0 40:1.0 48:1.0 63:1.0 67:1.0 73:1.0 74:1.0 76:1.0 82:1.0 83:1.0 
1.0 5:1.0 6:1.0 16:1.0 22:1.0 36:1.0 40:1.0 57:1.0 63:1.0 67:1.0 73:1.0 75:1.0 76:1.0 82:1.0 83:1.0 
1.0 3:1.0 15:1.0 25:1.0 38:1.0 40:1.0 61:1.0 67:1.0 72:1.0 74:1.0 76:1.0 80:1.0 83:1.0 
1.0 5:1.0 6:1.0 15:1.0 31:1.0 35:1.0 40:1.0 57:1.0 63:1.0 67:1.0 73:1.0 74:1.0 77:1.0 80:1.0 83:1.0 
1.0 5:1.0 7:1.0 14:1.0 25:1.0 38:1.0 40:1.0 57:1.0 61:1.0 67:1.0 72:1.0 74:1.0 76:1.0 78:1.0 88:1.0 
1.0 2:1.0 6:1.0 16:1.0 24:1.0 38:1.0 40:1.0 51:1.0 63:1.0 67:1.0 73:1.0 74:1.0 77:1.0 82:1.0 83:1.0 
1.0 2:1.0 6:1.0 15:1.0 19:1.0 39:1.0 40:1.0 51:1.0 63:1.0 67:1.0 73:1.0 74:1.0 76:1.0 82:1.0 83:1.0 
1.0 3:1.0 6:1.0 16:1.0 22:1.0 36:1.0 40:1.0 52:1.0 63:1.0 67:1.0 73:1.0 74:1.0 76:1.0 82:1.0 83:1.0 
1.0 4:1.0 6:1.0 14:1.0 19:1.0 39:1.0 40:1.0 51:1.0 63:1.0 67:1.0 73:1.0 74:1.0 76:1.0 80:1.0 83:1.0 
1.0 4:1.0 6:1.0 15:1.0 20:1.0 37:1.0 40:1.0 50:1.0 63:1.0 67:1.0 73:1.0 75:1.0 76:1.0 80:1.0 83:1.0 
1.0 4:1.0 7:1.0 15:1.0 29:1.0 39:1.0 40:1.0 48:1.0 63:1.0 67:1.0 73:1.0 74:1.0 76:1.0 82:1.0 83:1.0 
1.0 5:1.0 6:1.0 15:1.0 27:1.0 35:1.0 40:1.0 50:1.0 63:1.0 67:1.0 73:1.0 74:1.0 76:1.0 82:1.0 83:1.0 
1.0 4:1.0 9:1.0 15:1.0 19:1.0 39:1.0 42:1.0 51:1.0 64:1.0 67:1.0 73:1.0 74:1.0 76:1.0 80:1.0 83:1.0 
1.0 5:1.0 6:1.0 17:1.0 20:1.0 37:1.0 40:1.0 50:1.0 63:1.0 67:1.0 73:1.0 74:1.0 76:1.0 80:1.0 83:1.0 
1.0 2:1.0 7:1.0 17:1.0 20:1.0 37:1.0 40:1.0 50:1.0 63:1.0 71:1.0 73:1.0 74:1.0 76:1.0 82:1.0 83:1.0 
1.0 5:1.0 6:1.0 14:1.0 20:1.0 37:1.0 40:1.0 47:1.0 63:1.0 67:1.0 73:1.0 75:1.0 76:1.0 78:1.0 83:1.0 
1.0 2:1.0 6:1.0 18:1.0 20:1.0 37:1.0 40:1.0 52:1.0 63:1.0 68:1.0 73:1.0 74:1.0 76:1.0 80:1.0 84:1.0 
1.0 3:1.0 6:1.0 15:1.0 19:1.0 39:1.0 40:1.0 51:1.0 63:1.0 67:1.0 73:1.0 74:1.0 76:1.0 82:1.0 83:1.0 
1.0 1:1.0 6:1.0 17:1.0 24:1.0 38:1.0 40:1.0 55:1.0 61:1.0 69:1.0 72:1.0 74:1.0 76:1.0 81:1.0 83:1.0 
1.0 4:1.0 6:1.0 14:1.0 22:1.0 36:1.0 40:1.0 55:1.0 61:1.0 67:1.0 72:1.0 74:1.0 76:1.0 80:1.0 83:1.0 
1.0 4:1.0 11:1.0 14:1.0 20:1.0 37:1.0 40:1.0 48:1.0 63:1.0 67:1.0 73:1.0 74:1.0 76:1.0 80:1.0 83:1.0 
1.0 5:1.0 6:1.0 17:1.0 20:1.0 37:1.0 45:1.0 55:1.0 64:1.0 67:1.0 72:1.0 75:1.0 76:1.0 78:1.0 83:1.0 
1.0 5:1.0 6:1.0 16:1.0 22:1.0 36:1.0 40:1.0 51:1.0 63:1.0 67:1.0 73:1.0 74:1.0 76:1.0 82:1.0 83:1.0 
1.0 4:1.0 6:1.0 14:1.0 22:1.0 36:1.0 40:1.0 48:1.0 63:1.0 67:1.0 73:1.0 74:1.0 76:1.0 80:1.0 83:1.0 
1.0 5:1.0 11:1.0 14:1.0 22:1.0 36:1.0 40:1.0 59:1.0 63:1.0 69:1.0 73:1.0 74:1.0 76:1.0 80:1.0 83:1.0 
1.0 3:1.0 7:1.0 18:1.0 19:1.0 39:1.0 40:1.0 52:1.0 63:1.0 67:1.0 73:1.0 74:1.0 76:1.0 80:1.0 83:1.0 
0.8863695918638405 4:1.0 6:1.0 15:1.0 19:1.0 39:1.0 40:1.0 52:1.0 63:1.0 67:1.0 73:1.0 74:1.0 76:1.0 82:1.0 83:1.0 
1.0 5:1.0 6:1.0 18:1.0 22:1.0 36:1.0 40:1.0 51:1.0 63:1.0 67:1.0 73:1.0 75:1.0 76:1.0 82:1.0 83:1.0 
1.0 4:1.0 9:1.0 14:1.0 22:1.0 36:1.0 40:1.0 55:1.0 63:1.0 67:1.0 73:1.0 74:1.0 76:1.0 80:1.0 88:1.0 
1.0 3:1.0 6:1.0 14:1.0 20:1.0 37:1.0 40:1.0 52:1.0 63:1.0 67:1.0 73:1.0 74:1.0 76:1.0 80:1.0 83:1.0 
1.0 5:1.0 6:1.0 15:1.0 22:1.0 36:1.0 44:1.0 55:1.0 64:1.0 67:1.0 72:1.0 75:1.0 76:1.0 80:1.0 83:1.0 
1.0 5:1.0 7:1.0 15:1.0 19:1.0 39:1.0 40:1.0 52:1.0 63:1.0 67:1.0 73:1.0 74:1.0 76:1.0 80:1.0 83:1.0 
0.7111202465947344 2:1.0 11:1.0 16:1.0 19:1.0 39:1.0 40:1.0 52:1.0 61:1.0 67:1.0 72:1.0 74:1.0 77:1.0 79:1.0 83:1.0 
1.0 4:1.0 9:1.0 16:1.0 24:1.0 38:1.0 40:1.0 55:1.0 63:1.0 67:1.0 73:1.0 74:1.0 76:1.0 80:1.0 83:1.0 
1.0 3:1.0 6:1.0 15:1.0 22:1.0 36:1.0 40:1.0 57:1.0 63:1.0 67:1.0 73:1.0 75:1.0 76:1.0 82:1.0 83:1.0 
1.0 2:1.0 6:1.0 16:1.0 24:1.0 38:1.0 40:1.0 50:1.0 63:1.0 67:1.0 73:1.0 75:1.0 76:1.0 81:1.0 83:1.0 
1.0 5:1.0 7:1.0 17:1.0 29:1.0 39:1.0 40:1.0 48:1.0 63:1.0 67:1.0 73:1.0 74:1.0 76:1.0 82:1.0 83:1.0 
1.0 4:1.0 7:1.0 15:1.0 32:1.0 39:1.0 40:1.0 52:1.0 63:1.0 67:1.0 73:1.0 74:1.0 76:1.0 79:1.0 83:1.0 
1.0 2:1.0 6:1.0 15:1.0 20:1.0 37:1.0 40:1.0 54:1.0 63:1.0 67:1.0 73:1.0 74:1.0 76:1.0 80:1.0 83:1.0 
1.0 3:1.0 6:1.0 17:1.0 20:1.0 37:1.0 40:1.0 50:1.0 61:1.0 67:1.0 72:1.0 74:1.0 76:1.0 80:1.0 83:1.0 
1.0 4:1.0 6:1.0 17:1.0 22:1.0 36:1.0 40:1.0 57:1.0 63:1.0 67:1.0 73:1.0 75:1.0 76:1.0 81:1.0 83:1.0 
1.0 3:1.0 6:1.0 18:1.0 19:1.0 39:1.0 40:1.0 48:1.0 63:1.0 67:1.0 73:1.0 74:1.0 76:1.0 81:1.0 83:1.0 
1.0 4:1.0 6:1.0 15:1.0 22:1.0 36:1.0 40:1.0 48:1.0 63:1.0 67:1.0 73:1.0 74:1.0 76:1.0 80:1.0 83:1.0 
1.0 3:1.0 6:1.0 15:1.0 20:1.0 37:1.0 43:1.0 48:1.0 66:1.0 67:1.0 73:1.0 75:1.0 76:1.0 81:1.0 83:1.0 
1.0 4:1.0 6:1.0 14:1.0 20:1.0 37:1.0 40:1.0 50:1.0 63:1.0 67:1.0 73:1.0 74:1.0 76:1.0 81:1.0 83:1.0 
1.0 4:1.0 10:1.0 16:1.0 19:1.0 39:1.0 40:1.0 59:1.0 63:1.0 67:1.0 73:1.0 74:1.0 76:1.0 82:1.0 83:1.0 
1.0 5:1.0 6:1.0 15:1.0 20:1.0 37:1.0 40:1.0 50:1.0 63:1.0 67:1.0 73:1.0 74:1.0 76:1.0 81:1.0 83:1.0 
1.0 3:1.0 6:1.0 15:1.0 29:1.0 39:1.0 40:1.0 52:1.0 63:1.0 67:1.0 73:1.0 74:1.0 76:1.0 81:1.0 83:1.0 
1.0 5:1.0 6:1.0 16:1.0 22:1.0 36:1.0 40:1.0 51:1.0 63:1.0 67:1.0 73:1.0 74:1.0 76:1.0 80:1.0 83:1.0 
1.0 4:1.0 6:1.0 17:1.0 19:1.0 39:1.0 40:1.0 51:1.0 63:1.0 68:1.0 73:1.0 74:1.0 76:1.0 80:1.0 91:1.0 
1.0 5:1.0 6:1.0 17:1.0 22:1.0 36:1.0 40:1.0 59:1.0 63:1.0 67:1.0 73:1.0 74:1.0 76:1.0 78:1.0 83:1.0 
1.0 5:1.0 6:1.0 18:1.0 20:1.0 37:1.0 40:1.0 48:1.0 63:1.0 67:1.0 73:1.0 74:1.0 77:1.0 79:1.0 83:1.0 
1.0 2:1.0 6:1.0 14:1.0 24:1.0 38:1.0 40:1.0 57:1.0 61:1.0 67:1.0 72:1.0 74:1.0 77:1.0 79:1.0 83:1.0 
1.0 4:1.0 6:1.0 17:1.0 19:1.0 39:1.0 40:1.0 50:1.0 63:1.0 67:1.0 73:1.0 74:1.0 76:1.0 81:1.0 83:1.0 
1.0 5:1.0 6:1.0 17:1.0 24:1.0 38:1.0 40:1.0 50:1.0 63:1.0 67:1.0 73:1.0 74:1.0 76:1.0 82:1.0 83:1.0 
1.0 3:1.0 7:1.0 18:1.0 19:1.0 39:1.0 41:1.0 49:1.0 66:1.0 71:1.0 73:1.0 74:1.0 76:1.0 81:1.0 83:1.0 
1.0 3:1.0 6:1.0 17:1.0 29:1.0 39:1.0 40:1.0 52:1.0 63:1.0 67:1.0 73:1.0 74:1.0 76:1.0 79:1.0 83:1.0 
1.0 3:1.0 10:1.0 17:1.0 25:1.0 38:1.0 42:1.0 59:1.0 64:1.0 67:1.0 73:1.0 74:1.0 76:1.0 80:1.0 83:1.0 
1.0 5:1.0 6:1.0 18:1.0 22:1.0 36:1.0 41:1.0 50:1.0 66:1.0 67:1.0 72:1.0 74:1.0 76:1.0 80:1.0 83:1.0 
1.0 3:1.0 7:1.0 17:1.0 19:1.0 39:1.0 40:1.0 48:1.0 63:1.0 67:1.0 73:1.0 74:1.0 76:1.0 80:1.0 83:1.0 
1.0 3:1.0 6:1.0 16:1.0 19:1.0 39:1.0 40:1.0 50:1.0 63:1.0 67:1.0 73:1.0 74:1.0 76:1.0 80:1.0 83:1.0 
1.0 2:1.0 6:1.0 14:1.0 19:1.0 39:1.0 40:1.0 51:1.0 61:1.0 67:1.0 72:1.0 74:1.0 76:1.0 82:1.0 83:1.0 
1.0 3:1.0 6:1.0 14:1.0 22:1.0 36:1.0 40:1.0 57:1.0 63:1.0 67:1.0 73:1.0 74:1.0 76:1.0 80:1.0 83:1.0 
1.0 5:1.0 7:1.0 15:1.0 22:1.0 36:1.0 40:1.0 51:1.0 63:1.0 67:1.0 73:1.0 74:1.0 76:1.0 81:1.0 83:1.0 
1.0 5:1.0 7:1.0 15:1.0 27:1.0 35:1.0 40:1.0 57:1.0 63:1.0 67:1.0 73:1.0 74:1.0 76:1.0 80:1.0 83:1.0 
1.0 5:1.0 6:1.0 17:1.0 22:1.0 36:1.0 41:1.0 48:1.0 64:1.0 67:1.0 73:1.0 74:1.0 76:1.0 80:1.0 83:1.0 
1.0 4:1.0 6:1.0 17:1.0 19:1.0 39:1.0 40:1.0 53:1.0 63:1.0 71:1.0 73:1.0 74:1.0 76:1.0 80:1.0 111:1.0 
1.0 1:1.0 11:1.0 16:1.0 28:1.0 35:1.0 42:1.0 51:1.0 64:1.0 67:1.0 73:1.0 74:1.0 76:1.0 82:1.0 83:1.0 
1.0 3:1.0 6:1.0 17:1.0 29:1.0 39:1.0 42:1.0 51:1.0 64:1.0 67:1.0 72:1.0 75:1.0 76:1.0 82:1.0 83:1.0 
1.0 5:1.0 6:1.0 14:1.0 29:1.0 39:1.0 41:1.0 51:1.0 64:1.0 67:1.0 72:1.0 74:1.0 76:1.0 80:1.0 83:1.0 
1.0 5:1.0 6:1.0 17:1.0 20:1.0 37:1.0 40:1.0 48:1.0 63:1.0 67:1.0 73:1.0 74:1.0 76:1.0 80:1.0 83:1.0 
1.0 5:1.0 6:1.0 18:1.0 20:1.0 37:1.0 40:1.0 52:1.0 63:1.0 67:1.0 73:1.0 74:1.0 76:1.0 79:1.0 83:1.0 
1.0 5:1.0 6:1.0 14:1.0 25:1.0 38:1.0 40:1.0 51:1.0 63:1.0 67:1.0 73:1.0 74:1.0 77:1.0 81:1.0 83:1.0 
1.0 4:1.0 6:1.0 18:1.0 22:1.0 36:1.0 40:1.0 47:1.0 63:1.0 68:1.0 73:1.0 75:1.0 76:1.0 80:1.0 83:1.0 
1.0 4:1.0 6:1.0 16:1.0 20:1.0 37:1.0 43:1.0 51:1.0 64:1.0 67:1.0 72:1.0 74:1.0 76:1.0 81:1.0 83:1.0 
1.0 5:1.0 6:1.0 17:1.0 20:1.0 37:1.0 41:1.0 48:1.0 64:1.0 67:1.0 73:1.0 74:1.0 76:1.0 82:1.0 83:1.0 
1.0 3:1.0 6:1.0 14:1.0 22:1.0 36:1.0 40:1.0 48:1.0 63:1.0 67:1.0 73:1.0 74:1.0 76:1.0 80:1.0 83:1.0 
1.0 5:1.0 6:1.0 16:1.0 25:1.0 38:1.0 40:1.0 48:1.0 63:1.0 67:1.0 73:1.0 74:1.0 76:1.0 82:1.0 100:1.0 
1.0 4:1.0 10:1.0 16:1.0 19:1.0 39:1.0 40:1.0 50:1.0 63:1.0 67:1.0 73:1.0 74:1.0 76:1.0 80:1.0 83:1.0 
1.0 5:1.0 8:1.0 15:1.0 22:1.0 36:1.0 40:1.0 48:1.0 63:1.0 67:1.0 73:1.0 74:1.0 76:1.0 80:1.0 83:1.0 
1.0 4:1.0 11:1.0 17:1.0 29:1.0 39:1.0 40:1.0 52:1.0 63:1.0 67:1.0 73:1.0 74:1.0 76:1.0 80:1.0 83:1.0 
1.0 3:1.0 6:1.0 16:1.0 22:1.0 36:1.0 40:1.0 54:1.0 63:1.0 67:1.0 73:1.0 74:1.0 76:1.0 80:1.0 83:1.0 
1.0 3:1.0 6:1.0 16:1.0 22:1.0 36:1.0 40:1.0 48:1.0 63:1.0 67:1.0 73:1.0 75:1.0 76:1.0 80:1.0 83:1.0 
1.0 2:1.0 6:1.0 14:1.0 24:1.0 38:1.0 40:1.0 55:1.0 63:1.0 67:1.0 73:1.0 74:1.0 76:1.0 81:1.0 83:1.0 
1.0 2:1.0 6:1.0 18:1.0 22:1.0 36:1.0 40:1.0 48:1.0 63:1.0 67:1.0 73:1.0 74:1.0 76:1.0 80:1.0 83:1.0 
1.0 4:1.0 15:1.0 22:1.0 36:1.0 40:1.0 63:1.0 67:1.0 73:1.0 75:1.0 76:1.0 78:1.0 87:1.0 
1.0 4:1.0 6:1.0 17:1.0 22:1.0 36:1.0 42:1.0 50:1.0 64:1.0 67:1.0 73:1.0 74:1.0 76:1.0 82:1.0 83:1.0 
1.0 3:1.0 6:1.0 15:1.0 20:1.0 37:1.0 40:1.0 54:1.0 63:1.0 67:1.0 73:1.0 74:1.0 76:1.0 82:1.0 83:1.0 
1.0 3:1.0 6:1.0 14:1.0 23:1.0 39:1.0 42:1.0 47:1.0 64:1.0 68:1.0 73:1.0 74:1.0 77:1.0 80:1.0 90:1.0 
1.0 3:1.0 9:1.0 17:1.0 22:1.0 36:1.0 42:1.0 55:1.0 64:1.0 67:1.0 73:1.0 74:1.0 76:1.0 81:1.0 83:1.0 
1.0 3:1.0 10:1.0 17:1.0 19:1.0 39:1.0 40:1.0 52:1.0 63:1.0 67:1.0 73:1.0 74:1.0 76:1.0 80:1.0 83:1.0 
1.0 5:1.0 6:1.0 16:1.0 19:1.0 39:1.0 41:1.0 52:1.0 64:1.0 67:1.0 73:1.0 75:1.0 76:1.0 82:1.0 83:1.0 
1.0 4:1.0 7:1.0 17:1.0 29:1.0 39:1.0 40:1.0 52:1.0 63:1.0 67:1.0 73:1.0 74:1.0 76:1.0 80:1.0 83:1.0 
1.0 3:1.0 10:1.0 14:1.0 23:1.0 39:1.0 40:1.0 52:1.0 63:1.0 67:1.0 73:1.0 74:1.0 76:1.0 80:1.0 83:1.0 
1.0 5:1.0 10:1.0 14:1.0 20:1.0 37:1.0 40:1.0 59:1.0 63:1.0 67:1.0 73:1.0 74:1.0 76:1.0 80:1.0 83:1.0 
1.0 3:1.0 10:1.0 17:1.0 24:1.0 38:1.0 40:1.0 59:1.0 63:1.0 67:1.0 73:1.0 74:1.0 76:1.0 82:1.0 83:1.0 
1.0 4:1.0 7:1.0 16:1.0 22:1.0 36:1.0 40:1.0 55:1.0 61:1.0 67:1.0 72:1.0 74:1.0 76:1.0 78:1.0 83:1.0 
1.0 4:1.0 10:1.0 15:1.0 20:1.0 37:1.0 40:1.0 59:1.0 63:1.0 67:1.0 73:1.0 74:1.0 76:1.0 80:1.0 83:1.0 
1.0 3:1.0 6:1.0 18:1.0 22:1.0 36:1.0 40:1.0 50:1.0 63:1.0 67:1.0 73:1.0 74:1.0 77:1.0 81:1.0 83:1.0 
1.0 5:1.0 6:1.0 15:1.0 24:1.0 38:1.0 40:1.0 54:1.0 63:1.0 67:1.0 73:1.0 74:1.0 76:1.0 82:1.0 83:1.0 
1.0 2:1.0 6:1.0 15:1.0 20:1.0 37:1.0 40:1.0 51:1.0 63:1.0 67:1.0 73:1.0 75:1.0 76:1.0 82:1.0 83:1.0 
1.0 4:1.0 6:1.0 16:1.0 20:1.0 37:1.0 40:1.0 50:1.0 63:1.0 67:1.0 73:1.0 74:1.0 76:1.0 82:1.0 83:1.0 
1.0 5:1.0 6:1.0 18:1.0 25:1.0 38:1.0 42:1.0 48:1.0 64:1.0 67:1.0 73:1.0 74:1.0 76:1.0 80:1.0 83:1.0 
1.0 2:1.0 6:1.0 17:1.0 22:1.0 36:1.0 40:1.0 57:1.0 63:1.0 67:1.0 73:1.0 74:1.0 76:1.0 82:1.0 83:1.0 
1.0 3:1.0 6:1.0 18:1.0 19:1.0 39:1.0 40:1.0 52:1.0 63:1.0 68:1.0 73:1.0 74:1.0 76:1.0 80:1.0 
1.0 5:1.0 8:1.0 15:1.0 29:1.0 39:1.0 41:1.0 52:1.0 64:1.0 67:1.0 73:1.0 74:1.0 76:1.0 82:1.0 83:1.0 
1.0 3:1.0 6:1.0 14:1.0 25:1.0 38:1.0 40:1.0 55:1.0 63:1.0 67:1.0 73:1.0 75:1.0 76:1.0 80:1.0 83:1.0 
1.0 5:1.0 6:1.0 15:1.0 19:1.0 39:1.0 40:1.0 50:1.0 63:1.0 67:1.0 73:1.0 74:1.0 76:1.0 80:1.0 83:1.0 
1.0 3:1.0 6:1.0 15:1.0 22:1.0 36:1.0 40:1.0 48:1.0 63:1.0 67:1.0 73:1.0 74:1.0 76:1.0 80:1.0 83:1.0 
1.0 4:1.0 6:1.0 15:1.0 20:1.0 37:1.0 40:1.0 52:1.0 63:1.0 67:1.0 73:1.0 74:1.0 76:1.0 80:1.0 83:1.0 
1.0 2:1.0 6:1.0 16:1.0 22:1.0 36:1.0 40:1.0 50:1.0 63:1.0 67:1.0 73:1.0 74:1.0 76:1.0 80:1.0 83:1.0 
1.0 4:1.0 6:1.0 16:1.0 22:1.0 36:1.0 40:1.0 54:1.0 61:1.0 67:1.0 72:1.0 75:1.0 76:1.0 80:1.0 83:1.0 
1.0 5:1.0 6:1.0 16:1.0 29:1.0 39:1.0 40:1.0 50:1.0 63:1.0 67:1.0 73:1.0 74:1.0 76:1.0 80:1.0 83:1.0 
1.0 3:1.0 7:1.0 18:1.0 23:1.0 39:1.0 40:1.0 52:1.0 63:1.0 67:1.0 73:1.0 74:1.0 76:1.0 82:1.0 83:1.0 
1.0 3:1.0 6:1.0 18:1.0 19:1.0 39:1.0 40:1.0 51:1.0 63:1.0 67:1.0 73:1.0 74:1.0 76:1.0 82:1.0 83:1.0 
1.0 4:1.0 6:1.0 16:1.0 19:1.0 39:1.0 42:1.0 51:1.0 64:1.0 67:1.0 73:1.0 74:1.0 76:1.0 80:1.0 83:1.0 
1.0 2:1.0 6:1.0 17:1.0 20:1.0 37:1.0 40:1.0 48:1.0 63:1.0 67:1.0 73:1.0 74:1.0 76:1.0 80:1.0 83:1.0 
1.0 4:1.0 6:1.0 16:1.0 21:1.0 35:1.0 40:1.0 50:1.0 63:1.0 67:1.0 73:1.0 74:1.0 76:1.0 80:1.0 83:1.0 
1.0 3:1.0 6:1.0 18:1.0 24:1.0 38:1.0 40:1.0 50:1.0 63:1.0 71:1.0 73:1.0 74:1.0 77:1.0 82:1.0 83:1.0 
1.0 5:1.0 6:1.0 16:1.0 22:1.0 36:1.0 40:1.0 48:1.0 63:1.0 67:1.0 73:1.0 75:1.0 76:1.0 79:1.0 83:1.0 
1.0 3:1.0 10:1.0 16:1.0 20:1.0 37:1.0 40:1.0 59:1.0 63:1.0 67:1.0 73:1.0 74:1.0 76:1.0 82:1.0 83:1.0 
1.0 2:1.0 6:1.0 16:1.0 20:1.0 37:1.0 40:1.0 57:1.0 63:1.0 67:1.0 73:1.0 74:1.0 76:1.0 80:1.0 83:1.0 
1.0 3:1.0 6:1.0 14:1.0 23:1.0 39:1.0 42:1.0 52:1.0 64:1.0 67:1.0 72:1.0 75:1.0 76:1.0 82:1.0 83:1.0 
1.0 3:1.0 6:1.0 17:1.0 20:1.0 37:1.0 40:1.0 50:1.0 63:1.0 67:1.0 73:1.0 74:1.0 76:1.0 82:1.0 88:1.0 
1.0 5:1.0 7:1.0 15:1.0 22:1.0 36:1.0 40:1.0 57:1.0 63:1.0 67:1.0 73:1.0 74:1.0 76:1.0 79:1.0 83:1.0 
1.0 4:1.0 7:1.0 14:1.0 19:1.0 39:1.0 41:1.0 52:1.0 64:1.0 67:1.0 73:1.0 74:1.0 76:1.0 82:1.0 83:1.0 
1.0 4:1.0 9:1.0 16:1.0 22:1.0 36:1.0 40:1.0 55:1.0 61:1.0 67:1.0 72:1.0 74:1.0 76:1.0 80:1.0 83:1.0 
1.0 4:1.0 10:1.0 14:1.0 19:1.0 39:1.0 40:1.0 59:1.0 63:1.0 67:1.0 73:1.0 74:1.0 76:1.0 80:1.0 83:1.0 
1.0 5:1.0 6:1.0 14:1.0 29:1.0 39:1.0 40:1.0 52:1.0 63:1.0 67:1.0 73:1.0 74:1.0 76:1.0 80:1.0 
1.0 2:1.0 11:1.0 15:1.0 24:1.0 38:1.0 42:1.0 52:1.0 64:1.0 71:1.0 73:1.0 74:1.0 76:1.0 80:1.0 83:1.0 
1.0 3:1.0 6:1.0 16:1.0 19:1.0 39:1.0 40:1.0 52:1.0 63:1.0 67:1.0 73:1.0 74:1.0 76:1.0 80:1.0 83:1.0 
1.0 3:1.0 6:1.0 15:1.0 19:1.0 39:1.0 40:1.0 47:1.0 63:1.0 67:1.0 73:1.0 74:1.0 76:1.0 80:1.0 83:1.0 
1.0 3:1.0 6:1.0 17:1.0 21:1.0 35:1.0 42:1.0 59:1.0 64:1.0 71:1.0 73:1.0 75:1.0 76:1.0 80:1.0 83:1.0 
1.0 4:1.0 6:1.0 17:1.0 22:1.0 36:1.0 40:1.0 54:1.0 63:1.0 71:1.0 73:1.0 74:1.0 76:1.0 80:1.0 83:1.0 
1.0 3:1.0 6:1.0 14:1.0 20:1.0 37:1.0 41:1.0 55:1.0 64:1.0 67:1.0 72:1.0 74:1.0 76:1.0 80:1.0 83:1.0 
1.0 4:1.0 8:1.0 15:1.0 22:1.0 36:1.0 40:1.0 48:1.0 63:1.0 67:1.0 73:1.0 74:1.0 76:1.0 82:1.0 83:1.0 
1.0 5:1.0 6:1.0 16:1.0 22:1.0 36:1.0 40:1.0 57:1.0 63:1.0 67:1.0 73:1.0 74:1.0 76:1.0 81:1.0 83:1.0 
1.0 5:1.0 7:1.0 18:1.0 24:1.0 38:1.0 40:1.0 50:1.0 63:1.0 67:1.0 73:1.0 74:1.0 76:1.0 82:1.0 83:1.0 
1.0 5:1.0 7:1.0 15:1.0 19:1.0 39:1.0 45:1.0 52:1.0 64:1.0 67:1.0 72:1.0 74:1.0 76:1.0 80:1.0 83:1.0 
1.0 5:1.0 6:1.0 17:1.0 22:1.0 36:1.0 44:1.0 55:1.0 64:1.0 67:1.0 72:1.0 75:1.0 76:1.0 78:1.0 88:1.0 
1.0 5:1.0 6:1.0 14:1.0 20:1.0 37:1.0 40:1.0 47:1.0 63:1.0 67:1.0 73:1.0 74:1.0 76:1.0 80:1.0 83:1.0 
1.0 5:1.0 6:1.0 14:1.0 25:1.0 38:1.0 40:1.0 48:1.0 63:1.0 67:1.0 73:1.0 74:1.0 76:1.0 81:1.0 83:1.0 
1.0 4:1.0 6:1.0 18:1.0 25:1.0 38:1.0 40:1.0 52:1.0 63:1.0 67:1.0 73:1.0 74:1.0 76:1.0 80:1.0 83:1.0 
1.0 4:1.0 6:1.0 15:1.0 19:1.0 39:1.0 45:1.0 52:1.0 65:1.0 68:1.0 72:1.0 74:1.0 76:1.0 79:1.0 98:1.0 
1.0 4:1.0 10:1.0 16:1.0 31:1.0 35:1.0 40:1.0 53:1.0 63:1.0 67:1.0 73:1.0 75:1.0 76:1.0 80:1.0 83:1.0 
1.0 2:1.0 6:1.0 17:1.0 20:1.0 37:1.0 40:1.0 52:1.0 63:1.0 67:1.0 73:1.0 75:1.0 76:1.0 82:1.0 83:1.0 
1.0 2:1.0 7:1.0 18:1.0 22:1.0 36:1.0 42:1.0 48:1.0 64:1.0 67:1.0 73:1.0 74:1.0 76:1.0 82:1.0 83:1.0 
1.0 3:1.0 6:1.0 15:1.0 19:1.0 39:1.0 42:1.0 52:1.0 64:1.0 67:1.0 73:1.0 74:1.0 76:1.0 81:1.0 83:1.0 
1.0 4:1.0 8:1.0 15:1.0 24:1.0 38:1.0 40:1.0 51:1.0 63:1.0 67:1.0 73:1.0 74:1.0 76:1.0 82:1.0 83:1.0 
1.0 4:1.0 6:1.0 16:1.0 22:1.0 36:1.0 40:1.0 54:1.0 63:1.0 67:1.0 73:1.0 74:1.0 76:1.0 82:1.0 83:1.0 
1.0 2:1.0 6:1.0 17:1.0 19:1.0 39:1.0 42:1.0 52:1.0 64:1.0 67:1.0 73:1.0 74:1.0 76:1.0 82:1.0 83:1.0 
1.0 3:1.0 6:1.0 17:1.0 19:1.0 39:1.0 44:1.0 52:1.0 66:1.0 67:1.0 72:1.0 74:1.0 76:1.0 82:1.0 100:1.0 
1.0 4:1.0 6:1.0 14:1.0 19:1.0 39:1.0 42:1.0 50:1.0 64:1.0 67:1.0 73:1.0 75:1.0 76:1.0 82:1.0 83:1.0 
